{"learner":{"attributes":{"best_iteration":"6","best_score":"1.019781044200189"},"feature_names":[],"feature_types":[],"gradient_booster":{"model":{"gbtree_model_param":{"num_parallel_tree":"5","num_trees":"85"},"iteration_indptr":[0,5,10,15,20,25,30,35,40,45,50,55,60,65,70,75,80,85],"tree_info":[0,0,0,0,0,0,0,0,0,0,0,0,0,0,0,0,0,0,0,0,0,0,0,0,0,0,0,0,0,0,0,0,0,0,0,0,0,0,0,0,0,0,0,0,0,0,0,0,0,0,0,0,0,0,0,0,0,0,0,0,0,0,0,0,0,0,0,0,0,0,0,0,0,0,0,0,0,0,0,0,0,0,0,0,0],"trees":[{"base_weights":[4.9647372E-2,3.1919315E-1,-1.0033829E0,2.0073095E-1,1.0739623E0,-4.909074E-1,-1.4371669E0,4.3854803E-1,-3.4718826E-1,1.203406E0,2.9941386E-1,-8.8411045E-1,1.558118E-1,1.1265528E0,7.245711E-2,-1.9706558E-2,-9.325506E-1,-2.5450006E-1,1.6284153E0,-1.198065E0,-1.12229966E-1,-2.1887902E-2,2.075878E-1,-6.775461E-1,2.6830134E-1,-2.6374945E-1,4.642466E-1,1.7121206E-1,5.9623283E-1,-4.2994902E-1,-4.370416E-2,-2.5741354E-1,9.8722064E-1,3.1749704E-1,-2.1021914E-1,-1.5244348E-1,-5.530294E-1,9.162831E-2,-1.9364306E-1,8.5041106E-2,5.029013E-1,3.1620339E-3,-3.5753557E-1,-5.0888646E-2,2.0680006E-1,2.0091543E-1,-1.6135792E-1,6.2067133E-1,2.1733405E-1,-1.9600171E-1,2.004663E-1],"categories":[],"categories_nodes":[],"categories_segments":[],"categories_sizes":[],"default_left":[1,1,1,1,1,1,0,1,1,1,0,1,1,0,1,1,0,0,0,0,0,0,0,0,1,1,1,1,0,1,1,0,0,1,1,0,0,1,0,1,1,1,0,0,0,0,0,0,0,0,0],"id":0,"left_children":[1,3,5,7,9,11,-1,13,15,17,-1,19,21,-1,23,25,-1,-1,-1,-1,-1,-1,-1,-1,27,29,31,33,-1,35,37,-1,-1,39,41,-1,-1,43,-1,45,47,49,-1,-1,-1,-1,-1,-1,-1,-1,-1],"loss_changes":[6.0785255E1,1.3943075E1,5.688305E0,2.0898565E1,1.19190216E-1,8.087383E0,0E0,2.7166859E1,9.424282E0,1.2720528E1,0E0,3.7663593E0,1.7048815E-1,0E0,1.2452407E1,5.15296E0,0E0,0E0,0E0,0E0,0E0,0E0,0E0,0E0,1.509212E0,9.4267535E-1,7.0028706E0,3.6570132E0,0E0,5.5186987E-2,4.809772E-1,0E0,0E0,1.682725E0,6.2603694E-1,0E0,0E0,2.8513116E-1,0E0,9.477323E-1,2.7138233E-2,7.631179E-1,0E0,0E0,0E0,0E0,0E0,0E0,0E0,0E0,0E0],"parents":[2147483647,0,0,1,1,2,2,3,3,4,4,5,5,7,7,8,8,9,9,11,11,12,12,14,14,15,15,24,24,25,25,26,26,27,27,29,29,30,30,33,33,34,34,37,37,39,39,40,40,41,41],"right_children":[2,4,6,8,10,12,-1,14,16,18,-1,20,22,-1,24,26,-1,-1,-1,-1,-1,-1,-1,-1,28,30,32,34,-1,36,38,-1,-1,40,42,-1,-1,44,-1,46,48,50,-1,-1,-1,-1,-1,-1,-1,-1,-1],"split_conditions":[6.982899E-1,5.9276545E-1,9.2040384E-1,4.0182906E-1,6.651378E-1,8.282705E-1,-1.5810867E-1,1.749303E-1,6.9656885E-1,6.8065E-1,3.2939754E-2,8.198434E-1,6.622358E-1,1.2393672E-1,2.555E-2,5.5525005E-1,-1.0259374E-1,-2.7998602E-2,1.7914869E-1,-1.3180408E-1,-1.2346881E-2,-2.4079785E-3,2.283759E-2,-7.453964E-2,8.266722E-1,2.858278E-1,6.3422203E-1,5.7557714E-1,6.559403E-2,8.376581E-2,6.3355005E-1,-2.8319126E-2,1.08608216E-1,3.677538E-1,7.6925004E-1,-1.6770937E-2,-6.0841046E-2,5.508564E-1,-2.1303473E-2,2.5945884E-1,4.622785E-1,6.612078E-1,-3.9333962E-2,-5.59847E-3,2.2750927E-2,2.2103535E-2,-1.775165E-2,6.828261E-2,2.3909815E-2,-2.1562956E-2,2.2054125E-2],"split_indices":[1,1,1,1,1,1,0,2,2,2,0,2,2,0,1,1,0,0,0,0,0,0,0,0,2,2,2,2,0,2,2,0,0,2,2,0,0,2,0,2,2,2,0,0,0,0,0,0,0,0,0],"split_type":[0,0,0,0,0,0,0,0,0,0,0,0,0,0,0,0,0,0,0,0,0,0,0,0,0,0,0,0,0,0,0,0,0,0,0,0,0,0,0,0,0,0,0,0,0,0,0,0,0,0,0],"sum_hessian":[2.02E2,1.64E2,3.8E1,1.48E2,1.6E1,2.3E1,1.5E1,1.04E2,4.4E1,1.1E1,5E0,1.3E1,1E1,3.2E1,7.2E1,3.2E1,1.2E1,3E0,8E0,7E0,6E0,3E0,7E0,1.2E1,6E1,2.3E1,9E0,5.3E1,7E0,1E1,1.3E1,5E0,4E0,3.9E1,1.4E1,7E0,3E0,8E0,5E0,2.1E1,1.8E1,8E0,6E0,5E0,3E0,1.5E1,6E0,8E0,1E1,4E0,4E0],"tree_param":{"num_deleted":"0","num_feature":"3","num_nodes":"51","size_leaf_vector":"1"}},{"base_weights":[-3.7955623E-2,7.768635E-1,-7.39394E-1,9.0330535E-1,-6.964206E-1,-5.550927E-1,-1.57543E0,1.5596744E0,6.523143E-1,-1.0738221E0,-4.6198234E-1,-1.4600416E-1,7.471588E-1,1.5762609E-1,-6.316063E-1,2.5654972E-2,-2.4165423E-1,5.5546063E-1,1.471235E0,-4.3874532E-1,3.554335E-1,-3.1219578E-1,-1.1710191E0,-9.654518E-2,5.236652E-1,-4.7137532E-1,-1.22848146E-1,7.005775E-1,1.5324716E-1,1.9373013E-1,-3.8777468E-1,-9.82811E-2,5.2217907E-1,1.8220583E-1,-3.0018017E-1],"categories":[],"categories_nodes":[],"categories_segments":[],"categories_sizes":[],"default_left":[1,1,1,1,0,1,0,0,1,0,1,1,1,1,1,0,0,0,0,0,1,1,0,0,1,0,1,0,0,1,0,1,0,0,0],"id":1,"left_children":[1,3,5,7,-1,9,-1,-1,11,-1,13,15,17,19,21,-1,-1,-1,-1,-1,23,25,-1,-1,27,-1,29,-1,-1,31,-1,33,-1,-1,-1],"loss_changes":[1.1685189E2,2.123524E1,1.1910801E1,8.969559E0,0E0,1.9348564E0,0E0,0E0,6.279684E0,0E0,1.0417475E1,2.4409264E-1,4.7319984E0,3.805457E0,1.0784552E1,0E0,0E0,0E0,0E0,0E0,1.9394748E0,1.3183165E0,0E0,0E0,4.8198843E-1,0E0,3.1723757E0,0E0,0E0,2.0875597E0,0E0,1.1453567E0,0E0,0E0,0E0],"parents":[2147483647,0,0,1,1,2,2,3,3,5,5,8,8,10,10,11,11,12,12,13,13,14,14,20,20,21,21,24,24,26,26,29,29,31,31],"right_children":[2,4,6,8,-1,10,-1,-1,12,-1,14,16,18,20,22,-1,-1,-1,-1,-1,24,26,-1,-1,28,-1,30,-1,-1,32,-1,34,-1,-1,-1],"split_conditions":[3.583309E-1,9.951E-1,9.068167E-1,6.800796E-2,-7.66161E-2,5.172077E-3,-1.7331956E-1,1.7158622E-1,1.1251862E-1,-1.181356E-1,2.0394555E-1,1.702618E-1,3.3478177E-1,4.9811912E-1,7.953635E-1,2.8224094E-3,-2.658538E-2,6.1108515E-2,1.6185664E-1,-4.8268184E-2,1.19187355E-1,5.987064E-1,-1.2882864E-1,-1.06213335E-2,1.4601965E-1,-5.1857945E-2,7.8772575E-1,7.707342E-2,1.6859353E-2,7.2486746E-1,-4.266069E-2,6.316E-1,5.7447072E-2,2.0045215E-2,-3.3024058E-2],"split_indices":[0,2,2,2,0,2,0,0,2,0,2,0,0,0,0,0,0,0,0,0,2,2,0,0,2,0,2,0,0,2,0,2,0,0,0],"split_type":[0,0,0,0,0,0,0,0,0,0,0,0,0,0,0,0,0,0,0,0,0,0,0,0,0,0,0,0,0,0,0,0,0,0,0],"sum_hessian":[1.93E2,8.9E1,1.04E2,8.4E1,5E0,9.3E1,1.1E1,1.5E1,6.9E1,5E0,8.8E1,7E0,6.2E1,1.9E1,6.9E1,4E0,3E0,5.7E1,5E0,3E0,1.6E1,4.9E1,2E1,5E0,1.1E1,2.2E1,2.7E1,4E0,7E0,1.3E1,1.4E1,9E0,4E0,4E0,5E0],"tree_param":{"num_deleted":"0","num_feature":"3","num_nodes":"35","size_leaf_vector":"1"}},{"base_weights":[-8.8017404E-2,1.4615509E-1,-9.3421865E-1,8.1154037E-1,-5.1344097E-1,-2.6476693E-1,-1.1609911E0,-2.4584334E-1,-1.0519783E0,1.0345927E-2,-5.8740073E-1,-4.9526384E-1,3.5903912E-2,-3.9916873E-1,-1.3639776E0,1.233992E-1,-1.08223334E-1,-6.071813E-1,-1.672221E-1,-5.903649E-1,2.2121269E-1,-8.240058E-1,5.312271E-1,1.11341454E-1,-3.4045565E-1,8.2210547E-1,-1.7952329E-1,1.9055331E-1,-3.9966628E-1,-6.650608E-2,-5.094883E-1],"categories":[],"categories_nodes":[],"categories_segments":[],"categories_sizes":[],"default_left":[1,1,1,0,1,1,0,1,1,1,0,1,1,1,0,0,0,0,1,0,1,0,0,0,0,0,1,0,1,0,0],"id":2,"left_children":[1,3,5,-1,7,9,-1,11,13,15,-1,17,19,21,-1,-1,-1,-1,23,-1,25,-1,-1,-1,-1,-1,27,-1,29,-1,-1],"loss_changes":[4.0948128E1,7.422935E1,5.0323334E0,0E0,1.0875029E1,1.6954329E0,0E0,4.6489525E0,2.3312664E0,2.8684756E-1,0E0,6.9455624E-1,4.8900104E0,9.104537E0,0E0,0E0,0E0,0E0,1.0228326E0,0E0,8.478548E0,0E0,0E0,0E0,0E0,0E0,2.366541E0,0E0,4.179132E-1,0E0,0E0],"parents":[2147483647,0,0,1,1,2,2,4,4,5,5,7,7,8,8,9,9,11,11,12,12,13,13,18,18,20,20,26,26,28,28],"right_children":[2,4,6,-1,8,10,-1,12,14,16,-1,18,20,22,-1,-1,-1,-1,24,-1,26,-1,-1,-1,-1,-1,28,-1,30,-1,-1],"split_conditions":[6.982899E-1,3.583309E-1,4.660173E-1,8.92809E-2,4.9525598E-1,9.324845E-1,-1.2772542E-1,6.977134E-1,7.2518647E-1,1.7493476E-1,-6.462238E-2,3.144986E-1,3.073586E-2,5.7229996E-1,-1.500568E-1,1.35756545E-2,-1.1906096E-2,-6.679852E-2,3.8736492E-1,-6.494848E-2,1.5242173E-1,-9.065227E-2,5.8442485E-2,1.2249133E-2,-3.745493E-2,9.0443216E-2,7.9229593E-1,2.0963555E-2,3.3127618E-1,-7.3166084E-3,-5.6050908E-2],"split_indices":[1,0,0,0,1,1,0,0,0,0,0,1,1,1,0,0,0,0,1,0,1,0,0,0,0,0,0,0,1,0,0],"split_type":[0,0,0,0,0,0,0,0,0,0,0,0,0,0,0,0,0,0,0,0,0,0,0,0,0,0,0,0,0,0,0],"sum_hessian":[1.97E2,1.58E2,3.9E1,7.8E1,8E1,1.3E1,2.6E1,5.9E1,2.1E1,1E1,3E0,2.9E1,3E1,1.1E1,1E1,5E0,5E0,1.8E1,1.1E1,4E0,2.6E1,8E0,3E0,5E0,6E0,8E0,1.8E1,7E0,1.1E1,5E0,6E0],"tree_param":{"num_deleted":"0","num_feature":"3","num_nodes":"31","size_leaf_vector":"1"}},{"base_weights":[-4.2513706E-2,2.0121686E-1,-1.0108526E0,9.052803E-1,-5.7632524E-1,1.233992E-1,-1.1845343E0,7.376746E-1,1.5271355E0,-3.2705724E-1,-1.1526527E0,1.1707562E0,5.103841E-1,-3.9207667E-1,3.5546926E-1,1.3475729E0,-1.7179862E-2,-2.2563629E-1,-6.6740316E-1,-6.7375195E-1,-8.3097994E-2,-3.1315023E-1,3.075661E-1,6.534575E-2,-3.6963147E-1,-8.9959435E-2,-6.8400633E-1],"categories":[],"categories_nodes":[],"categories_segments":[],"categories_sizes":[],"default_left":[1,1,1,1,1,0,0,1,0,1,0,1,0,1,0,0,0,1,0,0,1,1,0,0,1,0,0],"id":3,"left_children":[1,3,5,7,9,-1,-1,11,-1,13,-1,15,-1,17,-1,-1,-1,19,-1,-1,21,23,-1,-1,25,-1,-1],"loss_changes":[4.9003857E1,9.4242874E1,9.051529E0,2.9174728E0,9.729496E0,0E0,0E0,4.6311226E0,0E0,3.7118902E0,0E0,5.1124535E0,0E0,2.0138226E0,0E0,0E0,0E0,2.727725E0,0E0,0E0,4.3884754E0,7.7306557E-1,0E0,0E0,1.9970462E0,0E0,0E0],"parents":[2147483647,0,0,1,1,2,2,3,3,4,4,7,7,9,9,11,11,13,13,17,17,20,20,21,21,24,24],"right_children":[2,4,6,8,10,-1,-1,12,-1,14,-1,16,-1,18,-1,-1,-1,20,-1,-1,22,24,-1,-1,26,-1,-1],"split_conditions":[7.2970635E-1,3.583309E-1,1.2226732E-1,3.3478177E-1,8.7875646E-1,1.35756545E-2,-1.3031551E-1,3.45E-3,1.6800648E-1,8.543809E-1,-1.2680808E-1,4.2827708E-1,5.614946E-2,5.0533E-1,3.910664E-2,1.4825206E-1,-1.8900274E-3,2.555E-2,-7.342377E-2,-7.4122235E-2,6.381354E-1,2.2086805E-1,3.3836618E-2,7.1889553E-3,5.4557204E-1,-9.896808E-3,-7.525036E-2],"split_indices":[1,0,0,0,0,0,0,0,0,0,0,1,0,1,0,0,0,1,0,0,0,1,0,0,0,0,0],"split_type":[0,0,0,0,0,0,0,0,0,0,0,0,0,0,0,0,0,0,0,0,0,0,0,0,0,0,0],"sum_hessian":[1.97E2,1.61E2,3.6E1,8.4E1,7.7E1,5E0,3.1E1,7.6E1,8E0,6E1,1.7E1,1.8E1,5.8E1,5.7E1,3E0,1.5E1,3E0,4.2E1,1.5E1,5E0,3.7E1,2.4E1,1.3E1,3E0,2.1E1,1.5E1,6E0],"tree_param":{"num_deleted":"0","num_feature":"3","num_nodes":"27","size_leaf_vector":"1"}},{"base_weights":[4.769642E-2,6.420479E-1,-1.9649747E-1,9.459355E-1,3.835832E-1,-8.1813745E-2,-1.2785895E0,-1.4579058E-1,8.608344E-1,-3.2238877E-1,1.7297682E-1,4.248396E-1,-7.3894167E-1,4.1595054E-1,-8.88553E-1,8.027695E-1,-4.0098482E-1,7.701646E-1,-2.6729465E-3,5.582654E-1,1.5426425E-2,-4.6648535E-1,-1.2862803E0,-3.330228E-2,9.549984E-1,-2.0106721E-1,-7.196047E-1,3.5838047E-3,-6.713491E-3,-1.1857081E-1,1.07573E-1,-5.87963E-1,-3.4269786E-3,4.3687212E-1,1.1777896E0,-6.402867E-1,-5.7223826E-3,1.6337986E-1,-1.6798718E-1,5.8441675E-1,-9.871131E-2,-7.931294E-2,2.0680006E-1,3.269071E-3,-1.8900415E-1,4.704346E-1,-3.3813375E-1],"categories":[],"categories_nodes":[],"categories_segments":[],"categories_sizes":[],"default_left":[1,1,1,0,1,1,0,1,0,1,1,1,0,1,1,1,1,0,1,0,1,1,0,0,1,1,0,0,0,0,0,0,1,1,0,0,1,0,0,0,0,1,0,1,0,0,0],"id":4,"left_children":[1,3,5,-1,7,9,-1,11,-1,13,15,17,-1,19,21,23,25,-1,27,-1,29,31,-1,-1,33,35,-1,-1,-1,-1,-1,-1,37,39,-1,-1,41,-1,-1,-1,-1,43,-1,45,-1,-1,-1],"loss_changes":[2.7818962E1,2.3037949E0,1.6368189E1,0E0,1.0749197E1,8.269182E0,0E0,9.817804E0,0E0,3.0832787E1,2.5952295E1,2.3310642E0,0E0,1.872323E0,3.4076385E0,4.472048E0,1.6395488E0,0E0,4.5870917E-4,0E0,2.5446635E-1,1.6034784E0,0E0,0E0,3.759861E-1,2.69979E0,0E0,0E0,0E0,0E0,0E0,0E0,4.7816303E-1,1.7289178E0,0E0,0E0,5.270361E-1,0E0,0E0,0E0,0E0,2.2736607E-1,0E0,4.0519333E0,0E0,0E0,0E0],"parents":[2147483647,0,0,1,1,2,2,4,4,5,5,7,7,9,9,10,10,11,11,13,13,14,14,15,15,16,16,18,18,20,20,21,21,24,24,25,25,32,32,33,33,36,36,41,41,43,43],"right_children":[2,4,6,-1,8,10,-1,12,-1,14,16,18,-1,20,22,24,26,-1,28,-1,30,32,-1,-1,34,36,-1,-1,-1,-1,-1,-1,38,40,-1,-1,42,-1,-1,-1,-1,44,-1,46,-1,-1,-1],"split_conditions":[2.004362E-1,8E-4,9.9300003E-1,1.0406627E-1,1.1459543E-1,5.987064E-1,-1.4066291E-1,1.8476734E-1,9.470394E-2,4.043653E-1,3.583309E-1,3.45E-3,-8.129402E-2,2.474309E-1,8.7475E-1,5.7130896E-2,7.4736905E-1,8.4728986E-2,1.6045114E-1,6.1417077E-2,3.0730385E-1,7.456604E-1,-1.41509E-1,-3.6637213E-3,2.8000605E-1,3.783E-1,-7.916668E-2,3.9426915E-4,-7.3857885E-4,-1.3044464E-2,1.183455E-2,-6.4684235E-2,8.017671E-1,2.061471E-1,1.295735E-1,-7.044058E-2,6.381354E-1,1.7974094E-2,-1.8480962E-2,6.42941E-2,-1.0859638E-2,5.9101737E-1,2.2750927E-2,7.8772575E-1,-2.0793127E-2,5.1754452E-2,-3.719949E-2],"split_indices":[2,2,2,0,2,2,0,0,0,0,0,0,0,0,0,0,0,0,0,0,0,0,0,0,0,0,0,0,0,0,0,0,0,0,0,0,0,0,0,0,0,0,0,2,0,0,0],"split_type":[0,0,0,0,0,0,0,0,0,0,0,0,0,0,0,0,0,0,0,0,0,0,0,0,0,0,0,0,0,0,0,0,0,0,0,0,0,0,0,0,0,0,0,0,0,0,0],"sum_hessian":[1.81E2,5E1,1.31E2,1.6E1,3.4E1,1.24E2,7E0,1.8E1,1.6E1,6.3E1,6.1E1,1E1,8E0,2.8E1,3.5E1,2.8E1,3.3E1,3E0,7E0,1.9E1,9E0,2.3E1,1.2E1,5E0,2.3E1,2.6E1,7E0,3E0,4E0,3E0,6E0,1.7E1,6E0,1.2E1,1.1E1,4E0,2.2E1,3E0,3E0,9E0,3E0,1.9E1,3E0,1.4E1,5E0,5E0,9E0],"tree_param":{"num_deleted":"0","num_feature":"3","num_nodes":"47","size_leaf_vector":"1"}},{"base_weights":[-1.4733369E-2,1.6741529E-1,-7.138314E-1,2.7607384E-1,-7.744132E-1,-9.923496E-1,-1.2959594E-1,5.456768E-1,1.6853823E-1,1.4737138E-1,-3.9067248E-1,3.3141786E-1,7.3889476E-1,-3.8285345E-1,2.1486115E-1,-3.3884194E-2,2.4196343E-1,6.878447E-1,-6.343357E-1,2.9502245E-2,5.94501E-1,1.1745388E-1,8.866484E-1,1.0454232E-1,-4.9566457E-1,7.0821846E-1,-3.791358E-2,-2.6540017E-1,1.8770127E-1,6.175158E-2,-5.038632E-1,2.729127E-1,-1.8186184E-2,2.2493389E-1,-1.4191361E-1,3.7376088E-1,3.6717534E-2,-1.7363797E-1,1.443251E-1],"categories":[],"categories_nodes":[],"categories_segments":[],"categories_sizes":[],"default_left":[1,1,1,1,0,0,1,1,1,1,0,1,0,0,1,0,0,1,0,1,1,0,0,1,0,0,0,1,1,1,0,1,1,0,0,0,0,0,0],"id":5,"left_children":[1,3,5,7,-1,-1,9,11,13,15,-1,17,-1,-1,19,-1,-1,21,-1,23,25,-1,-1,27,-1,-1,-1,29,31,33,-1,35,37,-1,-1,-1,-1,-1,-1],"loss_changes":[2.5094738E1,1.7258179E1,5.8900185E0,3.6702738E0,0E0,0E0,1.7539972E0,2.0422077E-1,3.3230336E0,2.8188244E-1,0E0,1.2374142E1,0E0,0E0,7.4090056E0,0E0,0E0,2.093975E0,0E0,3.3583376E0,2.6495638E0,0E0,0E0,2.5213175E0,0E0,0E0,0E0,1.4032791E0,1.1285269E0,5.714599E-1,0E0,9.866259E-1,7.4208254E-1,0E0,0E0,0E0,0E0,0E0,0E0],"parents":[2147483647,0,0,1,1,2,2,3,3,6,6,7,7,8,8,9,9,11,11,14,14,17,17,19,19,20,20,23,23,27,27,28,28,29,29,31,31,32,32],"right_children":[2,4,6,8,-1,-1,10,12,14,16,-1,18,-1,-1,20,-1,-1,22,-1,24,26,-1,-1,28,-1,-1,-1,30,32,34,-1,36,38,-1,-1,-1,-1,-1,-1],"split_conditions":[7.2970635E-1,9.622785E-1,6.366721E-1,1.4226952E-1,-8.519639E-2,-1.0917248E-1,8.060285E-1,9.267691E-2,1.6398603E-1,7.2486746E-1,-4.297949E-2,4.6746382E-1,8.128886E-2,-4.2119287E-2,5.5525005E-1,-3.72774E-3,2.6619395E-2,9.445731E-2,-6.9785886E-2,5.10074E-1,6.982899E-1,1.2921586E-2,9.754385E-2,2.555E-2,-5.4530103E-2,7.791404E-2,-4.171029E-3,2.965787E-1,5.518829E-1,4.7889203E-3,-5.543207E-2,3.162672E-1,3.392448E-1,2.4745906E-2,-1.5612502E-2,4.1118976E-2,4.0394473E-3,-1.910263E-2,1.58778E-2],"split_indices":[1,2,2,2,0,0,2,2,2,2,0,1,0,0,1,0,0,1,0,1,1,0,0,1,0,0,0,2,2,1,0,1,1,0,0,0,0,0,0],"split_type":[0,0,0,0,0,0,0,0,0,0,0,0,0,0,0,0,0,0,0,0,0,0,0,0,0,0,0,0,0,0,0,0,0,0,0,0,0,0,0],"sum_hessian":[1.86E2,1.51E2,3.5E1,1.39E2,1.2E1,2.1E1,1.4E1,3.3E1,1.06E2,8E0,6E0,2.3E1,1E1,5E0,1.01E2,4E0,4E0,1.8E1,5E0,7.2E1,2.9E1,7E0,1.1E1,6.7E1,5E0,2.4E1,5E0,1E1,5.7E1,6E0,4E0,3.9E1,1.8E1,3E0,3E0,2.5E1,1.4E1,9E0,9E0],"tree_param":{"num_deleted":"0","num_feature":"3","num_nodes":"39","size_leaf_vector":"1"}},{"base_weights":[-1.5602076E-1,-5.5521697E-2,-1.1414249E0,2.0605727E-1,-1.7169441E-1,5.707466E-1,-9.2993397E-1,-1.45044075E-2,-5.842427E-1,7.888457E-1,1.515188E-1,-3.9315164E-1,7.899105E-2,-8.680236E-1,-4.799334E-2,-4.219848E-2,3.228878E-1,2.567456E-1,-1.22362494E-1,1.4737138E-1,-2.956131E-1,-1.8265945E-1,1.20760836E-1,3.4868404E-1,-1.313746E-1,-3.7338832E-1,4.287949E-1,1.46512E-1,5.2975637E-1,-1.7615391E-1,-6.661977E-1,2.7209905E-1,-5.3022847E-2,-2.6199713E-1,1.2820552E-1,8.137188E-2,3.6174083E-1,-4.6553323E-3,-8.328875E-2],"categories":[],"categories_nodes":[],"categories_segments":[],"categories_sizes":[],"default_left":[1,1,0,1,1,1,0,1,1,0,1,0,1,0,1,1,0,1,1,0,0,0,0,1,0,1,0,1,0,1,0,1,1,0,0,0,0,0,0],"id":6,"left_children":[1,3,-1,5,7,9,-1,11,13,-1,15,-1,17,-1,19,21,-1,23,25,-1,-1,-1,-1,27,-1,29,-1,31,-1,33,-1,35,37,-1,-1,-1,-1,-1,-1],"loss_changes":[1.7831347E1,5.4503965E0,0E0,2.6110569E1,7.9091797E0,3.4969187E0,0E0,3.530244E0,4.892045E0,0E0,8.317173E-1,0E0,3.068132E0,0E0,1.1055163E0,4.8555377E-1,0E0,1.8569756E0,6.6850476E0,0E0,0E0,0E0,0E0,9.3728495E-1,0E0,1.1612196E0,0E0,7.266554E-1,0E0,8.8966554E-1,0E0,1.1761367E-1,1.9320015E-2,0E0,0E0,0E0,0E0,0E0,0E0],"parents":[2147483647,0,0,1,1,3,3,4,4,5,5,7,7,8,8,10,10,12,12,14,14,15,15,17,17,18,18,23,23,25,25,27,27,29,29,31,31,32,32],"right_children":[2,4,-1,6,8,10,-1,12,14,-1,16,-1,18,-1,20,22,-1,24,26,-1,-1,-1,-1,28,-1,30,-1,32,-1,34,-1,36,38,-1,-1,-1,-1,-1,-1],"split_conditions":[9.622785E-1,2.271564E-1,-1.2557286E-1,4.9808586E-1,7.2970635E-1,1.4469501E-1,-1.02305874E-1,3.6635E-1,6.8170977E-1,8.678417E-2,2.0888141E-1,-4.3252233E-2,6.356221E-1,-9.549485E-2,8.060285E-1,3.475172E-1,3.552222E-2,5.589359E-1,6.037805E-1,1.6212933E-2,-3.2521617E-2,-2.009512E-2,1.3285398E-2,5.3530645E-1,-1.4453062E-2,8.8105E-1,4.7173496E-2,4.622785E-1,5.8280684E-2,8.266722E-1,-7.329116E-2,4.293076E-1,4.9871492E-1,-2.8823385E-2,1.4104418E-2,8.952056E-3,3.9796602E-2,-5.121523E-4,-9.162939E-3],"split_indices":[2,2,0,1,1,2,0,2,2,0,2,0,2,0,2,1,0,1,1,0,0,0,0,2,0,2,0,2,0,2,0,2,2,0,0,0,0,0,0],"split_type":[0,0,0,0,0,0,0,0,0,0,0,0,0,0,0,0,0,0,0,0,0,0,0,0,0,0,0,0,0,0,0,0,0,0,0,0,0,0,0],"sum_hessian":[1.78E2,1.67E2,1.1E1,5E1,1.17E2,4E1,1E1,8.9E1,2.8E1,2.3E1,1.7E1,1.4E1,7.5E1,1.6E1,1.2E1,1E1,7E0,3.9E1,3.6E1,8E0,4E0,5E0,5E0,3.2E1,7E0,2.6E1,1E1,2E1,1.2E1,2.1E1,5E0,1.1E1,9E0,1.7E1,4E0,7E0,4E0,6E0,3E0],"tree_param":{"num_deleted":"0","num_feature":"3","num_nodes":"39","size_leaf_vector":"1"}},{"base_weights":[-3.7246637E-2,2.894486E-1,-2.1844274E-1,5.2469677E-1,-6.2191254E-1,-1.2319346E-1,-9.243922E-1,6.547534E-1,1.3682318E-1,-3.888555E-2,-7.2807544E-1,1.3482091E-1,7.944394E-1,1.97553E-1,-1.13694575E-2,3.3672128E-2,-2.87447E-1,1.0133387E0,3.9877632E-1,1.1459041E-2,3.0580306E-1,-1.0560441E-1,7.103619E-1,-6.6495746E-1,2.2730777E-1,9.933382E-2,5.804782E-1,5.958979E-2,-4.418398E-2,5.1065143E-2,-6.1522454E-1,-1.09461196E-1,-7.468951E-1,2.149275E-1,-8.657865E-2,-4.6864727E-1,1.2938675E-1,7.443505E-2,4.0865108E-1,1.9672722E-1,-2.0212956E-2],"categories":[],"categories_nodes":[],"categories_segments":[],"categories_sizes":[],"default_left":[1,1,1,1,0,1,0,1,1,1,0,0,1,1,0,1,1,0,1,1,0,1,0,1,0,1,0,0,0,1,0,0,0,0,0,0,1,1,0,0,0],"id":7,"left_children":[1,3,5,7,-1,9,-1,11,13,15,-1,-1,17,19,-1,21,23,-1,25,27,-1,29,-1,31,-1,33,-1,-1,-1,35,-1,-1,-1,-1,-1,-1,37,39,-1,-1,-1],"loss_changes":[1.1354326E1,1.6594524E1,7.6009064E0,2.3996716E0,0E0,5.688135E0,0E0,2.417694E0,2.0821112E-1,1.9797916E0,0E0,0E0,4.3896675E-1,2.964673E-1,0E0,8.694788E0,5.6649156E0,0E0,7.975702E-1,4.6396043E-2,0E0,6.3839297E0,0E0,2.4822187E-1,0E0,4.22383E-1,0E0,0E0,0E0,2.9802582E0,0E0,0E0,0E0,0E0,0E0,0E0,7.57969E-1,6.9068503E-1,0E0,0E0,0E0],"parents":[2147483647,0,0,1,1,2,2,3,3,5,5,7,7,8,8,9,9,12,12,13,13,15,15,16,16,18,18,19,19,21,21,23,23,25,25,29,29,36,36,37,37],"right_children":[2,4,6,8,-1,10,-1,12,14,16,-1,-1,18,20,-1,22,24,-1,26,28,-1,30,-1,32,-1,34,-1,-1,-1,36,-1,-1,-1,-1,-1,-1,38,40,-1,-1,-1],"split_conditions":[2.271564E-1,4.530481E-1,9.1839457E-1,1.8485236E-1,-6.8419166E-2,9.757064E-1,-1.016962E-1,5.838586E-2,3.397205E-1,6.982899E-1,-8.0098584E-2,1.4832204E-2,1.6250661E-1,3.3105183E-1,-1.2508009E-3,6.033883E-1,8.282705E-1,1.1148157E-1,3.0390346E-1,7.048586E-2,3.3642657E-2,5.10074E-1,7.814984E-2,7.2970635E-1,2.5007065E-2,2.0934504E-1,6.3860804E-2,6.5557184E-3,-4.860862E-3,6.8500005E-3,-6.768339E-2,-1.20422775E-2,-8.216901E-2,2.364506E-2,-9.524874E-3,-5.155782E-2,8.6658055E-1,2.2906381E-1,4.4957392E-2,2.1642772E-2,-2.2237108E-3],"split_indices":[2,1,1,2,0,2,0,1,1,1,0,0,1,1,0,1,1,0,1,1,0,1,0,1,0,1,0,0,0,1,0,0,0,0,0,0,2,1,0,0,0],"split_type":[0,0,0,0,0,0,0,0,0,0,0,0,0,0,0,0,0,0,0,0,0,0,0,0,0,0,0,0,0,0,0,0,0,0,0,0,0,0,0,0,0],"sum_hessian":[1.8E2,6.3E1,1.17E2,5.2E1,1.1E1,1.09E2,8E0,3.6E1,1.6E1,1.01E2,8E0,1E1,2.6E1,1E1,6E0,8.2E1,1.9E1,1.1E1,1.5E1,6E0,4E0,7.2E1,1E1,1E1,9E0,9E0,6E0,3E0,3E0,5.9E1,1.3E1,3E0,7E0,5E0,4E0,4E0,5.5E1,5.2E1,3E0,2E1,3.2E1],"tree_param":{"num_deleted":"0","num_feature":"3","num_nodes":"41","size_leaf_vector":"1"}},{"base_weights":[-6.728974E-2,3.3862974E-2,-9.508977E-1,1.6822168E-1,-5.9647274E-1,4.9918845E-1,4.5901693E-2,-8.682547E-1,9.1605276E-2,7.4836576E-1,-3.2138905E-1,-9.419033E-2,3.811103E-1,-1.01637304E-1,1.9067252E-1,2.4515088E-1,8.7499654E-1,-6.3153766E-2,-4.2822415E-1,2.5334803E-2,-4.3300337E-1,8.119368E-1,1.6696925E-1,-3.7254128E-1,1.2428193E-1,-1.8991272E-1,-5.895034E-1,-5.585479E-1,3.867977E-1,1.4528534E-1,-5.600354E-1,-7.805301E-2,1.7202972E-1,-3.6740366E-1,1.4891915E-2,-1.1407748E-1,-6.784649E-1,-5.308043E-4,4.3394488E-1,4.9967922E-2,-1.8654226E-1,2.7502614E-1,-2.864445E-2,8.402673E-2,-7.988013E-2,5.602818E-1,1.8200187E-1,3.0565727E-1,-1.6789641E-2,-1.9683716E-1,3.1228408E-1,2.927596E-1,-7.000324E-2],"categories":[],"categories_nodes":[],"categories_segments":[],"categories_sizes":[],"default_left":[1,1,0,1,1,1,1,0,1,1,1,1,1,0,0,0,0,0,0,1,1,0,1,1,1,1,1,0,1,0,0,1,1,0,1,0,0,0,1,0,0,1,1,0,0,0,1,0,0,0,0,0,0],"id":8,"left_children":[1,3,-1,5,7,9,11,-1,13,15,17,19,21,-1,-1,-1,-1,-1,-1,23,25,-1,27,29,31,33,35,-1,37,-1,-1,39,41,-1,43,-1,-1,-1,45,-1,-1,47,49,-1,-1,-1,51,-1,-1,-1,-1,-1,-1],"loss_changes":[1.8033834E1,1.6216269E1,0E0,6.2133913E0,6.7582226E0,9.901852E0,5.873536E0,0E0,3.9227274E-1,9.232254E-1,2.2381866E-1,3.6956058E0,2.6126733E0,0E0,0E0,0E0,0E0,0E0,0E0,3.0875204E0,2.62743E-1,0E0,6.291099E0,1.9899054E0,6.7285854E-1,6.750255E-1,5.3322315E-2,0E0,5.0734377E-1,0E0,0E0,2.714229E-1,1.1137686E0,0E0,1.2815717E-1,0E0,0E0,0E0,2.0423603E-1,0E0,0E0,3.3956647E-1,1.6532426E0,0E0,0E0,0E0,5.834327E-1,0E0,0E0,0E0,0E0,0E0,0E0],"parents":[2147483647,0,0,1,1,3,3,4,4,5,5,6,6,8,8,9,9,10,10,11,11,12,12,19,19,20,20,22,22,23,23,24,24,25,25,26,26,28,28,31,31,32,32,34,34,38,38,41,41,42,42,46,46],"right_children":[2,4,-1,6,8,10,12,-1,14,16,18,20,22,-1,-1,-1,-1,-1,-1,24,26,-1,28,30,32,34,36,-1,38,-1,-1,40,42,-1,44,-1,-1,-1,46,-1,-1,48,50,-1,-1,-1,52,-1,-1,-1,-1,-1,-1],"split_conditions":[9.757064E-1,7.2970635E-1,-1.0461218E-1,1.4226952E-1,6.8170977E-1,4.6746382E-1,5.564358E-1,-9.552029E-2,8.2345635E-1,5.838586E-2,4.9808586E-1,4.0829998E-1,5.589359E-1,-1.1181539E-2,2.097667E-2,2.697006E-2,9.626198E-2,-6.9478066E-3,-4.7110707E-2,2.713558E-2,5.10074E-1,8.932452E-2,5.7275E-1,2.6418293E-1,2.2603571E-1,4.7621495E-1,6.7509997E-1,-6.144816E-2,4.7299767E-1,1.598344E-2,-6.1611805E-2,2.004362E-1,5.5985993E-1,-4.0419593E-2,6.5811884E-1,-1.2550134E-2,-7.464072E-2,-5.839597E-5,7.8178704E-1,5.497177E-3,-2.0522283E-2,3.4057048E-1,3.392448E-1,9.244127E-3,-8.787943E-3,6.1638914E-2,6.8110394E-1,3.3626616E-2,-1.8470977E-3,-2.1654868E-2,3.435566E-2,3.220769E-2,-7.7013453E-3],"split_indices":[2,1,0,2,2,1,1,0,1,1,1,1,1,0,0,0,0,0,0,1,1,0,1,2,2,2,2,0,2,0,0,2,2,0,2,0,0,0,2,0,0,1,1,0,0,0,1,0,0,0,0,0,0],"split_type":[0,0,0,0,0,0,0,0,0,0,0,0,0,0,0,0,0,0,0,0,0,0,0,0,0,0,0,0,0,0,0,0,0,0,0,0,0,0,0,0,0,0,0,0,0,0,0,0,0,0,0,0,0],"sum_hessian":[1.94E2,1.79E2,1.5E1,1.51E2,2.8E1,3.6E1,1.15E2,1.9E1,9E0,2.8E1,8E0,8.4E1,3.1E1,3E0,6E0,9E0,1.9E1,5E0,3E0,6.6E1,1.8E1,5E0,2.6E1,1E1,5.6E1,1.2E1,6E0,4E0,2.2E1,3E0,7E0,1E1,4.6E1,4E0,8E0,3E0,3E0,3E0,1.9E1,6E0,4E0,2.9E1,1.7E1,5E0,3E0,8E0,1.1E1,2.6E1,3E0,1.3E1,4E0,7E0,4E0],"tree_param":{"num_deleted":"0","num_feature":"3","num_nodes":"53","size_leaf_vector":"1"}},{"base_weights":[-3.180344E-2,1.4175957E-1,-7.4276507E-1,5.6777596E-2,8.2403046E-1,-3.5764813E-1,-9.6799845E-1,2.701832E-1,-5.0580513E-1,1.3582377E0,1.8784383E-1,-6.505459E-1,1.8810433E-1,7.9653484E-1,-1.4073393E-1,2.0407993E-1,-1.0481294E0,-4.7749173E-2,2.714834E-1,1.6758874E-2,2.3118684E-1,-5.5278724E-1,-2.5761832E-2,-2.4637689E-1,4.7697067E-1,-2.0878485E-1,1.8589002E-1,-4.0575784E-2,-3.142867E-1,-4.044559E-1,8.382932E-1,-3.7071194E-2,-5.7380533E-1,3.671865E-1,-1.5383695E-1,-1.5638478E-1,6.876864E-2,4.4751313E-1,1.3392922E-1,9.713784E-2,-2.6550037E-1,-1.333427E-2,-2.3693527E-1,1.3627064E-1,-8.088354E-2,-9.451068E-2,2.8361043E-1],"categories":[],"categories_nodes":[],"categories_segments":[],"categories_sizes":[],"default_left":[1,1,1,1,1,1,0,1,1,0,1,0,1,0,1,1,0,0,0,0,0,0,1,1,1,1,1,0,0,0,0,1,0,1,1,1,1,0,1,0,0,0,0,0,0,0,0],"id":9,"left_children":[1,3,5,7,9,11,-1,13,15,-1,17,-1,19,-1,21,23,-1,-1,-1,-1,-1,-1,25,27,29,31,33,-1,-1,-1,-1,35,-1,37,39,41,43,-1,45,-1,-1,-1,-1,-1,-1,-1,-1],"loss_changes":[2.4998026E1,9.224876E0,1.4676228E0,1.8994427E1,4.562028E0,4.488828E0,0E0,2.5234138E1,1.8049328E1,0E0,3.6388505E-1,0E0,7.170287E-2,0E0,3.1738029E0,3.5856204E0,0E0,0E0,0E0,0E0,0E0,0E0,2.5346222E0,1.0481781E-1,7.2579136E0,2.0541353E0,2.2140326E0,0E0,0E0,0E0,0E0,4.3659395E-1,0E0,6.453776E-2,5.595159E-1,1.6298482E-1,2.6204717E-1,0E0,6.2185264E-1,0E0,0E0,0E0,0E0,0E0,0E0,0E0,0E0],"parents":[2147483647,0,0,1,1,2,2,3,3,4,4,5,5,7,7,8,8,10,10,12,12,14,14,15,15,22,22,23,23,24,24,25,25,26,26,31,31,33,33,34,34,35,35,36,36,38,38],"right_children":[2,4,6,8,10,12,-1,14,16,-1,18,-1,20,-1,22,24,-1,-1,-1,-1,-1,-1,26,28,30,32,34,-1,-1,-1,-1,36,-1,38,40,42,44,-1,46,-1,-1,-1,-1,-1,-1,-1,-1],"split_conditions":[7.2970635E-1,6.3593626E-1,9.2040384E-1,4.7862944E-1,6.599878E-1,8.282705E-1,-1.064935E-1,2.2624649E-1,3.590309E-1,1.4942534E-1,2.327618E-1,-7.156924E-2,4.394403E-1,8.7630086E-2,2.555E-2,5.552859E-1,-1.15309045E-1,-5.2530835E-3,2.9867008E-2,1.8437129E-3,2.5433818E-2,-6.0814407E-2,6.497873E-1,1.702618E-1,2.620809E-1,5.4557204E-1,8.758373E-1,-4.463909E-3,-3.4575976E-2,-4.4495862E-2,9.222409E-2,2.8298587E-1,-6.312669E-2,1.2519887E-1,2.759653E-1,2.1873587E-1,3.9383584E-1,4.9232766E-2,2.0459966E-1,1.0686534E-2,-2.920879E-2,-1.466958E-3,-2.6066227E-2,1.4991696E-2,-8.898332E-3,-1.039751E-2,3.1201154E-2],"split_indices":[1,1,1,1,1,1,0,0,0,0,0,0,0,0,1,1,0,0,0,0,0,0,0,0,0,0,0,0,0,0,0,1,0,1,1,1,1,0,1,0,0,0,0,0,0,0,0],"split_type":[0,0,0,0,0,0,0,0,0,0,0,0,0,0,0,0,0,0,0,0,0,0,0,0,0,0,0,0,0,0,0,0,0,0,0,0,0,0,0,0,0,0,0,0,0,0,0],"sum_hessian":[1.92E2,1.58E2,3.4E1,1.46E2,1.2E1,1.8E1,1.6E1,1.08E2,3.8E1,3E0,9E0,1.1E1,7E0,4.5E1,6.3E1,1.8E1,2E1,3E0,6E0,3E0,4E0,9E0,5.4E1,7E0,1.1E1,2.9E1,2.5E1,4E0,3E0,3E0,8E0,2.4E1,5E0,1.6E1,9E0,1E1,1.4E1,8E0,8E0,3E0,6E0,6E0,4E0,1E1,4E0,4E0,4E0],"tree_param":{"num_deleted":"0","num_feature":"3","num_nodes":"47","size_leaf_vector":"1"}},{"base_weights":[3.21907E-2,4.4955644E-1,-3.4079492E-1,3.2551152E-1,9.321872E-1,-2.0117423E-1,-1.0407479E0,7.5147045E-1,1.4890134E-1,1.0611396E0,1.1809125E-1,-4.551394E-1,-3.1497918E-2,1.0758286E0,-3.4883735E-1,-1.5454637E-1,2.3713554E-1,-2.0298567E-1,-9.3754447E-1,-2.7486762E-1,9.5887624E-2,3.3692023E-1,-4.7410518E-1,1.5313682E-1,4.7090626E-1,-3.175334E-1,3.6380537E-2,1.9192946E-1,-6.349667E-1,3.940213E-1,-1.0049799E-1,-6.01508E-1,-1.1772151E-1,2.4001014E-1,-1.1658126E-1,-3.774629E-1,-7.717771E-2,5.2276E-2,-4.1829185E-3,-5.398362E-2,3.503013E-1,5.2510136E-1,3.911415E-3,8.464357E-2,-3.3160502E-1,-2.0319335E-2,3.2277608E-1,-1.9522218E-1,5.4765693E-3,1.7386878E-1,-1.8308792E-2,-3.7903377E-1,-4.500307E-2,-3.8135725E-3,-2.91892E-2,-1.5302867E-1,1.9028151E-1,-2.5658278E-2,-1.7729151E-1],"categories":[],"categories_nodes":[],"categories_segments":[],"categories_sizes":[],"default_left":[1,1,1,1,1,1,0,1,1,0,0,1,1,0,0,1,1,1,0,1,1,0,1,1,0,1,1,1,0,1,1,0,0,1,1,0,0,0,0,0,0,0,0,1,1,1,0,0,0,0,1,0,0,0,0,1,0,0,0],"id":10,"left_children":[1,3,5,7,9,11,-1,13,15,-1,-1,17,19,-1,-1,21,23,25,-1,27,29,-1,31,33,-1,35,37,39,-1,41,43,-1,-1,45,47,-1,-1,-1,-1,-1,-1,-1,-1,49,51,53,-1,-1,-1,-1,55,-1,-1,-1,-1,57,-1,-1,-1],"loss_changes":[3.1964012E1,4.057146E0,9.428468E0,5.8089237E0,1.0386772E0,4.128654E0,0E0,1.0604999E1,2.0221746E0,0E0,0E0,3.6220207E0,2.156632E0,0E0,0E0,3.8506067E0,6.625333E-1,9.6284103E-1,0E0,4.6814184E0,2.9609585E0,0E0,2.1815991E-1,1.3011187E0,0E0,1.6077852E-1,1.13781765E-2,6.808823E-1,0E0,9.9616575E-1,1.5598637E0,0E0,0E0,8.715172E-1,1.5690322E-1,0E0,0E0,0E0,0E0,0E0,0E0,0E0,0E0,2.2679214E-1,1.1614883E-1,1.5179985E-3,0E0,0E0,0E0,0E0,6.0774916E-1,0E0,0E0,0E0,0E0,1.3303518E-2,0E0,0E0,0E0],"parents":[2147483647,0,0,1,1,2,2,3,3,4,4,5,5,7,7,8,8,11,11,12,12,15,15,16,16,17,17,19,19,20,20,22,22,23,23,25,25,26,26,27,27,29,29,30,30,33,33,34,34,43,43,44,44,45,45,50,50,55,55],"right_children":[2,4,6,8,10,12,-1,14,16,-1,-1,18,20,-1,-1,22,24,26,-1,28,30,-1,32,34,-1,36,38,40,-1,42,44,-1,-1,46,48,-1,-1,-1,-1,-1,-1,-1,-1,50,52,54,-1,-1,-1,-1,56,-1,-1,-1,-1,58,-1,-1,-1],"split_conditions":[3.698653E-1,3.3478177E-1,9.913348E-1,3.45E-3,3.583309E-1,5.618936E-1,-1.1449697E-1,6.03799E-1,1.6398603E-1,1.16740346E-1,1.2991705E-2,8.964251E-1,3.372785E-1,1.1835634E-1,-3.8377035E-2,6.9E-3,8.847418E-1,7.318E-1,-1.0314313E-1,1.80779E-1,5.6857204E-1,3.7065987E-2,1.1537025E-1,2.4538112E-1,5.180634E-2,5.2263093E-1,4.2497858E-1,7.952618E-1,-6.98553E-2,8.2943094E-1,7.4736905E-1,-6.617438E-2,-1.2951029E-2,6.25E-2,2.989E-1,-4.152625E-2,-8.490639E-3,5.7510985E-3,-4.601801E-4,-5.9389607E-3,3.853809E-2,5.776857E-2,4.303109E-4,6.186309E-1,9.641378E-1,4.7350764E-2,3.550993E-2,-2.1477198E-2,6.025E-4,1.912802E-2,6.9383645E-1,-4.169907E-2,-4.9509737E-3,-4.1954685E-4,-3.2112242E-3,6.582809E-1,2.0933654E-2,-2.822773E-3,-1.9504571E-2],"split_indices":[0,0,0,0,0,0,0,2,2,0,0,2,2,0,0,2,2,2,0,2,2,0,0,0,0,0,0,0,0,0,0,0,0,0,0,0,0,0,0,0,0,0,0,0,0,0,0,0,0,0,0,0,0,0,0,0,0,0,0],"split_type":[0,0,0,0,0,0,0,0,0,0,0,0,0,0,0,0,0,0,0,0,0,0,0,0,0,0,0,0,0,0,0,0,0,0,0,0,0,0,0,0,0,0,0,0,0,0,0,0,0,0,0,0,0,0,0,0,0,0,0],"sum_hessian":[1.94E2,9.1E1,1.03E2,8E1,1.1E1,9.2E1,1.1E1,1.8E1,6.2E1,8E0,3E0,3.3E1,5.9E1,1.4E1,4E0,1.3E1,4.9E1,2.7E1,6E0,1.8E1,4.1E1,5E0,8E0,4.3E1,6E0,1.7E1,1E1,9E0,9E0,1.4E1,2.7E1,3E0,5E0,3.3E1,1E1,1.1E1,6E0,6E0,4E0,5E0,4E0,9E0,5E0,1.7E1,1E1,9E0,2.4E1,4E0,6E0,7E0,1E1,7E0,3E0,6E0,3E0,7E0,3E0,3E0,4E0],"tree_param":{"num_deleted":"0","num_feature":"3","num_nodes":"59","size_leaf_vector":"1"}},{"base_weights":[-3.0606316E-2,4.091415E-1,-4.6412867E-1,4.7416952E-1,-4.590248E-1,-9.1899586E-1,-3.4065926E-1,3.1243637E-1,1.2214634E0,-1.6386382E-1,-6.325768E-1,7.697608E-1,1.597281E-1,-3.453011E-2,-8.3616483E-1,1.5173107E-1,-7.487557E-1,-1.5991816E-1,2.547412E-1,-1.3162215E-1,1.7166436E-2,2.2054717E-1,-4.1827765E-1,4.4593704E-1,8.121158E-2,7.237218E-2,-3.2369474E-1,3.116863E-1,-7.945279E-2,-1.0955848E-2,2.833213E-1,-3.077548E-2,1.1380419E-1,-2.6845923E-1,1.6675865E-2,1.2543E-1,-1.5151024E-1,2.0303832E-1,-5.7413004E-2,2.3483065E-1,-8.1488185E-2,7.696727E-2,-2.7596822E-1,-3.4279782E-1,1.5397641E-1],"categories":[],"categories_nodes":[],"categories_segments":[],"categories_sizes":[],"default_left":[1,1,1,1,0,0,1,1,0,1,1,0,1,1,0,0,0,1,1,1,1,0,0,0,1,1,0,0,1,1,0,0,0,0,1,1,1,0,1,0,0,0,0,0,0],"id":11,"left_children":[1,3,5,7,-1,-1,9,11,-1,13,15,-1,17,19,-1,-1,-1,21,23,25,27,-1,-1,-1,29,31,-1,-1,33,35,-1,-1,-1,-1,37,39,41,-1,43,-1,-1,-1,-1,-1,-1],"loss_changes":[3.7441425E1,6.759102E0,3.7561188E0,9.146841E0,0E0,0E0,3.8831873E0,5.2138433E0,0E0,5.2009053E0,3.4470472E0,0E0,2.3801312E0,3.025683E-1,0E0,0E0,0E0,2.4642162E0,1.6747429E0,9.4523144E-1,1.356783E0,0E0,0E0,0E0,7.015599E-1,8.286504E-2,0E0,0E0,6.925487E-1,6.972195E-1,0E0,0E0,0E0,0E0,4.7678423E-1,5.328126E-1,6.248925E-1,0E0,1.8524282E0,0E0,0E0,0E0,0E0,0E0,0E0],"parents":[2147483647,0,0,1,1,2,2,3,3,6,6,7,7,9,9,10,10,12,12,13,13,17,17,18,18,19,19,20,20,24,24,25,25,28,28,29,29,34,34,35,35,36,36,38,38],"right_children":[2,4,6,8,-1,-1,10,12,-1,14,16,-1,18,20,-1,-1,-1,22,24,26,28,-1,-1,-1,30,32,-1,-1,34,36,-1,-1,-1,-1,38,40,42,-1,44,-1,-1,-1,-1,-1,-1],"split_conditions":[3.6015815E-1,9.8735E-1,1.19187355E-1,3.3478177E-1,-5.0499212E-2,-1.0110252E-1,7.953635E-1,6.800796E-2,1.3437824E-1,9.068167E-1,2.202021E-1,8.468456E-2,1.6591284E-1,4.0482205E-1,-9.198994E-2,1.6692562E-2,-8.23737E-2,9.428749E-2,4.453256E-1,2.0135349E-1,5.6857204E-1,2.4263304E-2,-4.601645E-2,4.9059372E-2,8.847418E-1,1.8792208E-1,-3.5610992E-2,3.4289896E-2,5.987064E-1,5.7435E-1,3.1169344E-2,-3.3857375E-3,1.2520068E-2,-2.9534308E-2,6.3126373E-1,3.171364E-1,1.3346417E-1,2.2337083E-2,4.3948412E-1,2.5834689E-2,-8.9648515E-3,8.467487E-3,-3.0360403E-2,-3.7712604E-2,1.693958E-2],"split_indices":[0,2,2,0,0,0,0,2,0,2,2,0,2,2,0,0,0,2,2,2,2,0,0,0,2,2,0,0,2,2,0,0,0,0,2,0,0,0,0,0,0,0,0,0,0],"split_type":[0,0,0,0,0,0,0,0,0,0,0,0,0,0,0,0,0,0,0,0,0,0,0,0,0,0,0,0,0,0,0,0,0,0,0,0,0,0,0,0,0,0,0,0,0],"sum_hessian":[1.85E2,9.2E1,9.3E1,8.8E1,4E0,1.2E1,8.1E1,7.9E1,9E0,5.6E1,2.5E1,1.4E1,6.5E1,5.2E1,4E0,3E0,2.2E1,1.4E1,5.1E1,1.5E1,3.7E1,6E0,8E0,2E1,3.1E1,9E0,6E0,6E0,3.1E1,2.5E1,6E0,3E0,6E0,7E0,2.4E1,1.3E1,1.2E1,4E0,2E1,8E0,5E0,5E0,7E0,7E0,1.3E1],"tree_param":{"num_deleted":"0","num_feature":"3","num_nodes":"45","size_leaf_vector":"1"}},{"base_weights":[-9.603684E-2,3.0947343E-1,-4.722339E-1,3.514929E-1,-3.4065986E-1,-2.4709734E-1,-6.626383E-1,2.1343812E-1,1.0580873E0,-3.476013E-1,-9.233648E-2,-3.7683475E-1,-9.3284726E-1,6.6421956E-1,5.3201565E-3,-1.6226429E-1,-4.9880025E-1,1.7856209E-1,-3.9864734E-1,-4.8939714E-1,8.289192E-2,9.031728E-1,-2.8524628E-1,-1.03301175E-1,2.426264E-1,-3.4275123E-1,6.8940885E-2,2.3217283E-1,5.8402054E-2,-7.207364E-1,-2.2523907E-1,1.2842913E-1,-1.698727E-2,2.2465335E-2,-3.4429428E-1,3.9855078E-1,3.8214527E-2,-7.998789E-2,1.9028151E-1,3.623549E-1,-5.248818E-1,-4.830045E-1,1.4926562E-1,-3.9292923E-1,-4.202978E-2,7.6285146E-2,-4.239186E-2,-6.041821E-1,-1.1241817E-1,2.249293E-1,8.385776E-3,8.770833E-2,3.4293085E-1,-2.4558556E-1,1.5551205E-1],"categories":[],"categories_nodes":[],"categories_segments":[],"categories_sizes":[],"default_left":[1,1,1,1,0,1,1,1,0,1,1,1,0,1,1,1,0,1,0,1,1,0,0,1,1,0,0,0,1,0,1,0,0,1,1,0,1,0,0,0,1,0,1,0,0,0,0,0,0,1,1,0,0,0,0],"id":12,"left_children":[1,3,5,7,-1,9,11,13,-1,15,17,19,-1,21,23,25,-1,27,-1,29,31,-1,-1,33,35,-1,-1,-1,37,-1,39,-1,-1,41,43,-1,45,-1,-1,-1,47,-1,49,-1,-1,-1,-1,-1,-1,51,53,-1,-1,-1,-1],"loss_changes":[3.008024E1,3.2983751E0,3.4250412E0,7.7541943E0,0E0,6.8324447E-1,1.986105E0,7.9269705E0,0E0,4.264381E-1,2.8717995E0,2.0278282E0,0E0,7.5310564E0,1.7853457E0,1.0826154E0,0E0,4.954374E-2,0E0,8.275013E-1,6.57183E-2,0E0,0E0,1.4902086E0,6.0499585E-1,0E0,0E0,0E0,3.3713257E-1,0E0,4.9085207E0,0E0,0E0,2.7645764E0,1.5134788E-1,0E0,6.66765E-2,0E0,0E0,0E0,1.5872335E-1,0E0,3.485629E-1,0E0,0E0,0E0,0E0,0E0,0E0,1.7978692E-1,8.7983817E-1,0E0,0E0,0E0,0E0],"parents":[2147483647,0,0,1,1,2,2,3,3,5,5,6,6,7,7,9,9,10,10,11,11,13,13,14,14,15,15,17,17,19,19,20,20,23,23,24,24,28,28,30,30,33,33,34,34,36,36,40,40,42,42,49,49,50,50],"right_children":[2,4,6,8,-1,10,12,14,-1,16,18,20,-1,22,24,26,-1,28,-1,30,32,-1,-1,34,36,-1,-1,-1,38,-1,40,-1,-1,42,44,-1,46,-1,-1,-1,48,-1,50,-1,-1,-1,-1,-1,-1,52,54,-1,-1,-1,-1],"split_conditions":[3.596E-1,8.8915384E-1,4.8935002E-1,3.3478177E-1,-3.7477396E-2,6.977134E-1,7.5733954E-1,3.45E-3,1.16404556E-1,5.4557204E-1,8.7875646E-1,6.0313094E-1,-1.02626376E-1,4.6937796E-1,5.8229494E-1,2.7434313E-1,-5.4875072E-2,1.5242173E-1,-4.3856837E-2,6.1214995E-1,8.5589457E-1,9.936176E-2,-3.138112E-2,3.4057048E-1,6.4483106E-1,-3.7707478E-2,7.5844713E-3,2.554229E-2,4.289283E-1,-7.929118E-2,7.3274434E-1,1.4129018E-2,-1.8688396E-3,4.661987E-2,2.2829711E-1,4.3846216E-2,2.327618E-1,-8.799798E-3,2.0933654E-2,3.9864156E-2,5.5328643E-1,-5.3137317E-2,2.1316479E-1,-4.3227766E-2,-4.6238694E-3,8.392444E-3,-4.6637035E-3,-6.646857E-2,-1.2367587E-2,1.19935855E-1,2.8978586E-1,9.649156E-3,3.7727237E-2,-2.701788E-2,1.7108522E-2],"split_indices":[0,1,1,0,0,0,0,0,0,0,0,0,0,1,1,1,0,1,0,1,1,0,0,1,1,0,0,0,1,0,1,0,0,0,0,0,0,0,0,0,0,0,1,0,0,0,0,0,0,1,1,0,0,0,0],"split_type":[0,0,0,0,0,0,0,0,0,0,0,0,0,0,0,0,0,0,0,0,0,0,0,0,0,0,0,0,0,0,0,0,0,0,0,0,0,0,0,0,0,0,0,0,0,0,0,0,0,0,0,0,0,0,0],"sum_hessian":[1.86E2,9E1,9.6E1,8.7E1,3E0,5E1,4.6E1,7.9E1,8E0,2.6E1,2.4E1,2.9E1,1.7E1,2.1E1,5.8E1,1.7E1,9E0,1.4E1,1E1,2.3E1,6E0,1.7E1,4E0,4.2E1,1.6E1,8E0,9E0,6E0,8E0,7E0,1.6E1,3E0,3E0,3.1E1,1.1E1,6E0,1E1,5E0,3E0,5E0,1.1E1,3E0,2.8E1,8E0,3E0,7E0,3E0,7E0,4E0,1.6E1,1.2E1,1.2E1,4E0,3E0,9E0],"tree_param":{"num_deleted":"0","num_feature":"3","num_nodes":"55","size_leaf_vector":"1"}},{"base_weights":[-5.3281743E-2,1.1169707E-2,-8.853071E-1,-1.384157E-1,1.2371083E-1,1.907126E-2,-4.4356355E-1,2.5663704E-1,-1.6967586E-1,-7.256386E-2,1.8257569E-1,-4.9191865E-1,-1.04541734E-1,1.3009013E-1,1.1447681E0,-3.017742E-1,1.7761688E-1,9.416955E-2,-1.6679035E-1,2.3704088E-1,4.80964E-2,2.379895E-1,-1.06611125E-1,-8.2471885E-2,-6.8238544E-1,2.7259845E-1,5.674566E-3,7.160798E-1,-9.033537E-1,-3.121105E-1,1.2219274E-1,1.7161556E-1,-1.3531557E-1,3.0290025E-1,-2.810323E-1,-2.0911308E-1,7.767524E-2,2.9820427E-1,-2.1350868E-1,-6.1621875E-2,-4.7457772E-1,-8.17758E-2,2.92889E-1,1.6720653E-1,6.951971E-1,-2.9066873E-1,5.2778043E-2,2.0103034E-1,-2.668965E-1,1.9685324E-2,3.7743244E-1,3.3676025E-1,-1.291046E-1,5.267174E-1,-5.5302426E-2],"categories":[],"categories_nodes":[],"categories_segments":[],"categories_sizes":[],"default_left":[1,1,0,1,1,1,1,1,1,1,1,0,0,1,0,1,1,1,1,0,1,1,1,1,0,0,0,0,0,1,1,0,0,1,0,0,0,0,1,1,0,0,0,1,0,0,0,0,0,1,1,0,0,0,0],"id":13,"left_children":[1,3,-1,5,7,9,11,13,15,17,19,-1,-1,21,-1,23,25,27,29,-1,31,33,35,37,-1,-1,-1,-1,-1,39,41,-1,-1,43,-1,-1,-1,-1,45,47,-1,-1,-1,49,-1,-1,-1,-1,-1,51,53,-1,-1,-1,-1],"loss_changes":[1.0229721E1,3.156781E0,0E0,3.9269786E0,4.410219E0,9.5529115E-1,1.6061306E-1,7.658707E0,1.9902146E0,7.449843E-1,1.0123855E-1,0E0,0E0,2.0018935E0,0E0,2.0750535E0,2.1507314E-1,1.5301025E1,1.4234604E0,0E0,4.43207E-1,2.2282016E0,5.972984E-1,1.5961728E0,0E0,0E0,0E0,0E0,0E0,6.758354E-1,6.1411E-1,0E0,0E0,1.9291906E0,0E0,0E0,0E0,0E0,5.336727E-1,1.0994898E0,0E0,0E0,0E0,1.3131489E0,0E0,0E0,0E0,0E0,0E0,1.744274E0,1.3104246E0,0E0,0E0,0E0,0E0],"parents":[2147483647,0,0,1,1,3,3,4,4,5,5,6,6,7,7,8,8,9,9,10,10,13,13,15,15,16,16,17,17,18,18,20,20,21,21,22,22,23,23,29,29,30,30,33,33,38,38,39,39,43,43,49,49,50,50],"right_children":[2,4,-1,6,8,10,12,14,16,18,20,-1,-1,22,-1,24,26,28,30,-1,32,34,36,38,-1,-1,-1,-1,-1,40,42,-1,-1,44,-1,-1,-1,-1,46,48,-1,-1,-1,50,-1,-1,-1,-1,-1,52,54,-1,-1,-1,-1],"split_conditions":[9.9300003E-1,3.6635E-1,-9.7396284E-2,2.271564E-1,7.742E-1,1.5330493E-1,3.5012534E-1,7.6177204E-1,9.43122E-1,8E-4,2.004362E-1,-5.4118E-2,-1.1501067E-2,6.356221E-1,1.2594067E-1,9.160446E-1,9.757064E-1,3.838523E-1,4.232515E-1,2.6077844E-2,3.6421132E-1,9.01091E-1,5.116856E-1,1.357E-1,-7.5072035E-2,2.998968E-2,6.2428246E-4,7.877889E-2,-9.938166E-2,8.8952884E-2,1.19187355E-1,1.8880134E-2,-1.4886624E-2,6.3422203E-1,-3.0917522E-2,-2.3005392E-2,8.545374E-3,3.2806683E-2,8.850138E-1,1.6045114E-1,-5.2210253E-2,-8.996493E-3,3.222193E-2,6.1135E-1,7.64815E-2,-3.1977665E-2,5.80633E-3,2.2116177E-2,-2.9362384E-2,4.453256E-1,5.6857204E-1,3.7048385E-2,-1.420333E-2,5.7946358E-2,-6.084048E-3],"split_indices":[2,2,0,2,2,2,2,2,2,2,2,0,0,2,0,2,2,0,0,0,0,0,0,0,0,0,0,0,0,2,2,0,0,2,0,0,0,0,2,0,0,0,0,0,0,0,0,0,0,2,2,0,0,0,0],"split_type":[0,0,0,0,0,0,0,0,0,0,0,0,0,0,0,0,0,0,0,0,0,0,0,0,0,0,0,0,0,0,0,0,0,0,0,0,0,0,0,0,0,0,0,0,0,0,0,0,0,0,0,0,0,0,0],"sum_hessian":[1.84E2,1.76E2,8E0,7.5E1,1.01E2,5.3E1,2.2E1,7E1,3.1E1,3.6E1,1.7E1,1.7E1,5E0,6.7E1,3E0,2.3E1,8E0,1.3E1,2.3E1,9E0,8E0,4.6E1,2.1E1,1.9E1,4E0,3E0,5E0,9E0,4E0,1.5E1,8E0,5E0,3E0,4.3E1,3E0,1.3E1,8E0,3E0,1.6E1,9E0,6E0,5E0,3E0,3.8E1,5E0,1.2E1,4E0,4E0,5E0,2.6E1,1.2E1,6E0,2E1,8E0,4E0],"tree_param":{"num_deleted":"0","num_feature":"3","num_nodes":"55","size_leaf_vector":"1"}},{"base_weights":[-5.4140918E-2,2.4499893E-2,-7.5578386E-1,-4.1539457E-1,8.4777996E-2,-5.073971E-1,-3.320077E-2,1.4687715E-1,-6.3079107E-1,3.9702263E-1,-3.2966896E-3,6.249026E-1,1.37564E-1,-3.3762226E-1,2.5261036E-1,7.582207E-1,2.5410843E-1,-1.2235692E-1,2.8154555E-1,-1.0063104E-1,-6.302862E-1,-1.4765675E-1,4.4156557E-1,-4.3133527E-2,4.9375272E-1,3.589617E-1,-4.913618E-2,2.9663035E-1,-2.681569E-1,4.140524E-5,-1.8513618E-1,7.5813574E-1,-2.1403149E-2,2.201491E-2,-7.620749E-2,2.4979025E-2,4.5617738E-1,-5.6797457E-1,-9.3434505E-2,3.1383565E-1,1.4705572E0,-1.8872398E-1,2.823094E-1,-2.146911E-1,6.4091474E-2,5.703727E-1,4.3021902E-2,-4.2554817E-1,1.1425398E-1],"categories":[],"categories_nodes":[],"categories_segments":[],"categories_sizes":[],"default_left":[1,1,0,1,1,0,0,1,0,1,1,1,1,1,1,0,1,0,1,1,0,1,1,1,0,1,0,0,1,0,0,1,1,0,0,0,0,0,1,1,0,1,0,0,0,0,0,0,0],"id":14,"left_children":[1,3,-1,5,7,-1,-1,9,-1,11,13,15,17,19,21,-1,23,-1,25,27,-1,29,31,33,-1,35,-1,-1,37,-1,-1,39,41,-1,-1,-1,-1,-1,43,45,-1,47,-1,-1,-1,-1,-1,-1,-1],"loss_changes":[1.1346009E1,5.204933E0,0E0,7.375226E-1,8.114762E0,0E0,0E0,6.0821676E0,0E0,3.0986443E0,9.616733E0,4.1792774E-1,1.5331233E0,3.016302E0,5.1908712E0,0E0,1.3119189E0,0E0,7.3330045E-1,2.697676E0,0E0,1.3683063E-1,6.6454773E0,3.6966905E-2,0E0,6.073592E-1,0E0,0E0,1.0961788E0,0E0,0E0,5.8192186E0,1.5091232E0,0E0,0E0,0E0,0E0,0E0,5.314617E-1,1.5071168E0,0E0,1.6201373E0,0E0,0E0,0E0,0E0,0E0,0E0,0E0],"parents":[2147483647,0,0,1,1,3,3,4,4,7,7,9,9,10,10,11,11,12,12,13,13,14,14,16,16,18,18,19,19,21,21,22,22,23,23,25,25,28,28,31,31,32,32,38,38,39,39,41,41],"right_children":[2,4,-1,6,8,-1,-1,10,-1,12,14,16,18,20,22,-1,24,-1,26,28,-1,30,32,34,-1,36,-1,-1,38,-1,-1,40,42,-1,-1,-1,-1,-1,44,46,-1,48,-1,-1,-1,-1,-1,-1,-1],"split_conditions":[9.2040384E-1,5.838586E-2,-8.31469E-2,3.6635E-1,9.757064E-1,-5.582085E-2,-3.6525538E-3,3.224432E-1,-6.939593E-2,2.2695157E-1,5.0677204E-1,1.6321975E-1,1.2003586E-1,4.9808586E-1,5.5455005E-1,8.341499E-2,1.5370997E-2,-1.346099E-2,5.7715E-1,8.376581E-2,-6.9340385E-2,6.3355005E-1,7.8178704E-1,5.972077E-3,5.4319773E-2,3.685285E-1,-5.4056738E-3,3.2633528E-2,1.4875734E-1,4.5551615E-6,-2.0367596E-2,7.4895644E-1,9.393281E-1,2.4219512E-3,-8.3839E-3,2.7480456E-3,5.0185956E-2,-6.2485225E-2,3.6499768E-1,6.1275E-1,1.6178207E-1,7.1307445E-1,3.1058023E-2,-2.3619054E-2,7.0509673E-3,6.274905E-2,4.733017E-3,-4.6816308E-2,1.2569552E-2],"split_indices":[1,1,0,2,2,0,0,1,0,2,2,1,1,1,1,0,2,0,2,2,0,2,2,2,0,2,0,0,2,0,0,2,2,0,0,0,0,0,1,1,0,1,0,0,0,0,0,0,0],"split_type":[0,0,0,0,0,0,0,0,0,0,0,0,0,0,0,0,0,0,0,0,0,0,0,0,0,0,0,0,0,0,0,0,0,0,0,0,0,0,0,0,0,0,0,0,0,0,0,0,0],"sum_hessian":[1.98E2,1.83E2,1.5E1,1.8E1,1.65E2,1.3E1,5E0,1.56E2,9E0,5.5E1,1.01E2,2.5E1,3E1,4.3E1,5.8E1,1.4E1,1.1E1,1.1E1,1.9E1,2.8E1,1.5E1,1.9E1,3.9E1,7E0,4E0,1.5E1,4E0,7E0,2.1E1,5E0,1.4E1,2.1E1,1.8E1,3E0,4E0,5E0,1E1,3E0,1.8E1,1.8E1,3E0,1.3E1,5E0,9E0,9E0,6E0,1.2E1,6E0,7E0],"tree_param":{"num_deleted":"0","num_feature":"3","num_nodes":"49","size_leaf_vector":"1"}},{"base_weights":[1.9015309E-3,2.9134175E-1,-2.5694397E-1,3.22872E-1,-2.2439905E-1,-6.954042E-2,-4.3073368E-1,6.1949134E-1,1.9908811E-1,-1.2236673E-2,-3.7730658E-1,-2.5949714E-1,-6.8547374E-1,7.861848E-1,-1.8297857E-1,2.6404813E-2,4.3812793E-1,-3.3919588E-1,6.9478184E-2,-5.022539E-1,-1.1244745E-1,-4.8381495E-1,1.22430794E-1,-4.1986246E-2,6.583468E-1,-7.93095E-2,1.9320977E-1,-6.164704E-1,-1.4158651E-1,-2.498417E-2,-2.2325088E-1,2.644197E-1,-3.5384294E-1,-1.1428069E-1,4.5943346E-2,7.7627504E-1,1.8917964E-1,2.2259618E-1,-1.5227719E-1,3.1045353E-1,-1.7149694E-2,-2.239086E-1,5.3164218E-2],"categories":[],"categories_nodes":[],"categories_segments":[],"categories_sizes":[],"default_left":[1,1,1,1,0,1,1,1,1,1,0,1,0,0,0,1,1,0,1,1,1,0,1,1,1,0,0,0,0,1,0,1,0,0,0,0,0,0,1,0,0,0,0],"id":15,"left_children":[1,3,5,7,-1,9,11,13,15,17,-1,19,-1,-1,-1,21,23,-1,25,27,29,-1,31,33,35,-1,-1,-1,-1,37,-1,39,-1,-1,-1,-1,-1,-1,41,-1,-1,-1,-1],"loss_changes":[1.4715523E1,1.921318E0,3.2066784E0,2.5896044E0,0E0,9.73786E-1,1.2835398E0,3.9930716E0,2.8940072E0,1.5695691E0,0E0,1.1307485E0,0E0,0E0,0E0,2.675768E0,3.2991042E0,0E0,9.6583176E-1,6.637168E-2,2.851521E-1,0E0,3.557818E0,1.234912E-1,3.0728054E-1,0E0,0E0,0E0,0E0,9.7230315E-1,0E0,5.191908E-1,0E0,0E0,0E0,0E0,0E0,0E0,3.5803038E-1,0E0,0E0,0E0,0E0],"parents":[2147483647,0,0,1,1,2,2,3,3,5,5,6,6,7,7,8,8,9,9,11,11,15,15,16,16,18,18,19,19,20,20,22,22,23,23,24,24,29,29,31,31,38,38],"right_children":[2,4,6,8,-1,10,12,14,16,18,-1,20,-1,-1,-1,22,24,-1,26,28,30,-1,32,34,36,-1,-1,-1,-1,38,-1,40,-1,-1,-1,-1,-1,-1,42,-1,-1,-1,-1],"split_conditions":[3.6015815E-1,9.324845E-1,4.816205E-1,3.3159908E-3,-2.4687065E-2,9.9138093E-1,8.3984596E-1,4.6937796E-1,5.513859E-1,2.555E-2,-4.1509055E-2,5.7229996E-1,-7.54118E-2,8.6491436E-2,-2.0130228E-2,5.96E-2,2.308309E-1,-3.7316337E-2,6.381354E-1,3.7325E-1,6.481809E-1,-5.322648E-2,4.148E-1,7.717737E-1,6.78754E-1,-8.725165E-3,2.1255804E-2,-6.782045E-2,-1.5576516E-2,7.3274434E-1,-2.4560751E-2,2.3603895E-1,-3.8927723E-2,-1.2572491E-2,5.054417E-3,8.540122E-2,2.0812433E-2,2.4488725E-2,6.0313094E-1,3.4154274E-2,-1.8867087E-3,-2.463311E-2,5.8488147E-3],"split_indices":[0,1,1,0,0,0,0,1,1,1,0,1,0,0,0,0,0,0,0,0,0,0,1,1,1,0,0,0,0,1,0,0,0,0,0,0,0,0,0,0,0,0,0],"split_type":[0,0,0,0,0,0,0,0,0,0,0,0,0,0,0,0,0,0,0,0,0,0,0,0,0,0,0,0,0,0,0,0,0,0,0,0,0,0,0,0,0,0,0],"sum_hessian":[1.85E2,8.7E1,9.8E1,8.4E1,3E0,5.1E1,4.7E1,1.8E1,6.6E1,4.8E1,3E0,3.5E1,1.2E1,1.5E1,3E0,4.2E1,2.4E1,6E0,4.2E1,8E0,2.7E1,3E0,3.9E1,9E0,1.5E1,2E1,2.2E1,3E0,5E0,1.9E1,8E0,3.2E1,7E0,4E0,5E0,9E0,6E0,5E0,1.4E1,2.7E1,5E0,1E1,4E0],"tree_param":{"num_deleted":"0","num_feature":"3","num_nodes":"43","size_leaf_vector":"1"}},{"base_weights":[3.128353E-2,3.1576607E-1,-2.8382868E-1,2.264136E-1,6.3300824E-1,-1.4768314E-1,-6.022324E-1,4.3576315E-1,-1.2093218E-1,-2.706386E-1,1.1066443E0,-8.6263664E-2,-3.939847E-1,-2.3773864E-1,-7.3138964E-1,-3.2877073E-1,5.050976E-2,7.815283E-2,-4.420058E-1,-3.8175783E-1,-2.3229582E-2,-3.7804878E-1,-2.4355792E-2,-2.5598496E-1,2.8880057E-1,-1.9111148E-1,1.4363715E-1,3.7583897E-1,6.0935393E-2,-4.3951366E-2,-3.6412546E-1,7.716702E-2,2.693929E-1,-1.279875E-1,3.0530421E-2,-6.630094E-1,1.7966731E-1,2.0881619E-1,1.9883774E-2,9.8427035E-2,-1.04151614E-1,-1.0708106E-1,1.2609956E-1,-8.8818595E-3,-1.8017663E-1,1.9832158E-1,-7.854031E-2],"categories":[],"categories_nodes":[],"categories_segments":[],"categories_sizes":[],"default_left":[1,1,1,1,1,1,1,0,1,1,0,1,0,0,0,1,1,0,0,0,1,0,0,0,1,1,1,0,0,1,1,1,0,0,1,0,0,0,1,0,0,1,1,0,0,0,0],"id":16,"left_children":[1,3,5,7,9,11,13,-1,15,17,-1,19,-1,-1,-1,21,23,-1,-1,-1,25,-1,-1,-1,27,29,31,-1,-1,33,35,37,-1,-1,39,-1,-1,-1,41,-1,-1,43,45,-1,-1,-1,-1],"loss_changes":[1.859386E1,2.2631435E0,3.7711492E0,7.1152096E0,1.0574172E1,9.663801E-1,3.1162548E-1,0E0,1.509788E0,8.971885E-1,0E0,1.2291715E0,0E0,0E0,0E0,2.2809362E-1,2.3729236E0,0E0,0E0,0E0,1.9135066E0,0E0,0E0,0E0,2.2047234E-1,7.669023E-1,1.7143762E-1,0E0,0E0,1.7697784E-1,3.071069E0,2.0788553E-1,0E0,0E0,2.2048736E-1,0E0,0E0,0E0,4.5079476E-1,0E0,0E0,1.0362862E-1,3.506916E-1,0E0,0E0,0E0,0E0],"parents":[2147483647,0,0,1,1,2,2,3,3,4,4,5,5,6,6,8,8,9,9,11,11,15,15,16,16,20,20,24,24,25,25,26,26,29,29,30,30,31,31,34,34,38,38,41,41,42,42],"right_children":[2,4,6,8,10,12,14,-1,16,18,-1,20,-1,-1,-1,22,24,-1,-1,-1,26,-1,-1,-1,28,30,32,-1,-1,34,36,38,-1,-1,40,-1,-1,-1,42,-1,-1,44,46,-1,-1,-1,-1],"split_conditions":[3.953414E-1,3.3478177E-1,8.7875646E-1,4.0829998E-1,5.5848587E-1,9.5708585E-1,4.6683586E-1,4.79401E-2,5.85207E-1,5.5060005E-1,1.217465E-1,2.555E-2,-4.3343883E-2,-2.615461E-2,-8.046319E-2,2.455E-1,2.1601732E-1,8.597915E-3,-4.8626885E-2,-4.1998755E-2,6.0313094E-1,-4.1590706E-2,-2.6794812E-3,-2.8161962E-2,2.7775228E-1,5.4557204E-1,8.463882E-1,4.1347597E-2,6.703754E-3,2.7434313E-1,8.282705E-1,1.2519887E-1,2.9637026E-2,-1.4080433E-2,7.3274434E-1,-7.29404E-2,1.9765941E-2,2.297273E-2,4.280578E-1,1.0828365E-2,-1.1458149E-2,7.5454056E-1,7.717434E-1,-9.7713E-4,-1.9821975E-2,2.1818176E-2,-8.640544E-3],"split_indices":[0,0,0,1,1,1,1,0,1,1,0,1,0,0,0,0,0,0,0,0,0,0,0,0,0,0,0,0,0,1,1,1,0,0,1,0,0,0,1,0,0,0,0,0,0,0,0],"split_type":[0,0,0,0,0,0,0,0,0,0,0,0,0,0,0,0,0,0,0,0,0,0,0,0,0,0,0,0,0,0,0,0,0,0,0,0,0,0,0,0,0,0,0,0,0,0,0],"sum_hessian":[1.96E2,1.03E2,9.3E1,8.8E1,1.5E1,7.1E1,2.2E1,5.4E1,3.4E1,6E0,9E0,6.3E1,8E0,1E1,1.2E1,1.3E1,2.1E1,3E0,3E0,6E0,5.7E1,1E1,3E0,9E0,1.2E1,2.8E1,2.9E1,6E0,6E0,1.9E1,9E0,2.5E1,4E0,7E0,1.2E1,5E0,4E0,3E0,2.2E1,9E0,3E0,1E1,1.2E1,7E0,3E0,9E0,3E0],"tree_param":{"num_deleted":"0","num_feature":"3","num_nodes":"47","size_leaf_vector":"1"}},{"base_weights":[-4.2467598E-2,2.1565506E-2,-6.2049156E-1,2.0666882E-1,-6.382475E-2,3.472895E-1,-1.2433029E-1,2.1031916E-2,-2.7975678E-1,1.0739852E-1,4.111659E-1,-2.190405E-1,-2.1140836E-2,-1.7912307E-1,3.142817E-1,-1.6374436E-1,-5.0604683E-1,2.762214E-1,-1.7673975E-1,5.397195E-1,1.5712774E-1,7.410578E-2,-7.284677E-2,1.3184333E-1,-2.32671E-1,2.141381E-1,5.5330795E-1,-2.4950106E-1,5.901522E-2,1.7090846E-2,1.7765696E-1,-1.4316642E-1,6.1375998E-2,2.116935E-1,-4.360763E-2,2.2161733E-3,-4.458259E-1,5.324126E-2,3.0310547E-1,-4.114514E-1,8.824925E-2,-1.0275353E-1,2.0529458E-1,-5.272428E-1,8.6767994E-2,1.6431175E-1,-1.6920814E-1,4.4361737E-1,9.26515E-2,-1.1663367E-1,-4.750292E-1,3.1884316E-2,-3.709759E-1,-1.6745557E-1,-6.35773E-1,2.1319105E-1,5.315055E-2,-2.2879317E-2,1.6957165E-1,-2.6940322E-1,1.6241254E-1,-2.4675477E-1,3.983189E-2],"categories":[],"categories_nodes":[],"categories_segments":[],"categories_sizes":[],"default_left":[1,1,0,1,1,1,1,1,1,1,1,0,1,1,1,1,0,0,0,0,1,0,1,1,1,1,0,1,0,0,0,0,0,0,0,1,1,1,1,1,0,1,0,1,0,1,0,0,1,0,0,1,0,1,0,0,0,0,0,0,0,0,0],"id":17,"left_children":[1,3,-1,5,7,9,11,13,15,17,19,-1,21,23,25,27,-1,-1,-1,-1,29,-1,31,33,35,37,-1,39,-1,-1,-1,-1,-1,-1,-1,41,43,45,47,49,-1,51,-1,53,-1,55,-1,-1,57,-1,-1,59,-1,61,-1,-1,-1,-1,-1,-1,-1,-1,-1],"loss_changes":[7.3201656E0,2.9474359E0,0E0,2.9792433E0,2.39199E0,4.023099E-1,1.857337E-1,6.0565968E0,4.905722E-1,1.0803405E0,5.513234E-1,0E0,1.1312042E-1,1.2027406E0,3.2184553E-1,7.089463E-1,0E0,0E0,0E0,0E0,3.645113E-2,0E0,1.7957917E-1,2.307807E-1,2.7448375E0,4.6197033E-1,0E0,1.5589571E0,0E0,0E0,0E0,0E0,0E0,0E0,0E0,7.9642427E-1,1.506165E0,6.704588E-1,4.6644163E-1,1.5587091E-2,0E0,9.5989877E-1,0E0,3.9599657E-1,0E0,2.609104E-2,0E0,0E0,1.7065148E-1,0E0,0E0,1.1036338E0,0E0,2.814885E-1,0E0,0E0,0E0,0E0,0E0,0E0,0E0,0E0,0E0],"parents":[2147483647,0,0,1,1,3,3,4,4,5,5,6,6,7,7,8,8,9,9,10,10,12,12,13,13,14,14,15,15,20,20,22,22,23,23,24,24,25,25,27,27,35,35,36,36,37,37,38,38,39,39,41,41,43,43,45,45,48,48,51,51,53,53],"right_children":[2,4,-1,6,8,10,12,14,16,18,20,-1,22,24,26,28,-1,-1,-1,-1,30,-1,32,34,36,38,-1,40,-1,-1,-1,-1,-1,-1,-1,42,44,46,48,50,-1,52,-1,54,-1,56,-1,-1,58,-1,-1,60,-1,62,-1,-1,-1,-1,-1,-1,-1,-1,-1],"split_conditions":[9.605371E-1,2.0388219E-1,-6.826284E-2,2.965787E-1,7.8178704E-1,1.3825667E-2,4.3982208E-1,5.0677204E-1,9.862564E-1,5.172077E-3,1.749303E-1,-2.4097549E-2,4.883564E-1,8E-4,7.657721E-1,9.43122E-1,-5.56723E-2,3.0388255E-2,-1.944387E-2,5.9376772E-2,2.23892E-3,8.152682E-3,1.01591215E-1,4.6937796E-1,4.2364913E-1,5.5455005E-1,6.087169E-2,7.1307445E-1,6.4925076E-3,1.8802345E-3,1.9544775E-2,-1.5750328E-2,6.752227E-3,2.3289274E-2,-4.7974554E-3,3.6540678E-1,8.607087E-1,4.9935347E-1,6.1275E-1,3.9226067E-1,9.708664E-3,3.397205E-1,2.2585304E-2,5.2915E-1,9.545705E-3,3.3664483E-1,-1.8615285E-2,4.880418E-2,8.1672513E-1,-1.2831351E-2,-5.2259922E-2,1.6398603E-1,-4.081259E-2,2.858278E-1,-6.994401E-2,2.3454027E-2,5.847311E-3,-2.517048E-3,1.8655278E-2,-2.963816E-2,1.7867673E-2,-2.7146509E-2,4.3820706E-3],"split_indices":[1,1,0,2,2,2,2,2,2,2,2,0,2,2,2,2,0,0,0,0,1,0,1,1,1,1,0,1,0,0,0,0,0,0,0,1,1,1,1,1,0,1,0,1,0,1,0,0,1,0,0,2,0,2,0,0,0,0,0,0,0,0,0],"split_type":[0,0,0,0,0,0,0,0,0,0,0,0,0,0,0,0,0,0,0,0,0,0,0,0,0,0,0,0,0,0,0,0,0,0,0,0,0,0,0,0,0,0,0,0,0,0,0,0,0,0,0,0,0,0,0,0,0,0,0,0,0,0,0],"sum_hessian":[1.9E2,1.76E2,1.4E1,5.3E1,1.23E2,3.7E1,1.6E1,9.2E1,3.1E1,1.1E1,2.6E1,5E0,1.1E1,5.6E1,3.6E1,2.7E1,4E0,7E0,4E0,1.3E1,1.3E1,3E0,8E0,7E0,4.9E1,3.3E1,3E0,1.9E1,8E0,3E0,1E1,5E0,3E0,4E0,3E0,2.6E1,2.3E1,1.5E1,1.8E1,1.2E1,7E0,1.9E1,7E0,2E1,3E0,1.1E1,4E0,7E0,1.1E1,5E0,7E0,1.6E1,3E0,8E0,1.2E1,4E0,7E0,6E0,5E0,3E0,1.3E1,5E0,3E0],"tree_param":{"num_deleted":"0","num_feature":"3","num_nodes":"63","size_leaf_vector":"1"}},{"base_weights":[-2.4562754E-2,4.2101223E-2,-5.058211E-1,1.06524125E-1,-2.0546426E-1,3.5399082E-1,6.489061E-2,-3.9318642E-1,6.2239163E-2,-3.3544388E-2,1.6365844E-1,-3.9162472E-2,9.0450004E-2,8.928961E-3,-3.563559E-1,2.7014282E-1,4.181233E-3,1.7966731E-1,-3.553182E-3,-2.653457E-1,5.7774827E-2,4.2725945E-1,1.8228385E-1,-2.798679E-1,1.547244E-1,-7.1838066E-2,6.0250416E-2,2.2422493E-1,-4.5625228E-1,-9.872705E-2,2.6746765E-1,4.0579263E-2,-3.9126235E-1,-5.2603148E-2,5.272826E-1,7.726486E-1,5.9324715E-2,-1.3712971E-1,-5.5289423E-1,-3.3237676E-3,2.985926E-1,5.262909E-2,-1.0207496E-1,1.3794787E-1,5.637367E-3,-1.9188376E-1,5.054102E-2],"categories":[],"categories_nodes":[],"categories_segments":[],"categories_sizes":[],"default_left":[1,1,0,1,1,0,1,0,1,1,1,0,1,1,0,1,1,0,1,0,1,0,1,1,1,0,0,1,1,0,1,0,0,1,0,0,1,0,0,0,0,0,1,0,0,0,0],"id":18,"left_children":[1,3,-1,5,7,-1,9,-1,11,13,15,-1,17,19,-1,21,23,-1,25,-1,27,-1,29,31,33,-1,-1,35,37,-1,39,-1,-1,41,-1,-1,43,-1,-1,-1,-1,-1,45,-1,-1,-1,-1],"loss_changes":[6.7854853E0,3.1187472E0,0E0,1.442192E0,2.1855829E0,0E0,1.3701957E0,0E0,8.233171E-2,1.0288014E0,1.1773571E0,0E0,1.6056241E-1,1.0348568E0,0E0,1.3104749E-1,1.6887696E0,0E0,8.880504E-2,0E0,6.120767E0,0E0,1.0295388E0,5.8006155E-1,2.1442788E0,0E0,0E0,4.5051174E0,1.13256454E-1,0E0,2.5607562E-1,0E0,0E0,1.4369981E-1,0E0,0E0,1.9272639E-1,0E0,0E0,0E0,0E0,0E0,2.844119E-1,0E0,0E0,0E0,0E0],"parents":[2147483647,0,0,1,1,3,3,4,4,6,6,8,8,9,9,10,10,12,12,13,13,15,15,16,16,18,18,20,20,22,22,23,23,24,24,27,27,28,28,30,30,33,33,36,36,42,42],"right_children":[2,4,-1,6,8,-1,10,-1,12,14,16,-1,18,20,-1,22,24,-1,26,-1,28,-1,30,32,34,-1,-1,36,38,-1,40,-1,-1,42,-1,-1,44,-1,-1,-1,-1,-1,46,-1,-1,-1,-1],"split_conditions":[9.160446E-1,6.982899E-1,-5.5647466E-2,8E-4,6.8170977E-1,3.894399E-2,4.293076E-1,-4.325606E-2,7.2486746E-1,3.854772E-1,6.356221E-1,-4.308425E-3,7.573434E-1,1.7098919E-2,-3.9204184E-2,4.514221E-1,7.2785E-1,1.9765941E-2,8.685285E-1,-2.9191775E-2,3.8736492E-1,4.7004573E-2,1.5688428E-1,5.039678E-1,6.161947E-1,-7.903202E-3,6.628397E-3,1.3103782E-1,8.376581E-2,-1.086137E-2,4.9258292E-1,4.464292E-3,-4.3044385E-2,7.6925004E-1,5.8008533E-2,8.500226E-2,2.004362E-1,-1.5086205E-2,-6.0826175E-2,-3.6566137E-4,3.2849405E-2,5.7899435E-3,8.457221E-1,1.5176214E-2,6.2019E-4,-2.1109924E-2,5.5602263E-3],"split_indices":[2,1,0,2,2,0,2,0,2,2,2,0,2,2,0,2,2,0,2,0,1,0,1,1,1,0,0,2,2,0,2,0,0,2,0,0,2,0,0,0,0,0,2,0,0,0,0],"split_type":[0,0,0,0,0,0,0,0,0,0,0,0,0,0,0,0,0,0,0,0,0,0,0,0,0,0,0,0,0,0,0,0,0,0,0,0,0,0,0,0,0,0,0,0,0,0,0],"sum_hessian":[2.02E2,1.82E2,2E1,1.47E2,3.5E1,1.5E1,1.32E2,1.9E1,1.6E1,6.8E1,6.4E1,3E0,1.3E1,6.5E1,3E0,3.6E1,2.8E1,4E0,9E0,6E0,5.9E1,5E0,3.1E1,8E0,2E1,4E0,5E0,4.7E1,1.2E1,7E0,2.4E1,3E0,5E0,1.6E1,4E0,6E0,4.1E1,6E0,6E0,3E0,2.1E1,5E0,1.1E1,1.3E1,2.8E1,6E0,5E0],"tree_param":{"num_deleted":"0","num_feature":"3","num_nodes":"47","size_leaf_vector":"1"}},{"base_weights":[1.64661E-2,5.7718333E-2,-5.82366E-1,1.1495654E-1,-5.378585E-1,3.1192038E-2,2.9335964E-1,-8.953961E-3,4.6643656E-1,1.6714452E-2,4.9238664E-1,8.629572E-2,-3.2338396E-1,2.0013049E-1,-2.1059567E-1,8.202451E-1,6.6824675E-2,3.3976433E-1,-3.1949252E-2,-4.7438174E-1,-1.14043735E-1,3.027397E-1,-1.04361616E-1,7.022339E-2,-3.167806E-1,1.0687803E0,1.3439171E-1,-2.4994386E-2,1.0149444E-1,3.7820643E-1,3.5519435E-3,-2.1173595E-1,1.0048683E-1,5.7173833E-2,-3.0636024E-1,5.441598E-2,3.398223E-1,-2.6838192E-1,-9.652496E-2,3.2093757E-1,-3.8150385E-2,-2.6394483E-2,9.145358E-2,3.3509213E-2,-1.4489147E-1,-1.9711146E-1,7.9591304E-2,1.2403718E-1,-1.0848203E-3],"categories":[],"categories_nodes":[],"categories_segments":[],"categories_sizes":[],"default_left":[1,1,0,1,0,1,1,1,0,1,1,1,1,1,1,1,1,1,1,0,1,1,0,0,0,0,0,0,0,0,0,1,1,1,0,0,0,0,1,0,1,0,1,0,0,0,0,0,0],"id":19,"left_children":[1,3,-1,5,-1,7,9,11,-1,13,15,17,19,21,23,25,27,29,31,-1,33,35,-1,-1,-1,-1,-1,-1,-1,-1,-1,37,39,41,-1,-1,-1,-1,43,-1,45,-1,47,-1,-1,-1,-1,-1,-1],"loss_changes":[4.483129E0,6.0702634E0,0E0,2.3045456E0,0E0,2.0107439E0,2.6900415E0,3.4451027E0,0E0,1.3542761E0,3.6927748E0,2.7207534E0,5.3538346E-1,7.337426E-1,5.656658E-1,1.8577557E0,7.404664E-2,3.6340046E-1,1.6860702E0,0E0,7.161076E-1,2.9866934E-2,0E0,0E0,0E0,0E0,0E0,0E0,0E0,0E0,0E0,4.5969844E-2,1.3446906E0,5.592402E-2,0E0,0E0,0E0,0E0,1.4539823E-1,0E0,6.643664E-1,0E0,3.6077343E-2,0E0,0E0,0E0,0E0,0E0,0E0],"parents":[2147483647,0,0,1,1,3,3,5,5,6,6,7,7,9,9,10,10,11,11,12,12,13,13,14,14,15,15,16,16,17,17,18,18,20,20,21,21,31,31,32,32,33,33,38,38,40,40,42,42],"right_children":[2,4,-1,6,-1,8,10,12,-1,14,16,18,20,22,24,26,28,30,32,-1,34,36,-1,-1,-1,-1,-1,-1,-1,-1,-1,38,40,42,-1,-1,-1,-1,44,-1,46,-1,48,-1,-1,-1,-1,-1,-1],"split_conditions":[9.9300003E-1,9.605371E-1,-6.406849E-2,5.5455005E-1,-5.917203E-2,8.847418E-1,6.3152206E-1,3.9270997E-1,5.131461E-2,7.149217E-1,6.4814997E-1,1.749303E-1,4.607427E-1,5.5275E-1,3.1327593E-1,8.604721E-1,7.2486746E-1,2.0934504E-1,1.19935855E-1,-5.2188694E-2,5.10074E-1,6.1982596E-1,-1.1481252E-2,7.7255648E-3,-3.485034E-2,1.1758093E-1,1.4784986E-2,-2.7497355E-3,1.1165822E-2,4.160805E-2,3.9076395E-4,2.555E-2,2.1357048E-1,4.4758585E-1,-3.3703953E-2,5.986526E-3,3.738525E-2,-2.9525803E-2,7.809192E-2,3.530767E-2,3.0622524E-1,-2.903766E-3,4.7862944E-1,3.6864867E-3,-1.594011E-2,-2.1685045E-2,8.756168E-3,1.3645842E-2,-1.19345554E-4],"split_indices":[2,1,0,1,0,2,2,1,0,1,1,2,2,2,2,2,2,1,1,0,1,1,0,0,0,0,0,0,0,0,0,1,1,1,0,0,0,0,1,0,1,0,1,0,0,0,0,0,0],"split_type":[0,0,0,0,0,0,0,0,0,0,0,0,0,0,0,0,0,0,0,0,0,0,0,0,0,0,0,0,0,0,0,0,0,0,0,0,0,0,0,0,0,0,0,0,0,0,0,0,0],"sum_hessian":[1.68E2,1.62E2,6E0,1.52E2,1E1,1.08E2,4.4E1,1.04E2,4E0,2.1E1,2.3E1,8.3E1,2.1E1,1.2E1,9E0,1E1,1.3E1,2.3E1,6E1,8E0,1.3E1,9E0,3E0,3E0,6E0,5E0,5E0,4E0,9E0,2E1,3E0,2.4E1,3.6E1,9E0,4E0,3E0,6E0,1.1E1,1.3E1,1.1E1,2.5E1,3E0,6E0,4E0,9E0,9E0,1.6E1,3E0,3E0],"tree_param":{"num_deleted":"0","num_feature":"3","num_nodes":"49","size_leaf_vector":"1"}},{"base_weights":[-2.2035379E-2,1.9775821E-1,-2.342578E-1,9.541158E-2,5.9071505E-1,-6.233743E-1,-1.5474929E-1,4.128712E-1,-9.763245E-3,-7.977381E-2,7.3834884E-1,-7.642149E-2,-2.697481E-1,4.700522E-1,1.937337E-2,-1.688207E-1,8.18657E-2,2.3443317E-3,-4.6744817E-1,1.13610975E-1,-3.3856437E-1,-6.7233354E-1,1.1108544E-1,1.6342683E-1,-6.255263E-2,2.106269E-1,-4.910974E-2,-4.2337954E-1,-1.1775252E-1,1.976193E-1,-9.123124E-2,2.1796224E-1,-2.0308737E-2,-1.5974401E-1,7.803468E-2,-1.8795896E-1,4.981566E-2,-5.070567E-1,-7.491099E-2,-8.011542E-2,4.5281593E-2,-2.1857137E-2,-1.844107E-1,2.3727785E-1,-1.5064856E-1,3.411955E-2,-3.7801215E-1,1.09494016E-1,-4.2773068E-2,-3.0707072E-2,1.0634863E-1,2.7939355E-2,1.5139365E-1,-1.3623305E-1,5.51969E-2,8.884405E-3,-5.4713134E-2,1.7170303E-1,-9.261792E-2],"categories":[],"categories_nodes":[],"categories_segments":[],"categories_sizes":[],"default_left":[1,1,1,1,1,0,1,1,1,0,0,1,1,0,0,1,1,1,0,0,1,0,1,1,1,0,1,1,0,0,0,0,1,1,1,1,1,0,0,0,0,0,0,0,0,1,0,1,1,1,0,1,0,0,0,0,0,0,0],"id":20,"left_children":[1,3,5,7,9,-1,11,13,15,-1,-1,17,19,-1,-1,21,23,25,-1,-1,27,-1,29,31,33,-1,35,37,-1,-1,-1,-1,39,41,43,45,47,-1,-1,-1,-1,-1,-1,-1,-1,49,-1,51,53,55,-1,57,-1,-1,-1,-1,-1,-1,-1],"loss_changes":[9.533396E0,3.7285113E0,2.6577492E0,2.9181638E0,2.2873855E0,0E0,7.263911E-1,4.364922E-1,1.1094679E0,0E0,0E0,1.9685023E0,1.1617241E0,0E0,0E0,4.3318496E0,6.321278E-1,6.882618E-1,0E0,0E0,3.0919814E-1,0E0,5.0054264E-1,3.5303575E-1,3.6782646E-1,0E0,7.6374286E-1,3.8698936E-1,0E0,0E0,0E0,0E0,7.057404E-2,2.7016431E-2,6.6697234E-1,1.0321715E0,2.1853589E-1,0E0,0E0,0E0,0E0,0E0,0E0,0E0,0E0,9.22085E-2,0E0,5.345002E-2,2.0509811E-1,1.4855921E-2,0E0,3.4576175E-1,0E0,0E0,0E0,0E0,0E0,0E0,0E0],"parents":[2147483647,0,0,1,1,2,2,3,3,4,4,6,6,7,7,8,8,11,11,12,12,15,15,16,16,17,17,20,20,22,22,23,23,24,24,26,26,27,27,32,32,33,33,34,34,35,35,36,36,45,45,47,47,48,48,49,49,51,51],"right_children":[2,4,6,8,10,-1,12,14,16,-1,-1,18,20,-1,-1,22,24,26,-1,-1,28,-1,30,32,34,-1,36,38,-1,-1,-1,-1,40,42,44,46,48,-1,-1,-1,-1,-1,-1,-1,-1,50,-1,52,54,56,-1,58,-1,-1,-1,-1,-1,-1,-1],"split_conditions":[3.583309E-1,7.3965E-1,1.13341406E-1,3.3159908E-3,7.11E-2,-6.857998E-2,7.953635E-1,3.1282067E-1,1.6591284E-1,-8.776247E-3,8.12288E-2,9.068167E-1,2.202021E-1,5.1712383E-2,2.1313443E-3,8.6582646E-2,2.536416E-1,3.953414E-1,-5.1425904E-2,1.2498812E-2,9.366069E-1,-7.396618E-2,8.7278485E-2,5.87873E-1,6.1272204E-1,2.3171933E-2,5.1623285E-1,8.823434E-1,-1.2954441E-2,2.1740915E-2,-1.0036726E-2,2.3978924E-2,6.860782E-1,4.6585643E-1,6.3622206E-1,2.965787E-1,7.747785E-1,-5.5783402E-2,-8.241267E-3,-8.813828E-3,4.9816146E-3,-2.4045939E-3,-2.0287782E-2,2.6103916E-2,-1.657347E-2,2.8454977E-1,-4.1586675E-2,5.987064E-1,8.372785E-1,2.0135349E-1,1.1699852E-2,5.511599E-1,1.665544E-2,-1.4987559E-2,6.072439E-3,9.7741E-4,-6.0192174E-3,1.8889759E-2,-1.018928E-2],"split_indices":[0,2,2,0,0,0,0,2,2,0,0,2,2,0,0,0,0,0,0,0,0,0,2,2,2,0,2,2,0,0,0,0,2,2,2,2,2,0,0,0,0,0,0,0,0,2,0,2,2,2,0,2,0,0,0,0,0,0,0],"split_type":[0,0,0,0,0,0,0,0,0,0,0,0,0,0,0,0,0,0,0,0,0,0,0,0,0,0,0,0,0,0,0,0,0,0,0,0,0,0,0,0,0,0,0,0,0,0,0,0,0,0,0,0,0,0,0,0,0,0,0],"sum_hessian":[1.93E2,9.5E1,9.8E1,8.1E1,1.4E1,1E1,8.8E1,1.6E1,6.5E1,3E0,1.1E1,5.8E1,3E1,1.3E1,3E0,2.2E1,4.3E1,5.3E1,5E0,4E0,2.6E1,5E0,1.7E1,2.7E1,1.6E1,7E0,4.6E1,1.5E1,1.1E1,1.2E1,5E0,2E1,7E0,9E0,7E0,1.7E1,2.9E1,1E1,5E0,3E0,4E0,3E0,6E0,4E0,3E0,1E1,7E0,1.7E1,1.2E1,7E0,3E0,9E0,8E0,5E0,7E0,4E0,3E0,3E0,6E0],"tree_param":{"num_deleted":"0","num_feature":"3","num_nodes":"59","size_leaf_vector":"1"}},{"base_weights":[-2.7121885E-2,1.993043E-1,-2.3382811E-1,4.476672E-1,8.939241E-2,-1.4904979E-1,-4.567024E-1,-3.131905E-1,2.6079893E-1,-3.2750374E-1,1.1578358E-1,-5.4324216E-1,-1.0912205E-1,6.613085E-2,3.5931727E-1,-5.231416E-1,-2.1836144E-1,2.0001979E-1,-1.4817266E-2,2.1332945E-1,-2.3991095E-1,1.2580065E-1,-1.0002371E-1,1.4199373E-1,6.983639E-1,-2.9626437E-2,-2.3389481E-1,5.3370576E-3,2.2810537E-1,1.5923153E-1,-1.573051E-1,-3.5000652E-1,4.5281593E-2,6.6094343E-3,1.6133265E-1,1.7456274E-1,-2.1033823E-2,-1.6252057E-1,-3.6498564E-1,2.7761382E-1,7.611798E-2,-3.4457564E-2,-4.7232702E-1,3.8263714E-1,2.1804296E-3,-8.118195E-2,-2.532957E-1,3.208537E-1,4.7412604E-2,-1.0355995E-1,1.6108666E-1,-1.4894676E-1,-6.750116E-3,-2.2962222E-2,-1.4402598E-1,5.1263075E-2,-4.9257766E-2],"categories":[],"categories_nodes":[],"categories_segments":[],"categories_sizes":[],"default_left":[1,1,1,0,1,1,0,1,1,1,1,0,1,1,1,0,1,1,1,0,1,1,0,1,0,0,1,0,1,0,0,1,0,0,0,1,0,1,0,1,0,0,0,0,1,1,0,0,0,1,0,0,1,0,0,0,0],"id":21,"left_children":[1,3,5,-1,7,9,-1,11,13,15,17,-1,19,21,23,-1,25,27,29,-1,31,33,-1,35,-1,-1,37,-1,39,-1,-1,41,-1,-1,-1,43,-1,45,-1,47,-1,-1,-1,-1,49,51,-1,-1,-1,53,-1,-1,55,-1,-1,-1,-1],"loss_changes":[8.958036E0,2.274997E0,1.4953136E0,0E0,5.345789E0,4.030937E0,0E0,7.7460694E-1,8.752103E-1,4.0913153E-1,4.2078438E-1,0E0,1.1234885E0,3.168389E-1,1.9176202E0,0E0,8.271289E-2,1.1722267E-1,6.3183856E-1,0E0,6.151744E-1,8.16209E-2,0E0,1.6809762E-1,0E0,0E0,1.4120102E-2,0E0,2.7647853E-2,0E0,0E0,3.9765477E-1,0E0,0E0,0E0,8.456817E-1,0E0,1.3886446E-1,0E0,3.9649427E-2,0E0,0E0,0E0,0E0,4.0964225E-1,1.2898141E-1,0E0,0E0,0E0,2.9092371E-2,0E0,0E0,6.05583E-2,0E0,0E0,0E0,0E0],"parents":[2147483647,0,0,1,1,2,2,4,4,5,5,7,7,8,8,9,9,10,10,12,12,13,13,14,14,16,16,17,17,18,18,20,20,21,21,23,23,26,26,28,28,31,31,35,35,37,37,39,39,44,44,45,45,49,49,52,52],"right_children":[2,4,6,-1,8,10,-1,12,14,16,18,-1,20,22,24,-1,26,28,30,-1,32,34,-1,36,-1,-1,38,-1,40,-1,-1,42,-1,-1,-1,44,-1,46,-1,48,-1,-1,-1,-1,50,52,-1,-1,-1,54,-1,-1,56,-1,-1,-1,-1],"split_conditions":[3.6015815E-1,3.3159908E-3,8.758373E-1,4.9249716E-2,8.200051E-2,6.0313094E-1,-5.0243717E-2,4.45309E-2,2.1257858E-1,3.9980152E-1,7.2598785E-1,-5.976431E-2,1.6435803E-1,5.240359E-1,6.4745E-1,-5.7552967E-2,2.1873587E-1,1.170638E-1,1.2519887E-1,2.3469253E-2,6.5033585E-1,2.4096972E-1,-1.100402E-2,6.092308E-1,7.6829895E-2,-3.2593266E-3,9.822E-1,5.8715174E-4,6.9343585E-1,1.7517718E-2,-1.7305784E-2,7.618643E-2,4.9816146E-3,7.2713115E-4,1.774887E-2,2.536416E-1,-2.3140176E-3,5.514809E-1,-4.0153578E-2,6.7923725E-1,8.374053E-3,-3.7908189E-3,-5.1962644E-2,4.209549E-2,3.555809E-1,4.491856E-1,-2.7866105E-2,3.529844E-2,5.216056E-3,3.7216067E-1,1.7721808E-2,-1.6386248E-2,4.1925603E-1,-2.5261687E-3,-1.5844893E-2,5.6396625E-3,-5.4190503E-3],"split_indices":[0,0,0,0,0,0,0,0,0,0,0,0,1,1,1,0,1,1,1,0,1,1,0,1,0,0,1,0,1,0,0,0,0,0,0,0,0,0,0,0,0,0,0,0,0,0,0,0,0,1,0,0,1,0,0,0,0],"split_type":[0,0,0,0,0,0,0,0,0,0,0,0,0,0,0,0,0,0,0,0,0,0,0,0,0,0,0,0,0,0,0,0,0,0,0,0,0,0,0,0,0,0,0,0,0,0,0,0,0,0,0,0,0,0,0,0,0],"sum_hessian":[1.8E2,8.6E1,9.4E1,2.1E1,6.5E1,7.5E1,1.9E1,1.8E1,4.7E1,4.4E1,3.1E1,4E0,1.4E1,1.9E1,2.8E1,8E0,3.6E1,1.7E1,1.4E1,3E0,1.1E1,1.5E1,4E0,2.2E1,6E0,4E0,3.2E1,3E0,1.4E1,6E0,8E0,7E0,4E0,5E0,1E1,1.8E1,4E0,2.9E1,3E0,7E0,7E0,4E0,3E0,5E0,1.3E1,2.1E1,8E0,4E0,3E0,9E0,4E0,8E0,1.3E1,6E0,3E0,5E0,8E0],"tree_param":{"num_deleted":"0","num_feature":"3","num_nodes":"57","size_leaf_vector":"1"}},{"base_weights":[-4.8671838E-2,1.2657712E-1,-2.1780238E-1,3.9441058E-1,1.3421796E-2,-1.552561E-1,-5.5915934E-1,6.5010655E-1,7.6341785E-2,-2.7476612E-1,7.4899405E-2,-3.4525145E-2,-3.7806654E-1,-5.245124E-2,1.8990527E-1,-4.98577E-2,-3.6125705E-1,-2.2547381E-2,4.681012E-1,-2.1927814E-1,6.3245535E-2,-2.5987837E-1,2.369902E-1,-7.724937E-2,2.6890433E-1,-4.3890572E-1,-7.348846E-2,-1.030128E-1,2.2220753E-1,1.3911816E-1,-1.6373111E-1,-7.947931E-3,-1.3656491E-1,-1.4123291E-1,-3.5895005E-2,3.0437976E-2,2.4833108E-1,2.4619396E-1,-2.203365E-2,-3.9960682E-1,-7.82015E-2,-4.1505255E-2,4.0650915E-2,1.392962E-1,-3.0498123E-1,-2.7193144E-1,1.4622699E-1,3.7045145E-1,1.3875304E-2,-1.060388E-1,8.6060695E-2,4.075117E-2,-2.2567305E-1,-2.0797007E-2,4.7412604E-2,-1.1389697E-1,9.920145E-2],"categories":[],"categories_nodes":[],"categories_segments":[],"categories_sizes":[],"default_left":[1,1,1,1,1,1,0,0,1,1,1,1,0,1,0,0,0,1,0,1,1,0,0,1,0,0,1,1,1,1,1,1,0,1,1,0,1,0,1,0,1,0,0,0,0,0,0,0,1,0,0,1,0,0,0,0,0],"id":22,"left_children":[1,3,5,7,9,11,-1,-1,13,15,17,19,-1,21,-1,-1,-1,23,-1,25,27,-1,-1,29,-1,-1,31,33,35,37,39,41,-1,43,45,-1,47,-1,49,-1,51,-1,-1,-1,-1,-1,-1,-1,53,-1,-1,55,-1,-1,-1,-1,-1],"loss_changes":[6.0175443E0,3.0219736E0,1.6972051E0,2.1328998E0,1.4765975E0,2.4731815E0,0E0,0E0,3.4516305E-1,1.833018E-1,2.6546693E0,1.3022693E0,0E0,1.1748168E0,0E0,0E0,0E0,1.0705755E0,0E0,6.0702693E-1,1.4180578E0,0E0,0E0,1.1537954E0,0E0,0E0,8.355346E-2,4.2135388E-2,9.064865E-2,3.538285E-1,6.630336E-1,3.6886197E-2,0E0,9.642515E-1,9.88375E-1,0E0,6.2088346E-1,0E0,1.6752478E-1,0E0,7.1403104E-1,0E0,0E0,0E0,0E0,0E0,0E0,0E0,2.157293E-2,0E0,0E0,2.9691848E-1,0E0,0E0,0E0,0E0,0E0],"parents":[2147483647,0,0,1,1,2,2,3,3,4,4,5,5,8,8,9,9,10,10,11,11,13,13,17,17,19,19,20,20,23,23,26,26,27,27,28,28,29,29,30,30,31,31,33,33,34,34,36,36,38,38,40,40,48,48,51,51],"right_children":[2,4,6,8,10,12,-1,-1,14,16,18,20,-1,22,-1,-1,-1,24,-1,26,28,-1,-1,30,-1,-1,32,34,36,38,40,42,-1,44,46,-1,48,-1,50,-1,52,-1,-1,-1,-1,-1,-1,-1,54,-1,-1,56,-1,-1,-1,-1,-1],"split_conditions":[3.6015815E-1,1.302763E-1,9.068167E-1,3.45E-3,2.8830897E-2,7.953635E-1,-6.1515424E-2,7.15209E-2,1.3825667E-2,7.1540594E-1,8.847418E-1,3.7049586E-1,-4.159266E-2,1.2880202E-1,2.0892262E-2,-5.4850513E-3,-3.974338E-2,3.555809E-1,5.1497746E-2,4.3942648E-1,6.0313094E-1,-2.8590292E-2,2.607227E-2,7.7308536E-2,2.9583275E-2,-4.8285827E-2,6.776269E-1,4.354977E-1,6.1598086E-1,3.3505884E-1,1.6398603E-1,2.3260349E-1,-1.5024069E-2,6.7509997E-1,6.532564E-1,3.3486073E-3,5.6857204E-1,2.7084813E-2,5.96E-2,-4.3962397E-2,2.391704E-1,-4.566164E-3,4.4721747E-3,1.532455E-2,-3.3552244E-2,-2.99163E-2,1.6087035E-2,4.0754892E-2,6.793309E-1,-1.1665766E-2,9.467892E-3,1.06945075E-1,-2.4827223E-2,-2.2879646E-3,5.216056E-3,-1.2530276E-2,1.091356E-2],"split_indices":[0,2,2,0,0,0,0,0,2,2,2,2,0,0,0,0,0,0,0,0,0,0,0,0,0,0,0,0,0,2,2,2,0,2,2,0,2,0,0,0,0,0,0,0,0,0,0,0,0,0,0,0,0,0,0,0,0],"split_type":[0,0,0,0,0,0,0,0,0,0,0,0,0,0,0,0,0,0,0,0,0,0,0,0,0,0,0,0,0,0,0,0,0,0,0,0,0,0,0,0,0,0,0,0,0,0,0,0,0,0,0,0,0,0,0,0,0],"sum_hessian":[1.92E2,9.5E1,9.7E1,2.4E1,7.1E1,8.9E1,8E0,1E1,1.4E1,9E0,6.2E1,6.2E1,2.7E1,8E0,6E0,5E0,4E0,5.4E1,8E0,1.9E1,4.3E1,5E0,3E0,4.9E1,5E0,3E0,1.6E1,2.2E1,2.1E1,1.3E1,3.6E1,1.1E1,5E0,1E1,1.2E1,4E0,1.7E1,6E0,7E0,4E0,3.2E1,7E0,4E0,4E0,6E0,4E0,8E0,9E0,8E0,4E0,3E0,2E1,1.2E1,5E0,3E0,4E0,1.6E1],"tree_param":{"num_deleted":"0","num_feature":"3","num_nodes":"57","size_leaf_vector":"1"}},{"base_weights":[-1.4420534E-2,3.180524E-2,-3.5936373E-1,1.8169175E-1,-2.18318E-2,-1.8339235E-1,-5.0523007E-1,3.937737E-1,3.7730194E-3,-3.2209826E-1,4.8558205E-2,-3.285822E-1,-4.50433E-2,-1.501502E-1,6.4686224E-2,3.164865E-2,-4.333092E-1,9.511172E-2,-8.079417E-2,-1.7223495E-1,1.479329E-1,-1.5691485E-1,1.4317165E-1,-2.0076415E-1,-5.786812E-1,3.3670824E-2,2.6249862E-1,-2.0351113E-1,7.969817E-2,8.156002E-2,-2.9860812E-1,2.5691077E-2,2.611027E-1,2.54708E-2,-3.7883335E-1,8.9317866E-2,-7.709183E-2,-1.3393548E-1,6.345729E-1,-3.795011E-1,-3.170064E-2,-1.0488525E-2,1.2698394E-1,1.5702769E-1,-1.1817318E-1,-3.1320408E-2,6.1434984E-2,1.5529864E-1,3.1694982E-2,-3.0564934E-1,7.3397525E-2,-1.795613E-1,-1.4977579E-4,8.6383873E-1,5.574959E-2,7.879041E-2,-1.0187052E-1,2.0768823E-1,3.4235124E-3,1.9705118E-1,-3.6199253E-2,-5.914353E-2,1.0502223E-1,-4.3662373E-2,-3.6725983E-1,-1.7188533E-1,1.7036699E-1,3.0360848E-2,-1.1503507E-1,-1.6866066E-2,1.3110739E-1,2.5399506E-1,-1.9709697E-2],"categories":[],"categories_nodes":[],"categories_segments":[],"categories_sizes":[],"default_left":[1,1,1,1,1,1,0,0,1,1,1,0,1,0,1,0,1,1,1,1,0,0,1,1,0,1,1,1,1,0,0,1,0,1,0,1,1,1,1,0,1,0,0,1,0,0,0,1,1,1,1,0,0,0,0,0,0,0,0,0,0,1,1,0,0,0,1,0,0,0,0,0,0],"id":23,"left_children":[1,3,5,7,9,11,-1,-1,13,15,17,-1,19,-1,21,-1,23,25,27,29,-1,-1,31,33,-1,35,37,39,41,-1,-1,43,-1,45,-1,47,49,51,53,-1,55,-1,-1,57,-1,-1,-1,59,61,63,65,-1,-1,-1,-1,-1,-1,-1,-1,-1,-1,67,69,-1,-1,-1,71,-1,-1,-1,-1,-1,-1],"loss_changes":[3.2018623E0,1.4593854E0,7.951975E-2,1.7917821E0,2.9787843E0,3.1140304E-1,0E0,0E0,3.5277468E-1,1.1291015E0,7.406645E-1,0E0,5.5564284E-1,0E0,5.9283996E-1,0E0,3.6716938E-2,8.515771E-1,7.5654334E-1,5.467219E-1,0E0,0E0,2.7633688E-1,7.282774E-1,0E0,4.7514892E-1,3.8351424E0,5.575166E-1,8.739583E-2,0E0,0E0,4.4058913E-1,0E0,3.694734E-2,0E0,1.6089168E-1,1.0468123E0,9.574279E-2,1.4117041E0,0E0,1.7538911E-1,0E0,0E0,8.706486E-2,0E0,0E0,0E0,2.1431595E-1,2.6000983E-1,9.7450376E-2,6.5980625E-1,0E0,0E0,0E0,0E0,0E0,0E0,0E0,0E0,0E0,0E0,1.1354174E-1,7.847436E-2,0E0,0E0,0E0,3.1010312E-1,0E0,0E0,0E0,0E0,0E0,0E0],"parents":[2147483647,0,0,1,1,2,2,3,3,4,4,5,5,8,8,9,9,10,10,12,12,14,14,16,16,17,17,18,18,19,19,22,22,23,23,25,25,26,26,27,27,28,28,31,31,33,33,35,35,36,36,37,37,38,38,40,40,43,43,47,47,48,48,49,49,50,50,61,61,62,62,66,66],"right_children":[2,4,6,8,10,12,-1,-1,14,16,18,-1,20,-1,22,-1,24,26,28,30,-1,-1,32,34,-1,36,38,40,42,-1,-1,44,-1,46,-1,48,50,52,54,-1,56,-1,-1,58,-1,-1,-1,60,62,64,66,-1,-1,-1,-1,-1,-1,-1,-1,-1,-1,68,70,-1,-1,-1,72,-1,-1,-1,-1,-1,-1],"split_conditions":[9.068167E-1,1.7673586E-1,8.0376303E-1,1.749303E-1,1.4875734E-1,9.43122E-1,-5.5582445E-2,4.332067E-2,1.4E-3,2.0934504E-1,7.2970635E-1,-3.6148682E-2,6.0470635E-1,-1.6518643E-2,2.3413813E-1,3.4817986E-3,8.2091406E-2,7.672E-1,6.388221E-1,9.862564E-1,1.627471E-2,-1.726285E-2,9.5062256E-2,4.9808586E-1,-6.36631E-2,5.10074E-1,6.161947E-1,8.607087E-1,8.2345635E-1,8.972755E-3,-3.285111E-2,7.809192E-2,2.8724985E-2,4.6746382E-1,-4.167702E-2,3.2169858E-1,5.557E-1,2.8699654E-1,6.812705E-1,-4.1750483E-2,9.5708585E-1,-1.153886E-3,1.3970027E-2,3.7574905E-1,-1.3000719E-2,-3.4456872E-3,6.758716E-3,5.439328E-1,4.277354E-1,6.5277696E-1,4.106307E-1,-1.975428E-2,-1.6477452E-5,9.5034465E-2,6.1332425E-3,8.668059E-3,-1.1207197E-2,2.284864E-2,3.7663474E-4,2.1678414E-2,-3.9824294E-3,3.397205E-1,3.672041E-1,-4.803478E-3,-4.040377E-2,-1.8909814E-2,6.4483106E-1,3.340122E-3,-1.2655483E-2,-1.8555055E-3,1.4423665E-2,2.7943045E-2,-2.168345E-3],"split_indices":[2,1,1,2,2,2,0,0,1,1,1,0,1,0,2,0,2,2,2,2,0,0,1,1,0,1,1,1,1,0,0,1,0,1,0,1,1,1,1,0,1,0,0,2,0,0,0,2,2,2,2,0,0,0,0,0,0,0,0,0,0,1,1,0,0,0,1,0,0,0,0,0,0],"split_type":[0,0,0,0,0,0,0,0,0,0,0,0,0,0,0,0,0,0,0,0,0,0,0,0,0,0,0,0,0,0,0,0,0,0,0,0,0,0,0,0,0,0,0,0,0,0,0,0,0,0,0,0,0,0,0,0,0,0,0,0,0,0,0,0,0,0,0,0,0,0,0,0,0],"sum_hessian":[1.91E2,1.73E2,1.8E1,4.2E1,1.31E2,1.4E1,4E0,1.6E1,2.6E1,2.1E1,1.1E2,3E0,1.1E1,5E0,2.1E1,6E0,1.5E1,8.2E1,2.8E1,7E0,4E0,4E0,1.7E1,1.1E1,4E0,6.5E1,1.7E1,1.5E1,1.3E1,3E0,4E0,1.2E1,5E0,7E0,4E0,4.4E1,2.1E1,1E1,7E0,4E0,1.1E1,6E0,7E0,6E0,6E0,3E0,4E0,1.6E1,2.8E1,6E0,1.5E1,6E0,4E0,3E0,4E0,4E0,7E0,3E0,3E0,1.3E1,3E0,1.3E1,1.5E1,3E0,3E0,3E0,1.2E1,6E0,7E0,3E0,1.2E1,7E0,5E0],"tree_param":{"num_deleted":"0","num_feature":"3","num_nodes":"73","size_leaf_vector":"1"}},{"base_weights":[1.1070047E-2,4.1352846E-2,-3.365121E-1,-2.4969766E-2,2.1643811E-1,2.5184754E-1,-1.8977326E-1,3.8630903E-1,-4.2767116E-1,3.2934114E-1,1.0567663E-1,-2.952874E-1,-8.176394E-2,-1.941848E-2,4.6456307E-1,1.7305948E-1,4.6401954E-1,-2.1610945E-1,2.3086086E-1,-8.635005E-2,-3.841789E-1,3.7596006E-2,-2.823201E-1,6.69036E-1,1.1225507E-1,2.797401E-1,-2.0629597E-1,9.979514E-2,3.245041E-1,-2.4490087E-1,2.3727785E-1,-5.9061825E-1,-2.2088544E-1,-1.4183096E-2,2.0057738E-1,2.391229E-1,1.1039836E0,-2.8296435E-2,1.8056734E-1,3.8751227E-1,-1.3515396E-1,1.5942071E-1,-8.493174E-3,-1.529892E-1,5.2407615E-2,4.6612564E-2,-8.4654965E-2,3.0437976E-2,2.2040883E-1,1.764788E-1,-1.7330064E-1,6.965022E-2,2.7799493E-1],"categories":[],"categories_nodes":[],"categories_segments":[],"categories_sizes":[],"default_left":[1,1,0,1,1,1,1,1,0,1,1,1,1,0,1,1,0,0,1,1,1,1,0,1,1,1,0,1,0,0,0,0,0,1,0,0,0,1,1,0,0,0,0,0,1,0,0,0,0,1,0,0,0],"id":24,"left_children":[1,3,-1,5,7,9,11,13,-1,15,17,19,21,-1,23,25,-1,-1,27,29,31,33,-1,35,37,39,-1,41,-1,-1,-1,-1,-1,43,-1,-1,-1,45,47,-1,-1,-1,-1,-1,49,-1,-1,-1,-1,51,-1,-1,-1],"loss_changes":[2.1920888E0,2.2337961E0,0E0,6.783418E0,6.7107105E0,4.3231082E-1,9.187064E-1,1.4710541E0,0E0,2.5097823E-1,1.4011265E0,6.409626E-1,1.3463435E0,0E0,2.287695E0,1.3295504E0,0E0,0E0,9.381306E-2,1.3944883E0,2.565899E-1,3.4292093E-1,0E0,2.739149E0,2.280226E-1,1.2698157E0,0E0,1.22081965E-1,0E0,0E0,0E0,0E0,0E0,3.6661652E-1,0E0,0E0,0E0,7.197005E-2,4.9678624E-2,0E0,0E0,0E0,0E0,0E0,9.506338E-1,0E0,0E0,0E0,0E0,1.1403525E-1,0E0,0E0,0E0],"parents":[2147483647,0,0,1,1,3,3,4,4,5,5,6,6,7,7,9,9,10,10,11,11,12,12,14,14,15,15,18,18,19,19,20,20,21,21,23,23,24,24,25,25,27,27,33,33,37,37,38,38,44,44,49,49],"right_children":[2,4,-1,6,8,10,12,14,-1,16,18,20,22,-1,24,26,-1,-1,28,30,32,34,-1,36,38,40,-1,42,-1,-1,-1,-1,-1,44,-1,-1,-1,46,48,-1,-1,-1,-1,-1,50,-1,-1,-1,-1,52,-1,-1,-1],"split_conditions":[9.605371E-1,5.9276545E-1,-3.7021082E-2,2.2824863E-1,7.5733954E-1,7.7800006E-2,5.618936E-1,2.086809E-1,-4.704987E-2,5.96E-2,1.06945075E-1,3.6503088E-1,8.758373E-1,-2.136307E-3,4.1599917E-1,3.45E-3,5.1048703E-2,-2.3775093E-2,1.8808644E-1,3.555809E-1,3.9980152E-1,8.543809E-1,-3.10592E-2,3.1508088E-1,5.2851737E-1,4.6937796E-1,-2.269547E-2,3.1732732E-1,3.5700034E-2,-2.6942555E-2,2.6103916E-2,-6.497635E-2,-2.430052E-2,1.2003586E-1,2.2066345E-2,2.6306897E-2,1.2145379E-1,7.3274434E-1,8.2345635E-1,4.2631824E-2,-1.4868845E-2,1.753853E-2,-9.343691E-4,-1.6830973E-2,8.017671E-1,5.1280404E-3,-9.313242E-3,3.3486073E-3,2.4248084E-2,7.8579056E-1,-1.9065518E-2,7.6625077E-3,3.0583369E-2],"split_indices":[1,1,0,0,0,0,0,0,0,0,0,0,0,0,0,0,0,0,0,0,0,0,0,0,0,1,0,1,0,0,0,0,0,1,0,0,0,1,1,0,0,0,0,0,0,0,0,0,0,0,0,0,0],"split_type":[0,0,0,0,0,0,0,0,0,0,0,0,0,0,0,0,0,0,0,0,0,0,0,0,0,0,0,0,0,0,0,0,0,0,0,0,0,0,0,0,0,0,0,0,0,0,0,0,0,0,0,0,0],"sum_hessian":[1.95E2,1.84E2,1.1E1,1.37E2,4.7E1,5E1,8.7E1,3.9E1,8E0,2.8E1,2.2E1,3.9E1,4.8E1,7E0,3.2E1,1.9E1,9E0,5E0,1.7E1,1.5E1,2.4E1,3.3E1,1.5E1,1.7E1,1.5E1,1.6E1,3E0,1.2E1,5E0,1.1E1,4E0,4E0,2E1,2.9E1,4E0,1.3E1,4E0,6E0,9E0,1.3E1,3E0,6E0,6E0,7E0,2.2E1,3E0,3E0,4E0,5E0,1.5E1,7E0,1.2E1,3E0],"tree_param":{"num_deleted":"0","num_feature":"3","num_nodes":"53","size_leaf_vector":"1"}},{"base_weights":[-1.8257825E-2,1.3519585E-1,-1.5127096E-1,1.6695572E-1,-2.6716653E-1,-5.2200294E-1,-8.9177825E-2,4.3260673E-1,7.710352E-2,-2.1990857E-1,-2.7502121E-2,4.976943E-1,-5.7583726E-3,-8.160197E-2,3.3703667E-1,-8.38584E-2,-4.6736467E-1,-1.4690249E-1,4.2390727E-2,2.3749006E-1,-1.4097764E-1,1.3495417E-1,4.532713E-1,-1.12005755E-1,3.7083995E-2,8.235954E-2,-2.9871073E-1,1.1226874E-1,-1.5488048E-1,-3.064236E-1,-1.9070242E-2,1.8477403E-1,5.510946E-2,-2.271652E-2,-1.8610016E-1,9.3916886E-2,1.01748435E-2,-4.186607E-1,-1.3411146E-1,2.8300272E-2,1.4639702E-1,4.6816476E-2,-2.4643421E-1,-2.5989592E-2,8.592746E-2,-1.2689309E-1,9.253722E-2,6.408469E-2,-2.2527611E-1,1.5156217E-1,-2.2672613E-1,2.789213E-1,6.38308E-2,1.7113312E-1,-1.3040353E-2,2.4742577E-2,2.5182065E-1,-2.769E-2,1.5546803E-1,-3.041097E-1,9.7027704E-2,1.4398132E-1,-8.542142E-2,3.7483875E-2,-1.1960582E-1],"categories":[],"categories_nodes":[],"categories_segments":[],"categories_sizes":[],"default_left":[1,1,1,1,0,0,1,1,1,1,1,0,0,1,1,1,0,1,1,0,1,1,0,1,0,1,1,1,0,0,1,0,1,1,0,0,0,0,1,1,1,1,0,0,0,0,0,0,0,1,0,0,1,0,1,1,0,1,0,0,0,0,0,0,0],"id":25,"left_children":[1,3,5,7,-1,-1,9,11,13,15,17,-1,-1,19,21,23,-1,25,27,-1,29,31,-1,33,-1,35,37,39,-1,-1,41,-1,43,45,-1,-1,-1,-1,47,49,51,53,-1,-1,-1,-1,-1,-1,-1,55,-1,-1,57,-1,59,61,-1,63,-1,-1,-1,-1,-1,-1,-1],"loss_changes":[4.499306E0,1.5672354E0,2.4438612E0,2.1656802E0,0E0,0E0,8.339226E-1,6.928673E-1,3.4865701E0,9.111059E-1,7.0075923E-1,0E0,0E0,1.2277381E0,3.9554238E-1,1.2145354E-1,0E0,1.2093143E0,8.534661E-1,0E0,9.6924144E-1,2.0258427E-2,0E0,1.393384E-1,0E0,8.48411E-3,6.85401E-2,1.01602614E-1,0E0,0E0,5.8584774E-1,0E0,5.201681E-2,2.796929E-1,0E0,0E0,0E0,0E0,3.8436472E-1,8.1581134E-1,2.2342676E-1,2.4870503E-1,0E0,0E0,0E0,0E0,0E0,0E0,0E0,1.7688733E-1,0E0,0E0,2.40206E-1,0E0,1.0242177E0,2.50325E-1,0E0,1.3169365E-1,0E0,0E0,0E0,0E0,0E0,0E0,0E0],"parents":[2147483647,0,0,1,1,2,2,3,3,6,6,7,7,8,8,9,9,10,10,13,13,14,14,15,15,17,17,18,18,20,20,21,21,23,23,25,25,26,26,27,27,30,30,32,32,33,33,38,38,39,39,40,40,41,41,49,49,52,52,54,54,55,55,57,57],"right_children":[2,4,6,8,-1,-1,10,12,14,16,18,-1,-1,20,22,24,-1,26,28,-1,30,32,-1,34,-1,36,38,40,-1,-1,42,-1,44,46,-1,-1,-1,-1,48,50,52,54,-1,-1,-1,-1,-1,-1,-1,56,-1,-1,58,-1,60,62,-1,64,-1,-1,-1,-1,-1,-1,-1],"split_conditions":[3.6015815E-1,9.951E-1,9.718461E-2,3.3159908E-3,-2.9392092E-2,-5.7427697E-2,5.387809E-1,3.1282067E-1,6.3422203E-1,8.7373054E-1,3.5012534E-1,5.4753404E-2,-6.335023E-4,8E-4,7.6815E-1,8.372785E-1,-5.1416714E-2,2.202021E-1,7.741591E-1,2.612726E-2,1.6398603E-1,6.356221E-1,4.9866244E-2,6.7509997E-1,4.0797633E-3,2.004362E-1,2.58493E-1,5.1623285E-1,-1.703904E-2,-3.3710927E-2,5.7435E-1,2.0327752E-2,6.796749E-1,4.2245257E-1,-2.0473646E-2,1.0332184E-2,1.1193765E-3,-4.605859E-2,2.965787E-1,4.7392207E-1,5.6857204E-1,2.271564E-1,-2.7111243E-2,-2.8592222E-3,9.453234E-3,-1.3960032E-2,1.0180401E-2,7.050221E-3,-2.4783555E-2,4.3982208E-1,-2.4943076E-2,3.0685283E-2,6.961441E-1,1.882706E-2,2.3880884E-1,3.5331118E-1,2.770383E-2,6.369E-1,1.710368E-2,-3.3456363E-2,1.0674418E-2,1.5839979E-2,-9.397563E-3,4.1237557E-3,-1.315833E-2],"split_indices":[0,2,2,0,0,0,0,2,2,2,2,0,0,2,2,2,0,2,2,0,2,2,0,2,0,2,2,2,0,0,2,0,2,2,0,0,0,0,2,2,2,2,0,0,0,0,0,0,0,2,0,0,2,0,2,2,0,2,0,0,0,0,0,0,0],"split_type":[0,0,0,0,0,0,0,0,0,0,0,0,0,0,0,0,0,0,0,0,0,0,0,0,0,0,0,0,0,0,0,0,0,0,0,0,0,0,0,0,0,0,0,0,0,0,0,0,0,0,0,0,0,0,0,0,0,0,0,0,0,0,0,0,0],"sum_hessian":[2.09E2,9.7E1,1.12E2,9.3E1,4E0,1E1,1.02E2,1.8E1,7.5E1,2.8E1,7.4E1,1.5E1,3E0,4.9E1,2.6E1,2.3E1,5E0,2.5E1,4.9E1,5E0,4.4E1,1.4E1,1.2E1,1.9E1,4E0,1.1E1,1.4E1,3.8E1,1.1E1,1.5E1,2.9E1,4E0,1E1,1.2E1,7E0,8E0,3E0,3E0,1.1E1,1.4E1,2.4E1,2.6E1,3E0,3E0,7E0,6E0,6E0,4E0,7E0,1.1E1,3E0,4E0,2E1,5E0,2.1E1,8E0,3E0,1.2E1,8E0,3E0,1.8E1,3E0,5E0,9E0,3E0],"tree_param":{"num_deleted":"0","num_feature":"3","num_nodes":"65","size_leaf_vector":"1"}},{"base_weights":[-2.2330444E-2,1.5211149E-2,-3.801127E-1,9.7740285E-2,-5.0807826E-2,4.0544343E-1,1.2779388E-2,5.2006006E-2,-3.782754E-1,1.0223493E-1,-3.4013823E-2,-1.1367784E-1,1.24276906E-1,1.6780597E-1,-4.0219877E-2,-3.0305403E-1,8.40904E-2,3.824051E-2,-2.06544E-1,-1.22047216E-1,3.231372E-1,-2.006422E-1,1.6498739E-1,1.2452681E-1,-4.4457678E-2,-1.6540618E-1,1.6061802E-1,-2.6504123E-1,3.4370232E-2,5.1961895E-2,-4.445775E-1,6.789245E-1,7.864333E-3,3.4658536E-2,2.6111352E-1,-7.531689E-2,1.2545416E-2,1.2326242E-1,-1.2332287E-2,-8.671008E-2,1.3610974E-1,-6.9793455E-2,1.5514973E-1,1.359368E-1,-1.23021536E-1,3.264996E-2,-2.3144588E-1,-8.907227E-2,8.52046E-3,5.6549836E-2,-6.4259153E-3],"categories":[],"categories_nodes":[],"categories_segments":[],"categories_sizes":[],"default_left":[1,1,0,1,1,0,1,1,0,1,1,1,1,0,1,0,1,1,1,1,1,0,0,1,1,0,0,0,0,1,0,0,1,1,0,0,0,0,1,1,0,1,0,0,0,1,0,0,0,0,0],"id":26,"left_children":[1,3,-1,5,7,-1,9,11,-1,13,15,17,19,-1,21,-1,23,25,27,29,31,-1,-1,33,35,-1,-1,-1,-1,37,-1,-1,39,41,-1,-1,-1,-1,43,45,-1,47,-1,-1,-1,49,-1,-1,-1,-1,-1],"loss_changes":[2.6483085E0,1.0184027E0,0E0,2.1326847E0,3.6377382E0,0E0,3.1584334E-1,1.0950012E0,0E0,2.7869555E-1,1.7568243E0,4.501468E-1,3.248017E0,0E0,6.07445E-1,0E0,2.3802724E-1,5.432304E-1,3.1569684E-1,1.9115901E0,3.9751277E0,0E0,0E0,3.375605E-1,2.9512681E-2,0E0,0E0,0E0,0E0,1.2654108E-1,0E0,0E0,3.670958E-1,3.854095E-1,0E0,0E0,0E0,0E0,4.025606E-1,3.491059E-1,0E0,3.1072542E-2,0E0,0E0,0E0,1.5812987E-2,0E0,0E0,0E0,0E0,0E0],"parents":[2147483647,0,0,1,1,3,3,4,4,6,6,7,7,9,9,10,10,11,11,12,12,14,14,16,16,17,17,18,18,19,19,20,20,23,23,24,24,29,29,32,32,33,33,38,38,39,39,41,41,45,45],"right_children":[2,4,-1,6,8,-1,10,12,-1,14,16,18,20,-1,22,-1,24,26,28,30,32,-1,-1,34,36,-1,-1,-1,-1,38,-1,-1,40,42,-1,-1,-1,-1,44,46,-1,48,-1,-1,-1,50,-1,-1,-1,-1,-1],"split_conditions":[9.605371E-1,3.22576E-1,-4.1817766E-2,6.2E-3,7.377961E-1,4.4604503E-2,3.1086844E-1,2.0524216E-1,-4.1615635E-2,1.6638586E-1,4.273586E-2,4.2364913E-1,5.7229996E-1,1.8461026E-2,2.4096972E-1,-3.3340223E-2,2.3584966E-1,3.3642048E-1,7.717737E-1,5.4835E-1,6.7078584E-1,-2.2073476E-2,1.8150942E-2,1.8961805E-1,2.663447E-1,-1.8197017E-2,1.7670251E-2,-2.915828E-2,3.781211E-3,3.8736492E-1,-4.8909802E-2,7.469129E-2,8.282705E-1,7.9423094E-1,2.8726175E-2,-8.285922E-3,1.380173E-3,1.3560607E-2,4.3675E-1,5.2388644E-1,1.4973994E-2,1.5128586E-1,1.7068662E-2,1.4954967E-2,-1.3534106E-2,6.9845635E-1,-2.5462316E-2,-9.7992085E-3,9.3737093E-4,6.221281E-3,-7.069415E-4],"split_indices":[1,1,0,0,0,0,0,0,0,1,1,1,1,0,1,0,1,1,1,1,1,0,0,1,1,0,0,0,0,1,0,0,1,0,0,0,0,0,0,0,0,1,0,0,0,1,0,0,0,0,0],"split_type":[0,0,0,0,0,0,0,0,0,0,0,0,0,0,0,0,0,0,0,0,0,0,0,0,0,0,0,0,0,0,0,0,0,0,0,0,0,0,0,0,0,0,0,0,0,0,0,0,0,0,0],"sum_hessian":[1.89E2,1.76E2,1.3E1,7.7E1,9.9E1,1.2E1,6.5E1,7.9E1,2E1,2E1,4.5E1,2.3E1,5.6E1,1.3E1,7E0,1.1E1,3.4E1,1E1,1.3E1,2.6E1,3E1,4E0,3E0,2.6E1,8E0,3E0,7E0,1E1,3E0,2E1,6E0,1.1E1,1.9E1,2E1,6E0,4E0,4E0,7E0,1.3E1,1.2E1,7E0,1.2E1,8E0,5E0,8E0,9E0,3E0,9E0,3E0,4E0,5E0],"tree_param":{"num_deleted":"0","num_feature":"3","num_nodes":"51","size_leaf_vector":"1"}},{"base_weights":[1.35836415E-2,4.8706587E-2,-4.0877742E-1,1.1431318E-1,-2.0261404E-1,1.53392255E-2,3.8202295E-1,-2.054174E-2,-3.0427745E-1,2.7036712E-1,-1.0363996E-1,2.6863955E-2,5.0835496E-1,1.24612466E-1,-3.022129E-1,3.2751578E-1,1.2039373E-1,-1.3466862E-1,2.5182065E-1,-7.884081E-3,5.6549836E-2,7.7146834E-1,1.8130548E-1,-1.2880817E-1,2.2629581E-1,4.5412323E-1,-1.3511594E-1,-8.29534E-2,2.2171228E-1,-6.464522E-2,-2.261381E-1,-5.7331678E-2,4.1107513E-2,-7.866491E-2,3.3702403E-1,-1.1392224E-1,9.521139E-3,-4.7222946E-2,-3.6244792E-1,-2.4926245E-2,-2.0116477E-1,9.23753E-2,-1.635053E-1,-2.0500934E-1,2.0940234E-1,-4.868735E-1,-2.1546308E-2,1.2615044E-1,-1.7664061E-1,-2.8724843E-1,-5.179674E-2,-9.56409E-2,1.517107E-1],"categories":[],"categories_nodes":[],"categories_segments":[],"categories_sizes":[],"default_left":[1,1,0,1,1,1,1,1,0,1,1,1,1,1,0,1,1,1,0,1,0,0,0,0,0,0,0,0,1,1,1,0,0,0,0,1,1,1,1,1,1,1,0,0,0,0,0,0,0,0,0,0,0],"id":27,"left_children":[1,3,-1,5,7,9,11,13,-1,15,17,19,21,23,-1,25,27,29,-1,31,-1,-1,-1,-1,-1,-1,-1,-1,33,35,37,-1,-1,-1,-1,39,41,43,45,47,49,51,-1,-1,-1,-1,-1,-1,-1,-1,-1,-1,-1],"loss_changes":[3.031801E0,3.2107885E0,0E0,3.986297E0,7.178588E-1,3.7013435E0,1.7486024E0,1.0617956E0,0E0,1.06618404E-1,1.1169248E0,1.9782871E-2,1.7579021E0,6.2281346E-1,0E0,1.7977157E0,5.111069E-1,4.3347323E-1,0E0,4.4248268E-2,0E0,0E0,0E0,0E0,0E0,0E0,0E0,0E0,6.609064E-1,2.0248818E-1,6.99998E-1,0E0,0E0,0E0,0E0,2.2533724E-1,4.6916243E-1,1.0837327E0,6.913097E-1,6.477714E-1,1.1704457E-1,3.25053E-1,0E0,0E0,0E0,0E0,0E0,0E0,0E0,0E0,0E0,0E0,0E0],"parents":[2147483647,0,0,1,1,3,3,4,4,5,5,6,6,7,7,9,9,10,10,11,11,12,12,13,13,15,15,16,16,17,17,19,19,28,28,29,29,30,30,35,35,36,36,37,37,38,38,39,39,40,40,41,41],"right_children":[2,4,-1,6,8,10,12,14,-1,16,18,20,22,24,-1,26,28,30,-1,32,-1,-1,-1,-1,-1,-1,-1,-1,34,36,38,-1,-1,-1,-1,40,42,44,46,48,50,52,-1,-1,-1,-1,-1,-1,-1,-1,-1,-1,-1],"split_conditions":[9.605371E-1,7.953635E-1,-4.497129E-2,5.75662E-1,3.399448E-1,7.7800006E-2,2.3897251E-1,9.7463644E-1,-3.3474818E-2,3.45E-3,7.9423094E-1,2.045809E-1,3.878914E-1,8.543809E-1,-3.3247687E-2,4.6937796E-1,8.8149995E-2,3.9270997E-1,2.770383E-2,7.717737E-1,6.221281E-3,8.487242E-2,1.9946164E-2,-1.4170718E-2,2.4895737E-2,4.995997E-2,-1.4864662E-2,-9.126046E-3,7.17E-2,4.324809E-1,3.590309E-1,-6.3072946E-3,4.522407E-3,-8.654251E-3,3.7077405E-2,3.1086844E-1,6.831142E-1,3.555809E-1,5.5179113E-1,1.9185E-1,7.6420486E-2,3.9900705E-2,-1.7987892E-2,-2.2553923E-2,2.3037216E-2,-5.356296E-2,-2.3703983E-3,1.3878331E-2,-1.9432962E-2,-3.1601384E-2,-5.698373E-3,-1.052185E-2,1.6690321E-2],"split_indices":[1,0,0,1,1,0,0,0,0,0,0,0,0,0,0,1,1,1,0,1,0,0,0,0,0,0,0,0,0,0,0,0,0,0,0,0,0,0,0,1,1,1,0,0,0,0,0,0,0,0,0,0,0],"split_type":[0,0,0,0,0,0,0,0,0,0,0,0,0,0,0,0,0,0,0,0,0,0,0,0,0,0,0,0,0,0,0,0,0,0,0,0,0,0,0,0,0,0,0,0,0,0,0,0,0,0,0,0,0],"sum_hessian":[1.91E2,1.81E2,1E1,1.46E2,3.5E1,1.11E2,3.5E1,1.5E1,2E1,3.3E1,7.8E1,1.1E1,2.4E1,1.2E1,3E0,1.9E1,1.4E1,7.5E1,3E0,7E0,4E0,9E0,1.5E1,3E0,9E0,1.5E1,4E0,5E0,9E0,4.8E1,2.7E1,3E0,4E0,3E0,6E0,2.7E1,2.1E1,1.5E1,1.2E1,1.7E1,1E1,1.6E1,5E0,1E1,5E0,7E0,5E0,9E0,8E0,3E0,7E0,3E0,1.3E1],"tree_param":{"num_deleted":"0","num_feature":"3","num_nodes":"53","size_leaf_vector":"1"}},{"base_weights":[7.5985813E-3,1.4877015E-1,-1.1106776E-1,1.8296356E-1,-2.813046E-1,6.218271E-2,-2.2364807E-1,8.774004E-2,6.829619E-1,-2.2351444E-2,1.8016827E-1,-1.5032111E-1,-4.3380618E-1,1.7839107E-1,-9.300254E-2,-2.326262E-1,7.838644E-2,2.712914E-1,-1.1276218E-1,-2.0895432E-1,2.0280877E-2,1.10290065E-1,3.9300555E-1,-2.0973177E-1,1.5734813E-1,1.8766485E-1,2.608649E-4,-2.7392083E-1,-1.0515995E-1,1.9234025E-1,-1.12864725E-1,2.4410354E-1,-1.04284465E-1,-2.5980946E-1,-5.3609822E-2,-9.187617E-2,7.3506206E-2,-7.776826E-2,-4.5223287E-1,1.810036E-1,-2.4470943E-1,3.4013897E-1,-8.577724E-2,-2.7485624E-1,1.6065491E-2,-8.454327E-2,1.6020369E-2,-1.4080712E-1,3.8504917E-2,-1.8141434E-2,-2.9580238E-1,1.7116046E-1,-1.1178351E-1,1.0984845E-2,-1.9416353E-1],"categories":[],"categories_nodes":[],"categories_segments":[],"categories_sizes":[],"default_left":[1,1,1,1,0,1,1,1,0,1,1,1,0,1,1,0,1,0,0,1,1,1,0,1,0,0,1,1,1,0,0,1,1,0,1,0,0,1,0,0,1,0,0,0,1,0,0,1,0,0,0,0,0,0,0],"id":28,"left_children":[1,3,5,7,-1,9,11,13,-1,15,17,19,-1,21,23,-1,25,-1,-1,27,29,31,-1,33,-1,-1,35,37,39,-1,-1,41,43,-1,45,-1,-1,47,-1,-1,49,-1,-1,-1,51,-1,-1,53,-1,-1,-1,-1,-1,-1,-1],"loss_changes":[3.2221808E0,1.583737E0,2.1217418E0,3.6910152E0,0E0,4.7890002E-1,6.2483716E-1,1.36798E0,0E0,7.7582973E-1,7.008026E-1,5.914674E-1,0E0,5.37493E-1,1.0566702E0,0E0,2.1921973E-1,0E0,0E0,1.2351632E-1,5.7549965E-1,1.5439746E0,0E0,9.801984E-2,0E0,0E0,1.7832872E-1,5.934961E-1,1.2796342E0,0E0,0E0,1.1711886E0,4.9141657E-1,0E0,3.511052E-2,0E0,0E0,1.6077036E-1,0E0,0E0,1.9752336E-1,0E0,0E0,0E0,4.802525E-1,0E0,0E0,1.15119964E-1,0E0,0E0,0E0,0E0,0E0,0E0,0E0],"parents":[2147483647,0,0,1,1,2,2,3,3,5,5,6,6,7,7,9,9,10,10,11,11,13,13,14,14,16,16,19,19,20,20,21,21,23,23,26,26,27,27,28,28,31,31,32,32,34,34,37,37,40,40,44,44,47,47],"right_children":[2,4,6,8,-1,10,12,14,-1,16,18,20,-1,22,24,-1,26,-1,-1,28,30,32,-1,34,-1,-1,36,38,40,-1,-1,42,44,-1,46,-1,-1,48,-1,-1,50,-1,-1,-1,52,-1,-1,54,-1,-1,-1,-1,-1,-1,-1],"split_conditions":[3.6503088E-1,9.351884E-1,3.8289368E-1,3.294682E-1,-3.0947478E-2,7.9423094E-1,9.913348E-1,4.2364913E-1,7.5135455E-2,1.5128586E-1,2.6855183E-1,8.282705E-1,-4.772481E-2,3.5927373E-1,6.7310596E-1,-2.5592169E-2,2.3584966E-1,2.9845886E-2,-1.2405433E-2,5.873152E-1,9.1839457E-1,1.5628389E-1,4.3236163E-2,5.85207E-1,1.7310517E-2,2.0645784E-2,2.971573E-1,5.4835E-1,6.8540394E-1,2.1160144E-2,-1.2416714E-2,2.3578656E-1,5.965E-2,-2.858271E-2,2.1489161E-1,-1.01076765E-2,8.086721E-3,6.9383645E-1,-4.9752004E-2,1.9912953E-2,5.2388644E-1,3.742009E-2,-9.436708E-3,-3.023807E-2,7.7386424E-2,-9.300955E-3,1.7624669E-3,5.229411E-1,4.236085E-3,-1.995814E-3,-3.254244E-2,1.8830068E-2,-1.2297765E-2,1.2084881E-3,-2.136073E-2],"split_indices":[0,1,1,0,0,0,0,1,0,1,1,1,0,1,1,0,1,0,0,1,1,1,0,1,0,0,1,1,1,0,0,0,0,0,0,0,0,0,0,0,0,0,0,0,0,0,0,0,0,0,0,0,0,0,0],"split_type":[0,0,0,0,0,0,0,0,0,0,0,0,0,0,0,0,0,0,0,0,0,0,0,0,0,0,0,0,0,0,0,0,0,0,0,0,0,0,0,0,0,0,0,0,0,0,0,0,0,0,0,0,0,0,0],"sum_hessian":[1.81E2,8.2E1,9.9E1,7.9E1,3E0,4E1,5.9E1,7.2E1,7E0,2.6E1,1.4E1,5.1E1,8E0,4.8E1,2.4E1,6E0,2E1,1.1E1,3E0,3.7E1,1.4E1,4.3E1,5E0,1.7E1,7E0,5E0,1.5E1,1.7E1,2E1,5E0,9E0,2.6E1,1.7E1,1E1,7E0,6E0,9E0,1.2E1,5E0,6E0,1.4E1,2E1,6E0,4E0,1.3E1,4E0,3E0,7E0,5E0,4E0,1E1,5E0,8E0,3E0,4E0],"tree_param":{"num_deleted":"0","num_feature":"3","num_nodes":"55","size_leaf_vector":"1"}},{"base_weights":[7.4795174E-4,3.8196616E-2,-3.9218202E-1,7.9602666E-2,-2.4998076E-1,4.935654E-3,2.4984828E-1,-8.190651E-2,-3.3244324E-1,1.256876E-1,-4.0577225E-2,4.0034607E-1,1.4591399E-2,1.3142633E-1,-2.9101318E-1,1.8478046E-1,-1.3511594E-1,7.230396E-2,-1.4221121E-1,5.858127E-1,1.0260966E-1,-6.3500844E-2,1.3891837E-1,-4.248747E-3,4.2093727E-1,2.0959914E-1,-1.4385049E-3,-4.1604042E-1,-7.519907E-2,6.434723E-2,1.0824432E0,-6.2597334E-2,1.8893066E-1,-1.8925053E-1,9.0777315E-2,1.8900797E-1,-2.7795002E-1,-2.8735432E-1,8.36883E-2,-2.2873366E-3,-1.9796959E-1,2.3814464E-1,-2.1149462E-1,1.0771221E-1,2.2203745E-2,-1.0899478E-1,1.8307716E-1,7.473272E-2,-1.2750152E-1,-2.666683E-1,4.7836218E-2,2.1732542E-1,6.758251E-2,-2.4619192E-2,1.1210889E-1,-2.2358966E-1,6.335663E-2,-3.8316724E-1,1.864576E-2],"categories":[],"categories_nodes":[],"categories_segments":[],"categories_sizes":[],"default_left":[1,1,0,1,1,1,1,1,0,1,1,1,1,0,0,1,0,1,1,1,1,1,0,1,0,0,1,0,1,1,0,0,0,0,1,0,0,0,1,1,1,0,0,0,0,0,1,1,1,1,0,0,0,0,0,0,0,0,0],"id":29,"left_children":[1,3,-1,5,7,9,11,13,-1,15,17,19,21,-1,-1,23,-1,25,27,29,31,33,-1,35,-1,-1,37,-1,39,41,-1,-1,-1,-1,43,-1,-1,-1,45,47,49,-1,-1,-1,-1,-1,51,53,55,57,-1,-1,-1,-1,-1,-1,-1,-1,-1],"loss_changes":[2.9947858E0,2.3295755E0,0E0,2.1121335E0,1.869942E-1,6.980135E-1,1.7620709E0,9.192185E-1,0E0,6.77506E-1,1.1223385E0,1.352582E0,2.9999182E-1,0E0,0E0,1.3811326E0,0E0,4.8476285E-1,7.5187755E-1,4.188784E0,3.3435512E-1,4.804857E-1,0E0,1.5012316E0,0E0,0E0,1.0308133E0,0E0,4.2448798E-1,9.928179E-1,0E0,0E0,0E0,0E0,1.10358E-3,0E0,0E0,0E0,7.4036247E-1,3.9879918E-1,3.7190568E-1,0E0,0E0,0E0,0E0,0E0,9.917438E-3,1.1123246E-1,3.6900276E-1,5.2974546E-1,0E0,0E0,0E0,0E0,0E0,0E0,0E0,0E0,0E0],"parents":[2147483647,0,0,1,1,3,3,4,4,5,5,6,6,7,7,9,9,10,10,11,11,12,12,15,15,17,17,18,18,19,19,20,20,21,21,23,23,26,26,28,28,29,29,34,34,38,38,39,39,40,40,46,46,47,47,48,48,49,49],"right_children":[2,4,-1,6,8,10,12,14,-1,16,18,20,22,-1,-1,24,-1,26,28,30,32,34,-1,36,-1,-1,38,-1,40,42,-1,-1,-1,-1,44,-1,-1,-1,46,48,50,-1,-1,-1,-1,-1,52,54,56,58,-1,-1,-1,-1,-1,-1,-1,-1,-1],"split_conditions":[9.605371E-1,8.890118E-1,-4.3145563E-2,5.75662E-1,5.296E-1,7.7800006E-2,4.112891E-1,9.9138093E-1,-3.657345E-2,4.5005E-1,2.601197E-1,6.651378E-1,8.282705E-1,1.4458753E-2,-3.2015562E-2,6.25E-2,-1.4864662E-2,2.3578656E-1,9.331418E-2,3.1508088E-1,1.3901179E-1,6.0313094E-1,1.5282983E-2,1.64003E-1,4.6309046E-2,2.3058865E-2,4.3E-3,-4.5770325E-2,4.9808586E-1,6.4483106E-1,1.19084045E-1,-6.886591E-3,2.0785041E-2,-2.0820232E-2,8.0194044E-1,2.0793546E-2,-3.0578429E-2,-3.1613033E-2,4.324809E-1,5.530809E-1,3.7325E-1,2.6199274E-2,-2.3267396E-2,1.1849864E-2,2.4427257E-3,-1.1990965E-2,1.2519887E-1,3.4679806E-1,4.289283E-1,5.5848587E-1,5.26266E-3,2.3908867E-2,7.435031E-3,-2.7084588E-3,1.2333562E-2,-2.4598021E-2,6.9701243E-3,-4.215381E-2,2.0512969E-3],"split_indices":[1,0,0,1,1,0,0,0,0,1,1,1,1,0,0,0,0,0,0,0,0,0,0,1,0,0,1,0,1,1,0,0,0,0,1,0,0,0,0,0,0,0,0,0,0,0,1,1,1,1,0,0,0,0,0,0,0,0,0],"split_type":[0,0,0,0,0,0,0,0,0,0,0,0,0,0,0,0,0,0,0,0,0,0,0,0,0,0,0,0,0,0,0,0,0,0,0,0,0,0,0,0,0,0,0,0,0,0,0,0,0,0,0,0,0,0,0,0,0,0,0],"sum_hessian":[1.92E2,1.8E2,1.2E1,1.61E2,1.9E1,1.16E2,4.5E1,1E1,9E0,2.9E1,8.7E1,2.5E1,2E1,6E0,4E0,2.5E1,4E0,4.2E1,4.5E1,1.2E1,1.3E1,1.4E1,6E0,1.7E1,8E0,1.1E1,3.1E1,3E0,4.2E1,9E0,3E0,5E0,8E0,7E0,7E0,1.1E1,6E0,4E0,2.7E1,3E1,1.2E1,6E0,3E0,3E0,4E0,9E0,1.8E1,2E1,1E1,9E0,3E0,1E1,8E0,6E0,1.4E1,6E0,4E0,5E0,4E0],"tree_param":{"num_deleted":"0","num_feature":"3","num_nodes":"59","size_leaf_vector":"1"}},{"base_weights":[-1.6584347E-3,2.2670716E-2,-2.3411109E-1,4.4845805E-2,-3.6978167E-1,-2.970988E-1,-6.594631E-2,1.0896741E-1,-2.0611448E-2,4.4454858E-2,-1.2619735E-1,4.9217172E-2,2.941788E-1,-1.9196951E-1,3.0685049E-3,2.081315E-1,-1.8592529E-2,-4.1358396E-2,6.008803E-1,-1.6482705E-1,3.8490176E-2,-4.0849277E-1,4.3164916E-2,-9.463226E-2,3.3965923E-2,8.026118E-3,-3.2884803E-1,9.0556405E-2,-7.5997375E-2,2.3401624E-1,-1.5613136E-2,-1.9407466E-1,1.6810787E-1,1.3100685E-1,-2.333091E-2,1.0120679E-1,-1.3026632E-1,3.1178067E-2,-1.0756919E-1,4.6258148E-2,3.1025794E-1,-1.7828937E-1,1.1873987E-1,-2.2054067E-2,-1.4583775E-1,-3.3879735E-2,2.6252496E-1,-2.2055472E-1,1.7254224E-2,8.420813E-2,-1.2658456E-1,3.731072E-1,3.6795314E-2],"categories":[],"categories_nodes":[],"categories_segments":[],"categories_sizes":[],"default_left":[1,1,1,1,0,0,1,1,1,0,0,1,1,0,1,0,1,1,0,1,1,0,1,0,0,1,0,1,1,0,1,0,0,1,1,0,1,1,1,1,1,0,0,0,0,0,0,0,0,0,0,0,0],"id":30,"left_children":[1,3,5,7,-1,-1,9,11,13,-1,-1,15,17,-1,19,-1,21,23,-1,25,27,-1,29,-1,-1,31,-1,33,35,-1,37,-1,-1,39,41,-1,43,45,47,49,51,-1,-1,-1,-1,-1,-1,-1,-1,-1,-1,-1,-1],"loss_changes":[1.1767089E0,1.7369753E0,9.689915E-2,7.838979E-1,0E0,0E0,1.1658026E-1,9.543607E-1,3.917318E-1,0E0,0E0,8.5949665E-1,2.376099E0,0E0,5.697461E-1,0E0,1.538462E0,8.139632E-2,0E0,4.8883146E-1,5.084843E-1,0E0,6.5703124E-1,0E0,0E0,6.298595E-1,0E0,2.7870545E-1,3.4176272E-1,0E0,2.2873795E-1,0E0,0E0,5.6687075E-1,5.5480677E-1,0E0,2.1586329E-2,6.0331047E-1,2.7150142E-1,2.9510432E-1,1.4005625E-1,0E0,0E0,0E0,0E0,0E0,0E0,0E0,0E0,0E0,0E0,0E0,0E0],"parents":[2147483647,0,0,1,1,2,2,3,3,6,6,7,7,8,8,11,11,12,12,14,14,16,16,17,17,19,19,20,20,22,22,25,25,27,27,28,28,30,30,33,33,34,34,36,36,37,37,38,38,39,39,40,40],"right_children":[2,4,6,8,-1,-1,10,12,14,-1,-1,16,18,-1,20,-1,22,24,-1,26,28,-1,30,-1,-1,32,-1,34,36,-1,38,-1,-1,40,42,-1,44,46,48,50,52,-1,-1,-1,-1,-1,-1,-1,-1,-1,-1,-1,-1],"split_conditions":[9.605371E-1,9.913348E-1,6.012809E-1,3.452E-1,-4.0681206E-2,-3.2685064E-2,8.3513093E-1,5.8229494E-1,4.148586E-2,4.890662E-3,-1.3883491E-2,3.45E-3,2.3897251E-1,-2.1119358E-2,3.783E-1,2.2897406E-2,4.661987E-2,2.045809E-1,6.610532E-2,3.6665E-1,7.953635E-1,-4.4939976E-2,7.139924E-2,-1.0410885E-2,3.7367314E-3,5.5598587E-1,-3.617793E-2,7.3274434E-1,9.866302E-2,2.5745092E-2,3.8870215E-1,-2.1350954E-2,1.8494241E-2,5.3867406E-1,8.282705E-1,1.11341765E-2,2.772205E-1,3.4544998E-1,4.6032882E-1,4.7302017E-1,6.855705E-1,-1.9614348E-2,1.3063063E-2,-2.426259E-3,-1.6044213E-2,-3.7272493E-3,2.8881455E-2,-2.4264134E-2,1.8982084E-3,9.264084E-3,-1.392609E-2,4.1047063E-2,4.0480043E-3],"split_indices":[1,0,0,0,0,0,0,1,1,0,0,0,0,0,0,0,0,0,0,0,0,0,1,0,0,1,0,1,1,0,1,0,0,1,1,0,1,1,1,1,1,0,0,0,0,0,0,0,0,0,0,0,0],"split_type":[0,0,0,0,0,0,0,0,0,0,0,0,0,0,0,0,0,0,0,0,0,0,0,0,0,0,0,0,0,0,0,0,0,0,0,0,0,0,0,0,0,0,0,0,0,0,0,0,0,0,0,0,0],"sum_hessian":[1.97E2,1.83E2,1.4E1,1.78E2,5E0,7E0,7E0,8.8E1,9E1,3E0,4E0,7.2E1,1.6E1,6E0,8.4E1,1.8E1,5.4E1,1E1,6E0,1.1E1,7.3E1,3E0,5.1E1,5E0,5E0,8E0,3E0,5.1E1,2.2E1,8E0,4.3E1,3E0,5E0,3.7E1,1.4E1,4E0,1.8E1,3.1E1,1.2E1,3E1,7E0,6E0,8E0,4E0,1.4E1,2.8E1,3E0,4E0,8E0,2.7E1,3E0,4E0,3E0],"tree_param":{"num_deleted":"0","num_feature":"3","num_nodes":"53","size_leaf_vector":"1"}},{"base_weights":[-1.1516379E-2,2.8400796E-2,-2.8176296E-1,-9.8651156E-2,1.5647748E-1,-1.2641925E-1,-3.8385326E-1,-2.8017087E-2,-1.9122681E-1,6.910135E-2,2.6650015E-1,-2.8800008E-1,2.9313637E-2,-2.2709483E-1,7.6922745E-2,-3.7403142E-1,-6.396289E-2,1.4455055E-1,-6.506333E-2,4.9272737E-1,3.3619504E-2,-2.3935791E-2,7.080869E-2,1.663753E-1,2.4858102E-2,1.911484E-1,-1.9065815E-1,6.375571E-2,1.8544227E-1,-1.7513317E-1,4.4833305E-3,1.1077374E-1,7.8160316E-1,-1.3940807E-1,1.1790003E-1,-2.1362042E-1,1.08877316E-1,7.914872E-2,2.1808907E-2,2.3812029E-1,8.515723E-2,1.15942955E-1,-1.1775979E-1,1.1928617E-3,1.4328416E-1,-2.8826062E-2,1.6002819E-1,3.2586727E-2,-5.7410733E-3,-2.064903E-2,1.16909415E-1,6.9516785E-2,-7.57572E-2,2.175738E-1,6.497077E-2,9.60987E-4,1.2373376E-1],"categories":[],"categories_nodes":[],"categories_segments":[],"categories_sizes":[],"default_left":[1,1,1,1,1,1,0,1,1,1,1,0,1,0,1,0,1,1,1,1,1,0,0,0,1,0,0,1,1,0,1,0,0,0,0,0,1,1,1,0,1,0,0,1,1,0,0,0,0,0,0,0,0,0,1,0,0],"id":31,"left_children":[1,3,5,7,9,11,-1,13,15,17,19,-1,21,-1,23,-1,25,27,29,31,33,-1,-1,-1,35,-1,-1,37,39,-1,41,-1,-1,-1,-1,-1,43,45,47,-1,49,-1,-1,51,53,-1,-1,-1,-1,-1,-1,-1,-1,-1,55,-1,-1],"loss_changes":[2.1569147E0,2.947372E0,1.3064456E-1,5.690994E-1,7.572596E-1,5.190207E-1,0E0,1.326276E0,7.639593E-1,6.3788235E-1,1.8921313E0,0E0,4.218149E-2,0E0,1.7529875E-1,0E0,1.1683778E0,6.038052E-2,1.9363987E-1,1.570035E0,4.541994E-1,0E0,0E0,0E0,8.082541E-1,0E0,0E0,4.1613504E-3,4.184246E-3,0E0,3.601439E-1,0E0,0E0,0E0,0E0,0E0,1.053977E-1,1.460715E-1,5.139234E-3,0E0,6.992406E-2,0E0,0E0,9.689648E-2,4.5588195E-2,0E0,0E0,0E0,0E0,0E0,0E0,0E0,0E0,0E0,6.9697686E-2,0E0,0E0],"parents":[2147483647,0,0,1,1,2,2,3,3,4,4,5,5,7,7,8,8,9,9,10,10,12,12,14,14,16,16,17,17,18,18,19,19,20,20,24,24,27,27,28,28,30,30,36,36,37,37,38,38,40,40,43,43,44,44,54,54],"right_children":[2,4,6,8,10,12,-1,14,16,18,20,-1,22,-1,24,-1,26,28,30,32,34,-1,-1,-1,36,-1,-1,38,40,-1,42,-1,-1,-1,-1,-1,44,46,48,-1,50,-1,-1,52,54,-1,-1,-1,-1,-1,-1,-1,-1,-1,56,-1,-1],"split_conditions":[8.945721E-1,4.3982208E-1,9.862564E-1,2.2350448E-1,7.2486746E-1,9.43122E-1,-4.222928E-2,1.3825667E-2,2.4195184E-1,6.147064E-1,7.8178704E-1,-3.168408E-2,9.6127206E-1,-2.4983639E-2,8.9419335E-2,-4.114874E-2,2.965787E-1,5.198049E-1,6.3422203E-1,7.672E-1,8.266722E-1,-2.6332752E-3,7.789956E-3,1.8303633E-2,1.0237169E-1,2.1029023E-2,-2.097509E-2,4.8542058E-1,5.6857204E-1,-1.9267123E-2,6.865188E-1,1.2186676E-2,8.598739E-2,-1.5336856E-2,1.2970668E-2,-2.3501264E-2,1.2122558E-1,3.8952065E-1,7.466612E-1,2.6196595E-2,6.498809E-1,1.2755363E-2,-1.295524E-2,3.825853E-2,2.6886547E-1,-3.171274E-3,1.760536E-2,3.5850003E-3,-6.3159916E-4,-2.271685E-3,1.2861687E-2,7.647828E-3,-8.334362E-3,2.3936192E-2,8.330171E-1,1.05722145E-4,1.3612461E-2],"split_indices":[2,2,2,2,2,2,0,2,2,2,2,0,2,0,2,0,2,2,2,2,2,0,0,0,2,0,0,2,2,0,2,0,0,0,0,0,0,0,0,0,0,0,0,0,0,0,0,0,0,0,0,0,0,0,0,0,0],"split_type":[0,0,0,0,0,0,0,0,0,0,0,0,0,0,0,0,0,0,0,0,0,0,0,0,0,0,0,0,0,0,0,0,0,0,0,0,0,0,0,0,0,0,0,0,0,0,0,0,0,0,0,0,0,0,0,0,0],"sum_hessian":[1.9E2,1.7E2,2E1,8.6E1,8.4E1,1.3E1,7E0,5.3E1,3.3E1,5.2E1,3.2E1,4E0,9E0,1.6E1,3.7E1,9E0,2.4E1,3.3E1,1.9E1,1.3E1,1.9E1,5E0,4E0,9E0,2.8E1,7E0,1.7E1,1.6E1,1.7E1,4E0,1.5E1,9E0,4E0,5E0,1.4E1,5E0,2.3E1,8E0,8E0,6E0,1.1E1,8E0,7E0,7E0,1.6E1,5E0,3E0,5E0,3E0,3E0,8E0,4E0,3E0,3E0,1.3E1,9E0,4E0],"tree_param":{"num_deleted":"0","num_feature":"3","num_nodes":"57","size_leaf_vector":"1"}},{"base_weights":[-1.7924724E-2,1.3942045E-2,-3.941917E-1,4.179365E-2,-3.5896862E-1,-4.7143528E-1,-1.067827E-1,3.6132568E-1,4.1886573E-4,-4.1106138E-1,2.2431528E-2,1.7821935E-1,-2.7838652E-4,-4.9752515E-2,2.9051748E-1,-5.6296837E-2,1.4979094E-1,-1.444541E-1,8.403835E-2,3.9888164E-1,-2.7480943E-2,-1.37293935E-2,-2.1872003E-1,1.579506E-1,-3.3786394E-2,-8.6922035E-2,9.5783246E-1,-1.08585864E-1,3.0965617E-2,-9.6682E-2,5.6987077E-2,-3.9793983E-1,-1.3893157E-1,1.9460796E-1,-5.800942E-2,2.6001027E-2,-1.46929E-1,-1.6635261E-2,-9.6816786E-2,9.5929265E-2,-2.125361E-2],"categories":[],"categories_nodes":[],"categories_segments":[],"categories_sizes":[],"default_left":[1,1,1,1,0,0,0,0,1,0,1,1,1,0,0,1,1,1,1,1,1,1,1,1,1,1,0,0,1,0,0,0,0,0,0,0,0,0,0,0,0],"id":32,"left_children":[1,3,5,7,-1,-1,-1,-1,9,-1,11,13,15,-1,-1,17,19,21,23,25,27,29,31,33,35,37,-1,-1,39,-1,-1,-1,-1,-1,-1,-1,-1,-1,-1,-1,-1],"loss_changes":[2.4140003E0,2.0456421E0,6.1315775E-2,2.3882275E0,0E0,0E0,0E0,0E0,1.5536182E0,0E0,5.759403E-1,6.127331E-1,1.2899008E0,0E0,0E0,1.4513502E0,1.9043812E0,6.693351E-1,4.3725768E-1,5.2844486E0,1.6003552E-1,2.1747679E-1,3.2364488E-1,2.9966456E-1,1.7543797E-1,1.0338053E-3,0E0,0E0,8.529085E-2,0E0,0E0,0E0,0E0,0E0,0E0,0E0,0E0,0E0,0E0,0E0,0E0],"parents":[2147483647,0,0,1,1,2,2,3,3,8,8,10,10,11,11,12,12,15,15,16,16,17,17,18,18,19,19,20,20,21,21,22,22,23,23,24,24,25,25,28,28],"right_children":[2,4,6,8,-1,-1,-1,-1,10,-1,12,14,16,-1,-1,18,20,22,24,26,28,30,32,34,36,38,-1,-1,40,-1,-1,-1,-1,-1,-1,-1,-1,-1,-1,-1,-1],"split_conditions":[9.913348E-1,9.9300003E-1,4.2426893E-1,3.3159908E-3,-3.949162E-2,-5.186454E-2,-1.1747605E-2,3.975093E-2,2.870334E-2,-4.5222558E-2,7.7308536E-2,4.314256E-1,7.2486746E-1,-5.4734796E-3,3.1961028E-2,6.091505E-1,4.015809E-1,2.7775228E-1,8.151382E-1,