{"learner":{"attributes":{"scikit_learn":"{\"_estimator_type\": \"regressor\"}"},"feature_names":[],"feature_types":[],"gradient_booster":{"model":{"gbtree_model_param":{"num_parallel_tree":"6","num_trees":"1818"},"iteration_indptr":[0,6,12,18,24,30,36,42,48,54,60,66,72,78,84,90,96,102,108,114,120,126,132,138,144,150,156,162,168,174,180,186,192,198,204,210,216,222,228,234,240,246,252,258,264,270,276,282,288,294,300,306,312,318,324,330,336,342,348,354,360,366,372,378,384,390,396,402,408,414,420,426,432,438,444,450,456,462,468,474,480,486,492,498,504,510,516,522,528,534,540,546,552,558,564,570,576,582,588,594,600,606,612,618,624,630,636,642,648,654,660,666,672,678,684,690,696,702,708,714,720,726,732,738,744,750,756,762,768,774,780,786,792,798,804,810,816,822,828,834,840,846,852,858,864,870,876,882,888,894,900,906,912,918,924,930,936,942,948,954,960,966,972,978,984,990,996,1002,1008,1014,1020,1026,1032,1038,1044,1050,1056,1062,1068,1074,1080,1086,1092,1098,1104,1110,1116,1122,1128,1134,1140,1146,1152,1158,1164,1170,1176,1182,1188,1194,1200,1206,1212,1218,1224,1230,1236,1242,1248,1254,1260,1266,1272,1278,1284,1290,1296,1302,1308,1314,1320,1326,1332,1338,1344,1350,1356,1362,1368,1374,1380,1386,1392,1398,1404,1410,1416,1422,1428,1434,1440,1446,1452,1458,1464,1470,1476,1482,1488,1494,1500,1506,1512,1518,1524,1530,1536,1542,1548,1554,1560,1566,1572,1578,1584,1590,1596,1602,1608,1614,1620,1626,1632,1638,1644,1650,1656,1662,1668,1674,1680,1686,1692,1698,1704,1710,1716,1722,1728,1734,1740,1746,1752,1758,1764,1770,1776,1782,1788,1794,1800,1806,1812,1818],"tree_info":[0,0,0,0,0,0,0,0,0,0,0,0,0,0,0,0,0,0,0,0,0,0,0,0,0,0,0,0,0,0,0,0,0,0,0,0,0,0,0,0,0,0,0,0,0,0,0,0,0,0,0,0,0,0,0,0,0,0,0,0,0,0,0,0,0,0,0,0,0,0,0,0,0,0,0,0,0,0,0,0,0,0,0,0,0,0,0,0,0,0,0,0,0,0,0,0,0,0,0,0,0,0,0,0,0,0,0,0,0,0,0,0,0,0,0,0,0,0,0,0,0,0,0,0,0,0,0,0,0,0,0,0,0,0,0,0,0,0,0,0,0,0,0,0,0,0,0,0,0,0,0,0,0,0,0,0,0,0,0,0,0,0,0,0,0,0,0,0,0,0,0,0,0,0,0,0,0,0,0,0,0,0,0,0,0,0,0,0,0,0,0,0,0,0,0,0,0,0,0,0,0,0,0,0,0,0,0,0,0,0,0,0,0,0,0,0,0,0,0,0,0,0,0,0,0,0,0,0,0,0,0,0,0,0,0,0,0,0,0,0,0,0,0,0,0,0,0,0,0,0,0,0,0,0,0,0,0,0,0,0,0,0,0,0,0,0,0,0,0,0,0,0,0,0,0,0,0,0,0,0,0,0,0,0,0,0,0,0,0,0,0,0,0,0,0,0,0,0,0,0,0,0,0,0,0,0,0,0,0,0,0,0,0,0,0,0,0,0,0,0,0,0,0,0,0,0,0,0,0,0,0,0,0,0,0,0,0,0,0,0,0,0,0,0,0,0,0,0,0,0,0,0,0,0,0,0,0,0,0,0,0,0,0,0,0,0,0,0,0,0,0,0,0,0,0,0,0,0,0,0,0,0,0,0,0,0,0,0,0,0,0,0,0,0,0,0,0,0,0,0,0,0,0,0,0,0,0,0,0,0,0,0,0,0,0,0,0,0,0,0,0,0,0,0,0,0,0,0,0,0,0,0,0,0,0,0,0,0,0,0,0,0,0,0,0,0,0,0,0,0,0,0,0,0,0,0,0,0,0,0,0,0,0,0,0,0,0,0,0,0,0,0,0,0,0,0,0,0,0,0,0,0,0,0,0,0,0,0,0,0,0,0,0,0,0,0,0,0,0,0,0,0,0,0,0,0,0,0,0,0,0,0,0,0,0,0,0,0,0,0,0,0,0,0,0,0,0,0,0,0,0,0,0,0,0,0,0,0,0,0,0,0,0,0,0,0,0,0,0,0,0,0,0,0,0,0,0,0,0,0,0,0,0,0,0,0,0,0,0,0,0,0,0,0,0,0,0,0,0,0,0,0,0,0,0,0,0,0,0,0,0,0,0,0,0,0,0,0,0,0,0,0,0,0,0,0,0,0,0,0,0,0,0,0,0,0,0,0,0,0,0,0,0,0,0,0,0,0,0,0,0,0,0,0,0,0,0,0,0,0,0,0,0,0,0,0,0,0,0,0,0,0,0,0,0,0,0,0,0,0,0,0,0,0,0,0,0,0,0,0,0,0,0,0,0,0,0,0,0,0,0,0,0,0,0,0,0,0,0,0,0,0,0,0,0,0,0,0,0,0,0,0,0,0,0,0,0,0,0,0,0,0,0,0,0,0,0,0,0,0,0,0,0,0,0,0,0,0,0,0,0,0,0,0,0,0,0,0,0,0,0,0,0,0,0,0,0,0,0,0,0,0,0,0,0,0,0,0,0,0,0,0,0,0,0,0,0,0,0,0,0,0,0,0,0,0,0,0,0,0,0,0,0,0,0,0,0,0,0,0,0,0,0,0,0,0,0,0,0,0,0,0,0,0,0,0,0,0,0,0,0,0,0,0,0,0,0,0,0,0,0,0,0,0,0,0,0,0,0,0,0,0,0,0,0,0,0,0,0,0,0,0,0,0,0,0,0,0,0,0,0,0,0,0,0,0,0,0,0,0,0,0,0,0,0,0,0,0,0,0,0,0,0,0,0,0,0,0,0,0,0,0,0,0,0,0,0,0,0,0,0,0,0,0,0,0,0,0,0,0,0,0,0,0,0,0,0,0,0,0,0,0,0,0,0,0,0,0,0,0,0,0,0,0,0,0,0,0,0,0,0,0,0,0,0,0,0,0,0,0,0,0,0,0,0,0,0,0,0,0,0,0,0,0,0,0,0,0,0,0,0,0,0,0,0,0,0,0,0,0,0,0,0,0,0,0,0,0,0,0,0,0,0,0,0,0,0,0,0,0,0,0,0,0,0,0,0,0,0,0,0,0,0,0,0,0,0,0,0,0,0,0,0,0,0,0,0,0,0,0,0,0,0,0,0,0,0,0,0,0,0,0,0,0,0,0,0,0,0,0,0,0,0,0,0,0,0,0,0,0,0,0,0,0,0,0,0,0,0,0,0,0,0,0,0,0,0,0,0,0,0,0,0,0,0,0,0,0,0,0,0,0,0,0,0,0,0,0,0,0,0,0,0,0,0,0,0,0,0,0,0,0,0,0,0,0,0,0,0,0,0,0,0,0,0,0,0,0,0,0,0,0,0,0,0,0,0,0,0,0,0,0,0,0,0,0,0,0,0,0,0,0,0,0,0,0,0,0,0,0,0,0,0,0,0,0,0,0,0,0,0,0,0,0,0,0,0,0,0,0,0,0,0,0,0,0,0,0,0,0,0,0,0,0,0,0,0,0,0,0,0,0,0,0,0,0,0,0,0,0,0,0,0,0,0,0,0,0,0,0,0,0,0,0,0,0,0,0,0,0,0,0,0,0,0,0,0,0,0,0,0,0,0,0,0,0,0,0,0,0,0,0,0,0,0,0,0,0,0,0,0,0,0,0,0,0,0,0,0,0,0,0,0,0,0,0,0,0,0,0,0,0,0,0,0,0,0,0,0,0,0,0,0,0,0,0,0,0,0,0,0,0,0,0,0,0,0,0,0,0,0,0,0,0,0,0,0,0,0,0,0,0,0,0,0,0,0,0,0,0,0,0,0,0,0,0,0,0,0,0,0,0,0,0,0,0,0,0,0,0,0,0,0,0,0,0,0,0,0,0,0,0,0,0,0,0,0,0,0,0,0,0,0,0,0,0,0,0,0,0,0,0,0,0,0,0,0,0,0,0,0,0,0,0,0,0,0,0,0,0,0,0,0,0,0,0,0,0,0,0,0,0,0,0,0,0,0,0,0,0,0,0,0,0,0,0,0,0,0,0,0,0,0,0,0,0,0,0,0,0,0,0,0,0,0,0,0,0,0,0,0,0,0,0,0,0,0,0,0,0,0,0,0,0,0,0,0,0,0,0,0,0,0,0,0,0,0,0,0,0,0,0,0,0,0,0,0,0,0,0,0,0,0,0,0,0,0,0,0,0,0,0,0,0,0,0,0,0,0,0,0,0,0,0,0,0,0,0,0,0,0,0,0,0,0,0,0,0,0,0,0,0,0,0,0,0,0,0,0,0,0,0,0,0,0,0,0,0,0,0,0,0,0,0,0,0,0,0,0,0,0,0,0,0,0,0,0,0,0,0,0,0,0,0,0,0,0,0,0,0,0,0,0,0,0,0,0,0,0,0,0,0,0,0,0,0,0,0,0,0,0,0,0,0,0,0,0,0,0,0,0,0,0,0,0,0,0,0,0,0,0,0,0,0,0,0,0,0,0,0,0,0,0,0,0,0,0,0,0,0,0,0,0,0,0,0,0,0,0,0,0,0,0,0,0,0,0,0,0,0,0,0,0,0,0,0,0,0,0,0,0,0,0,0,0,0,0,0,0,0,0,0,0,0,0,0,0,0,0,0,0,0,0,0,0,0,0,0,0,0,0,0,0,0,0,0,0,0,0,0,0,0,0,0,0,0,0,0,0,0,0,0,0,0,0,0,0,0,0,0,0,0,0,0,0,0,0,0,0,0,0,0,0,0,0,0,0,0,0,0,0,0,0,0,0,0,0,0,0,0,0,0,0,0,0,0,0,0,0,0,0,0,0,0,0,0,0,0,0,0,0,0,0,0,0,0,0,0,0,0,0,0,0,0,0,0,0,0,0,0,0,0,0,0,0,0,0,0,0,0,0,0,0,0,0,0,0,0,0,0,0,0,0,0,0,0,0,0],"trees":[{"base_weights":[1.2668849E-2,2.8046268E-1,-1.4117765E-1,1.1186417E-1,3.6394406E-2,2.7726406E-2,-2.5363054E-2],"categories":[],"categories_nodes":[],"categories_segments":[],"categories_sizes":[],"default_left":[0,0,0,0,0,0,0],"id":0,"left_children":[1,3,-1,-1,5,-1,-1],"loss_changes":[5.1244823E1,1.7596748E1,0E0,0E0,3.1852467E0,0E0,0E0],"parents":[2147483647,0,0,1,1,4,4],"right_children":[2,4,-1,-1,6,-1,-1],"split_conditions":[7.1290797E-1,1.7288834E-1,-1.4117765E-1,1.1186417E-1,5E-1,2.7726406E-2,-2.5363054E-2],"split_indices":[1,1,0,0,1,0,0],"split_type":[0,0,0,0,0,0,0],"sum_hessian":[1.99E2,1.56E2,4.3E1,5.3E1,1.03E2,6E1,4.3E1],"tree_param":{"num_deleted":"0","num_feature":"3","num_nodes":"7","size_leaf_vector":"1"}},{"base_weights":[1.2668849E-2,2.8046268E-1,-1.4117765E-1,1.1186417E-1,3.6394406E-2,2.7726406E-2,-2.5363054E-2],"categories":[],"categories_nodes":[],"categories_segments":[],"categories_sizes":[],"default_left":[0,0,0,0,0,0,0],"id":1,"left_children":[1,3,-1,-1,5,-1,-1],"loss_changes":[5.1244823E1,1.7596748E1,0E0,0E0,3.1852467E0,0E0,0E0],"parents":[2147483647,0,0,1,1,4,4],"right_children":[2,4,-1,-1,6,-1,-1],"split_conditions":[7.1290797E-1,1.7288834E-1,-1.4117765E-1,1.1186417E-1,5E-1,2.7726406E-2,-2.5363054E-2],"split_indices":[1,1,0,0,1,0,0],"split_type":[0,0,0,0,0,0,0],"sum_hessian":[1.99E2,1.56E2,4.3E1,5.3E1,1.03E2,6E1,4.3E1],"tree_param":{"num_deleted":"0","num_feature":"3","num_nodes":"7","size_leaf_vector":"1"}},{"base_weights":[1.2668849E-2,2.8046268E-1,-1.4117765E-1,1.1186417E-1,3.6394406E-2,2.7726406E-2,-2.5363054E-2],"categories":[],"categories_nodes":[],"categories_segments":[],"categories_sizes":[],"default_left":[0,0,0,0,0,0,0],"id":2,"left_children":[1,3,-1,-1,5,-1,-1],"loss_changes":[5.1244823E1,1.7596748E1,0E0,0E0,3.1852467E0,0E0,0E0],"parents":[2147483647,0,0,1,1,4,4],"right_children":[2,4,-1,-1,6,-1,-1],"split_conditions":[7.1290797E-1,1.7288834E-1,-1.4117765E-1,1.1186417E-1,5E-1,2.7726406E-2,-2.5363054E-2],"split_indices":[1,1,0,0,1,0,0],"split_type":[0,0,0,0,0,0,0],"sum_hessian":[1.99E2,1.56E2,4.3E1,5.3E1,1.03E2,6E1,4.3E1],"tree_param":{"num_deleted":"0","num_feature":"3","num_nodes":"7","size_leaf_vector":"1"}},{"base_weights":[1.2668849E-2,2.8046268E-1,-1.4117765E-1,1.1186417E-1,3.6394406E-2,2.7726406E-2,-2.5363054E-2],"categories":[],"categories_nodes":[],"categories_segments":[],"categories_sizes":[],"default_left":[0,0,0,0,0,0,0],"id":3,"left_children":[1,3,-1,-1,5,-1,-1],"loss_changes":[5.1244823E1,1.7596748E1,0E0,0E0,3.1852467E0,0E0,0E0],"parents":[2147483647,0,0,1,1,4,4],"right_children":[2,4,-1,-1,6,-1,-1],"split_conditions":[7.1290797E-1,1.7288834E-1,-1.4117765E-1,1.1186417E-1,5E-1,2.7726406E-2,-2.5363054E-2],"split_indices":[1,1,0,0,1,0,0],"split_type":[0,0,0,0,0,0,0],"sum_hessian":[1.99E2,1.56E2,4.3E1,5.3E1,1.03E2,6E1,4.3E1],"tree_param":{"num_deleted":"0","num_feature":"3","num_nodes":"7","size_leaf_vector":"1"}},{"base_weights":[1.2668849E-2,2.8046268E-1,-1.4117765E-1,1.1186417E-1,3.6394406E-2,2.7726406E-2,-2.5363054E-2],"categories":[],"categories_nodes":[],"categories_segments":[],"categories_sizes":[],"default_left":[0,0,0,0,0,0,0],"id":4,"left_children":[1,3,-1,-1,5,-1,-1],"loss_changes":[5.1244823E1,1.7596748E1,0E0,0E0,3.1852467E0,0E0,0E0],"parents":[2147483647,0,0,1,1,4,4],"right_children":[2,4,-1,-1,6,-1,-1],"split_conditions":[7.1290797E-1,1.7288834E-1,-1.4117765E-1,1.1186417E-1,5E-1,2.7726406E-2,-2.5363054E-2],"split_indices":[1,1,0,0,1,0,0],"split_type":[0,0,0,0,0,0,0],"sum_hessian":[1.99E2,1.56E2,4.3E1,5.3E1,1.03E2,6E1,4.3E1],"tree_param":{"num_deleted":"0","num_feature":"3","num_nodes":"7","size_leaf_vector":"1"}},{"base_weights":[1.2668849E-2,2.8046268E-1,-1.4117765E-1,1.1186417E-1,3.6394406E-2,2.7726406E-2,-2.5363054E-2],"categories":[],"categories_nodes":[],"categories_segments":[],"categories_sizes":[],"default_left":[0,0,0,0,0,0,0],"id":5,"left_children":[1,3,-1,-1,5,-1,-1],"loss_changes":[5.1244823E1,1.7596748E1,0E0,0E0,3.1852467E0,0E0,0E0],"parents":[2147483647,0,0,1,1,4,4],"right_children":[2,4,-1,-1,6,-1,-1],"split_conditions":[7.1290797E-1,1.7288834E-1,-1.4117765E-1,1.1186417E-1,5E-1,2.7726406E-2,-2.5363054E-2],"split_indices":[1,1,0,0,1,0,0],"split_type":[0,0,0,0,0,0,0],"sum_hessian":[1.99E2,1.56E2,4.3E1,5.3E1,1.03E2,6E1,4.3E1],"tree_param":{"num_deleted":"0","num_feature":"3","num_nodes":"7","size_leaf_vector":"1"}},{"base_weights":[1.8706959E-2,5.16986E-1,-4.5185575E-1,9.219426E-2,6.2611714E-2,-3.6772206E-2,-1.1258408E-1],"categories":[],"categories_nodes":[],"categories_segments":[],"categories_sizes":[],"default_left":[0,0,0,0,0,0,0],"id":6,"left_children":[1,3,5,-1,-1,-1,-1],"loss_changes":[4.8633343E1,5.26783E-1,6.196554E0,0E0,0E0,0E0,0E0],"parents":[2147483647,0,0,1,1,2,2],"right_children":[2,4,6,-1,-1,-1,-1],"split_conditions":[3.603E-1,1.106E-1,7.327618E-1,9.219426E-2,6.2611714E-2,-3.6772206E-2,-1.1258408E-1],"split_indices":[0,0,0,0,0,0,0],"split_type":[0,0,0,0,0,0,0],"sum_hessian":[2.04E2,9.9E1,1.05E2,4.8E1,5.1E1,6.3E1,4.2E1],"tree_param":{"num_deleted":"0","num_feature":"3","num_nodes":"7","size_leaf_vector":"1"}},{"base_weights":[1.8706959E-2,5.16986E-1,-4.5185575E-1,9.219426E-2,6.2611714E-2,-3.6772206E-2,-1.1258408E-1],"categories":[],"categories_nodes":[],"categories_segments":[],"categories_sizes":[],"default_left":[0,0,0,0,0,0,0],"id":7,"left_children":[1,3,5,-1,-1,-1,-1],"loss_changes":[4.8633343E1,5.26783E-1,6.196554E0,0E0,0E0,0E0,0E0],"parents":[2147483647,0,0,1,1,2,2],"right_children":[2,4,6,-1,-1,-1,-1],"split_conditions":[3.603E-1,1.106E-1,7.327618E-1,9.219426E-2,6.2611714E-2,-3.6772206E-2,-1.1258408E-1],"split_indices":[0,0,0,0,0,0,0],"split_type":[0,0,0,0,0,0,0],"sum_hessian":[2.04E2,9.9E1,1.05E2,4.8E1,5.1E1,6.3E1,4.2E1],"tree_param":{"num_deleted":"0","num_feature":"3","num_nodes":"7","size_leaf_vector":"1"}},{"base_weights":[1.8706959E-2,5.16986E-1,-4.5185575E-1,9.219426E-2,6.2611714E-2,-3.6772206E-2,-1.1258408E-1],"categories":[],"categories_nodes":[],"categories_segments":[],"categories_sizes":[],"default_left":[0,0,0,0,0,0,0],"id":8,"left_children":[1,3,5,-1,-1,-1,-1],"loss_changes":[4.8633343E1,5.26783E-1,6.196554E0,0E0,0E0,0E0,0E0],"parents":[2147483647,0,0,1,1,2,2],"right_children":[2,4,6,-1,-1,-1,-1],"split_conditions":[3.603E-1,1.106E-1,7.327618E-1,9.219426E-2,6.2611714E-2,-3.6772206E-2,-1.1258408E-1],"split_indices":[0,0,0,0,0,0,0],"split_type":[0,0,0,0,0,0,0],"sum_hessian":[2.04E2,9.9E1,1.05E2,4.8E1,5.1E1,6.3E1,4.2E1],"tree_param":{"num_deleted":"0","num_feature":"3","num_nodes":"7","size_leaf_vector":"1"}},{"base_weights":[1.8706959E-2,5.16986E-1,-4.5185575E-1,9.219426E-2,6.2611714E-2,-3.6772206E-2,-1.1258408E-1],"categories":[],"categories_nodes":[],"categories_segments":[],"categories_sizes":[],"default_left":[0,0,0,0,0,0,0],"id":9,"left_children":[1,3,5,-1,-1,-1,-1],"loss_changes":[4.8633343E1,5.26783E-1,6.196554E0,0E0,0E0,0E0,0E0],"parents":[2147483647,0,0,1,1,2,2],"right_children":[2,4,6,-1,-1,-1,-1],"split_conditions":[3.603E-1,1.106E-1,7.327618E-1,9.219426E-2,6.2611714E-2,-3.6772206E-2,-1.1258408E-1],"split_indices":[0,0,0,0,0,0,0],"split_type":[0,0,0,0,0,0,0],"sum_hessian":[2.04E2,9.9E1,1.05E2,4.8E1,5.1E1,6.3E1,4.2E1],"tree_param":{"num_deleted":"0","num_feature":"3","num_nodes":"7","size_leaf_vector":"1"}},{"base_weights":[1.8706959E-2,5.16986E-1,-4.5185575E-1,9.219426E-2,6.2611714E-2,-3.6772206E-2,-1.1258408E-1],"categories":[],"categories_nodes":[],"categories_segments":[],"categories_sizes":[],"default_left":[0,0,0,0,0,0,0],"id":10,"left_children":[1,3,5,-1,-1,-1,-1],"loss_changes":[4.8633343E1,5.26783E-1,6.196554E0,0E0,0E0,0E0,0E0],"parents":[2147483647,0,0,1,1,2,2],"right_children":[2,4,6,-1,-1,-1,-1],"split_conditions":[3.603E-1,1.106E-1,7.327618E-1,9.219426E-2,6.2611714E-2,-3.6772206E-2,-1.1258408E-1],"split_indices":[0,0,0,0,0,0,0],"split_type":[0,0,0,0,0,0,0],"sum_hessian":[2.04E2,9.9E1,1.05E2,4.8E1,5.1E1,6.3E1,4.2E1],"tree_param":{"num_deleted":"0","num_feature":"3","num_nodes":"7","size_leaf_vector":"1"}},{"base_weights":[1.8706959E-2,5.16986E-1,-4.5185575E-1,9.219426E-2,6.2611714E-2,-3.6772206E-2,-1.1258408E-1],"categories":[],"categories_nodes":[],"categories_segments":[],"categories_sizes":[],"default_left":[0,0,0,0,0,0,0],"id":11,"left_children":[1,3,5,-1,-1,-1,-1],"loss_changes":[4.8633343E1,5.26783E-1,6.196554E0,0E0,0E0,0E0,0E0],"parents":[2147483647,0,0,1,1,2,2],"right_children":[2,4,6,-1,-1,-1,-1],"split_conditions":[3.603E-1,1.106E-1,7.327618E-1,9.219426E-2,6.2611714E-2,-3.6772206E-2,-1.1258408E-1],"split_indices":[0,0,0,0,0,0,0],"split_type":[0,0,0,0,0,0,0],"sum_hessian":[2.04E2,9.9E1,1.05E2,4.8E1,5.1E1,6.3E1,4.2E1],"tree_param":{"num_deleted":"0","num_feature":"3","num_nodes":"7","size_leaf_vector":"1"}},{"base_weights":[-4.498635E-2,9.683338E-2,-9.287018E-2,-4.0733706E-2,6.7270994E-2,2.4778064E-2,-3.4080822E-2],"categories":[],"categories_nodes":[],"categories_segments":[],"categories_sizes":[],"default_left":[0,0,0,0,0,0,0],"id":12,"left_children":[1,3,-1,5,-1,-1,-1],"loss_changes":[1.6844616E1,8.047384E0,0E0,4.6489153E0,0E0,0E0,0E0],"parents":[2147483647,0,0,1,1,3,3],"right_children":[2,4,-1,6,-1,-1,-1],"split_conditions":[8.2284415E-1,6.017128E-1,-9.287018E-2,2.032E-1,6.7270994E-2,2.4778064E-2,-3.4080822E-2],"split_indices":[2,2,0,2,0,0,0],"split_type":[0,0,0,0,0,0,0],"sum_hessian":[2.06E2,1.66E2,4E1,1.2E2,4.6E1,5.7E1,6.3E1],"tree_param":{"num_deleted":"0","num_feature":"3","num_nodes":"7","size_leaf_vector":"1"}},{"base_weights":[-4.498635E-2,9.683338E-2,-9.287018E-2,-4.0733706E-2,6.7270994E-2,2.4778064E-2,-3.4080822E-2],"categories":[],"categories_nodes":[],"categories_segments":[],"categories_sizes":[],"default_left":[0,0,0,0,0,0,0],"id":13,"left_children":[1,3,-1,5,-1,-1,-1],"loss_changes":[1.6844616E1,8.047384E0,0E0,4.6489153E0,0E0,0E0,0E0],"parents":[2147483647,0,0,1,1,3,3],"right_children":[2,4,-1,6,-1,-1,-1],"split_conditions":[8.2284415E-1,6.017128E-1,-9.287018E-2,2.032E-1,6.7270994E-2,2.4778064E-2,-3.4080822E-2],"split_indices":[2,2,0,2,0,0,0],"split_type":[0,0,0,0,0,0,0],"sum_hessian":[2.06E2,1.66E2,4E1,1.2E2,4.6E1,5.7E1,6.3E1],"tree_param":{"num_deleted":"0","num_feature":"3","num_nodes":"7","size_leaf_vector":"1"}},{"base_weights":[-4.498635E-2,9.683338E-2,-9.287018E-2,-4.0733706E-2,6.7270994E-2,2.4778064E-2,-3.4080822E-2],"categories":[],"categories_nodes":[],"categories_segments":[],"categories_sizes":[],"default_left":[0,0,0,0,0,0,0],"id":14,"left_children":[1,3,-1,5,-1,-1,-1],"loss_changes":[1.6844616E1,8.047384E0,0E0,4.6489153E0,0E0,0E0,0E0],"parents":[2147483647,0,0,1,1,3,3],"right_children":[2,4,-1,6,-1,-1,-1],"split_conditions":[8.2284415E-1,6.017128E-1,-9.287018E-2,2.032E-1,6.7270994E-2,2.4778064E-2,-3.4080822E-2],"split_indices":[2,2,0,2,0,0,0],"split_type":[0,0,0,0,0,0,0],"sum_hessian":[2.06E2,1.66E2,4E1,1.2E2,4.6E1,5.7E1,6.3E1],"tree_param":{"num_deleted":"0","num_feature":"3","num_nodes":"7","size_leaf_vector":"1"}},{"base_weights":[-4.498635E-2,9.683338E-2,-9.287018E-2,-4.0733706E-2,6.7270994E-2,2.4778064E-2,-3.4080822E-2],"categories":[],"categories_nodes":[],"categories_segments":[],"categories_sizes":[],"default_left":[0,0,0,0,0,0,0],"id":15,"left_children":[1,3,-1,5,-1,-1,-1],"loss_changes":[1.6844616E1,8.047384E0,0E0,4.6489153E0,0E0,0E0,0E0],"parents":[2147483647,0,0,1,1,3,3],"right_children":[2,4,-1,6,-1,-1,-1],"split_conditions":[8.2284415E-1,6.017128E-1,-9.287018E-2,2.032E-1,6.7270994E-2,2.4778064E-2,-3.4080822E-2],"split_indices":[2,2,0,2,0,0,0],"split_type":[0,0,0,0,0,0,0],"sum_hessian":[2.06E2,1.66E2,4E1,1.2E2,4.6E1,5.7E1,6.3E1],"tree_param":{"num_deleted":"0","num_feature":"3","num_nodes":"7","size_leaf_vector":"1"}},{"base_weights":[-4.498635E-2,9.683338E-2,-9.287018E-2,-4.0733706E-2,6.7270994E-2,2.4778064E-2,-3.4080822E-2],"categories":[],"categories_nodes":[],"categories_segments":[],"categories_sizes":[],"default_left":[0,0,0,0,0,0,0],"id":16,"left_children":[1,3,-1,5,-1,-1,-1],"loss_changes":[1.6844616E1,8.047384E0,0E0,4.6489153E0,0E0,0E0,0E0],"parents":[2147483647,0,0,1,1,3,3],"right_children":[2,4,-1,6,-1,-1,-1],"split_conditions":[8.2284415E-1,6.017128E-1,-9.287018E-2,2.032E-1,6.7270994E-2,2.4778064E-2,-3.4080822E-2],"split_indices":[2,2,0,2,0,0,0],"split_type":[0,0,0,0,0,0,0],"sum_hessian":[2.06E2,1.66E2,4E1,1.2E2,4.6E1,5.7E1,6.3E1],"tree_param":{"num_deleted":"0","num_feature":"3","num_nodes":"7","size_leaf_vector":"1"}},{"base_weights":[-4.498635E-2,9.683338E-2,-9.287018E-2,-4.0733706E-2,6.7270994E-2,2.4778064E-2,-3.4080822E-2],"categories":[],"categories_nodes":[],"categories_segments":[],"categories_sizes":[],"default_left":[0,0,0,0,0,0,0],"id":17,"left_children":[1,3,-1,5,-1,-1,-1],"loss_changes":[1.6844616E1,8.047384E0,0E0,4.6489153E0,0E0,0E0,0E0],"parents":[2147483647,0,0,1,1,3,3],"right_children":[2,4,-1,6,-1,-1,-1],"split_conditions":[8.2284415E-1,6.017128E-1,-9.287018E-2,2.032E-1,6.7270994E-2,2.4778064E-2,-3.4080822E-2],"split_indices":[2,2,0,2,0,0,0],"split_type":[0,0,0,0,0,0,0],"sum_hessian":[2.06E2,1.66E2,4E1,1.2E2,4.6E1,5.7E1,6.3E1],"tree_param":{"num_deleted":"0","num_feature":"3","num_nodes":"7","size_leaf_vector":"1"}},{"base_weights":[1.3733172E-2,-1.505713E-2,7.332035E-2,1.5388823E-1,-1.7930612E-2,3.5698906E-2,1.10899415E-2],"categories":[],"categories_nodes":[],"categories_segments":[],"categories_sizes":[],"default_left":[0,0,0,0,0,0,0],"id":18,"left_children":[1,-1,3,5,-1,-1,-1],"loss_changes":[1.4200217E0,0E0,2.158606E0,6.1569166E-1,0E0,0E0,0E0],"parents":[2147483647,0,0,2,2,3,3],"right_children":[2,-1,4,6,-1,-1,-1],"split_conditions":[2.3276179E-1,-1.505713E-2,7.378053E-1,4.5097646E-1,-1.7930612E-2,3.5698906E-2,1.10899415E-2],"split_indices":[0,0,0,0,0,0,0],"split_type":[0,0,0,0,0,0,0],"sum_hessian":[2.07E2,7.1E1,1.36E2,9.6E1,4E1,4.6E1,5E1],"tree_param":{"num_deleted":"0","num_feature":"3","num_nodes":"7","size_leaf_vector":"1"}},{"base_weights":[1.3733172E-2,-1.505713E-2,7.332035E-2,1.5388823E-1,-1.7930612E-2,3.5698906E-2,1.10899415E-2],"categories":[],"categories_nodes":[],"categories_segments":[],"categories_sizes":[],"default_left":[0,0,0,0,0,0,0],"id":19,"left_children":[1,-1,3,5,-1,-1,-1],"loss_changes":[1.4200217E0,0E0,2.158606E0,6.1569166E-1,0E0,0E0,0E0],"parents":[2147483647,0,0,2,2,3,3],"right_children":[2,-1,4,6,-1,-1,-1],"split_conditions":[2.3276179E-1,-1.505713E-2,7.378053E-1,4.5097646E-1,-1.7930612E-2,3.5698906E-2,1.10899415E-2],"split_indices":[0,0,0,0,0,0,0],"split_type":[0,0,0,0,0,0,0],"sum_hessian":[2.07E2,7.1E1,1.36E2,9.6E1,4E1,4.6E1,5E1],"tree_param":{"num_deleted":"0","num_feature":"3","num_nodes":"7","size_leaf_vector":"1"}},{"base_weights":[1.3733172E-2,-1.505713E-2,7.332035E-2,1.5388823E-1,-1.7930612E-2,3.5698906E-2,1.10899415E-2],"categories":[],"categories_nodes":[],"categories_segments":[],"categories_sizes":[],"default_left":[0,0,0,0,0,0,0],"id":20,"left_children":[1,-1,3,5,-1,-1,-1],"loss_changes":[1.4200217E0,0E0,2.158606E0,6.1569166E-1,0E0,0E0,0E0],"parents":[2147483647,0,0,2,2,3,3],"right_children":[2,-1,4,6,-1,-1,-1],"split_conditions":[2.3276179E-1,-1.505713E-2,7.378053E-1,4.5097646E-1,-1.7930612E-2,3.5698906E-2,1.10899415E-2],"split_indices":[0,0,0,0,0,0,0],"split_type":[0,0,0,0,0,0,0],"sum_hessian":[2.07E2,7.1E1,1.36E2,9.6E1,4E1,4.6E1,5E1],"tree_param":{"num_deleted":"0","num_feature":"3","num_nodes":"7","size_leaf_vector":"1"}},{"base_weights":[1.3733172E-2,-1.505713E-2,7.332035E-2,1.5388823E-1,-1.7930612E-2,3.5698906E-2,1.10899415E-2],"categories":[],"categories_nodes":[],"categories_segments":[],"categories_sizes":[],"default_left":[0,0,0,0,0,0,0],"id":21,"left_children":[1,-1,3,5,-1,-1,-1],"loss_changes":[1.4200217E0,0E0,2.158606E0,6.1569166E-1,0E0,0E0,0E0],"parents":[2147483647,0,0,2,2,3,3],"right_children":[2,-1,4,6,-1,-1,-1],"split_conditions":[2.3276179E-1,-1.505713E-2,7.378053E-1,4.5097646E-1,-1.7930612E-2,3.5698906E-2,1.10899415E-2],"split_indices":[0,0,0,0,0,0,0],"split_type":[0,0,0,0,0,0,0],"sum_hessian":[2.07E2,7.1E1,1.36E2,9.6E1,4E1,4.6E1,5E1],"tree_param":{"num_deleted":"0","num_feature":"3","num_nodes":"7","size_leaf_vector":"1"}},{"base_weights":[1.3733172E-2,-1.505713E-2,7.332035E-2,1.5388823E-1,-1.7930612E-2,3.5698906E-2,1.10899415E-2],"categories":[],"categories_nodes":[],"categories_segments":[],"categories_sizes":[],"default_left":[0,0,0,0,0,0,0],"id":22,"left_children":[1,-1,3,5,-1,-1,-1],"loss_changes":[1.4200217E0,0E0,2.158606E0,6.1569166E-1,0E0,0E0,0E0],"parents":[2147483647,0,0,2,2,3,3],"right_children":[2,-1,4,6,-1,-1,-1],"split_conditions":[2.3276179E-1,-1.505713E-2,7.378053E-1,4.5097646E-1,-1.7930612E-2,3.5698906E-2,1.10899415E-2],"split_indices":[0,0,0,0,0,0,0],"split_type":[0,0,0,0,0,0,0],"sum_hessian":[2.07E2,7.1E1,1.36E2,9.6E1,4E1,4.6E1,5E1],"tree_param":{"num_deleted":"0","num_feature":"3","num_nodes":"7","size_leaf_vector":"1"}},{"base_weights":[1.3733172E-2,-1.505713E-2,7.332035E-2,1.5388823E-1,-1.7930612E-2,3.5698906E-2,1.10899415E-2],"categories":[],"categories_nodes":[],"categories_segments":[],"categories_sizes":[],"default_left":[0,0,0,0,0,0,0],"id":23,"left_children":[1,-1,3,5,-1,-1,-1],"loss_changes":[1.4200217E0,0E0,2.158606E0,6.1569166E-1,0E0,0E0,0E0],"parents":[2147483647,0,0,2,2,3,3],"right_children":[2,-1,4,6,-1,-1,-1],"split_conditions":[2.3276179E-1,-1.505713E-2,7.378053E-1,4.5097646E-1,-1.7930612E-2,3.5698906E-2,1.10899415E-2],"split_indices":[0,0,0,0,0,0,0],"split_type":[0,0,0,0,0,0,0],"sum_hessian":[2.07E2,7.1E1,1.36E2,9.6E1,4E1,4.6E1,5E1],"tree_param":{"num_deleted":"0","num_feature":"3","num_nodes":"7","size_leaf_vector":"1"}},{"base_weights":[-1.1803021E-2,-1.3171934E-1,7.847829E-2,-8.084982E-3,-3.294711E-2,4.7076E-2,-6.5573403E-3],"categories":[],"categories_nodes":[],"categories_segments":[],"categories_sizes":[],"default_left":[0,0,0,0,0,0,0],"id":24,"left_children":[1,3,5,-1,-1,-1,-1],"loss_changes":[2.2880728E0,5.9026515E-1,3.4400787E0,0E0,0E0,0E0,0E0],"parents":[2147483647,0,0,1,1,2,2],"right_children":[2,4,6,-1,-1,-1,-1],"split_conditions":[3.7919173E-1,1.7186059E-1,6.21E-1,-8.084982E-3,-3.294711E-2,4.7076E-2,-6.5573403E-3],"split_indices":[2,2,2,0,0,0,0],"split_type":[0,0,0,0,0,0,0],"sum_hessian":[2.08E2,8.9E1,1.19E2,4.8E1,4.1E1,4E1,7.9E1],"tree_param":{"num_deleted":"0","num_feature":"3","num_nodes":"7","size_leaf_vector":"1"}},{"base_weights":[-1.1803021E-2,-1.3171934E-1,7.847829E-2,-8.084982E-3,-3.294711E-2,4.7076E-2,-6.5573403E-3],"categories":[],"categories_nodes":[],"categories_segments":[],"categories_sizes":[],"default_left":[0,0,0,0,0,0,0],"id":25,"left_children":[1,3,5,-1,-1,-1,-1],"loss_changes":[2.2880728E0,5.9026515E-1,3.4400787E0,0E0,0E0,0E0,0E0],"parents":[2147483647,0,0,1,1,2,2],"right_children":[2,4,6,-1,-1,-1,-1],"split_conditions":[3.7919173E-1,1.7186059E-1,6.21E-1,-8.084982E-3,-3.294711E-2,4.7076E-2,-6.5573403E-3],"split_indices":[2,2,2,0,0,0,0],"split_type":[0,0,0,0,0,0,0],"sum_hessian":[2.08E2,8.9E1,1.19E2,4.8E1,4.1E1,4E1,7.9E1],"tree_param":{"num_deleted":"0","num_feature":"3","num_nodes":"7","size_leaf_vector":"1"}},{"base_weights":[-1.1803021E-2,-1.3171934E-1,7.847829E-2,-8.084982E-3,-3.294711E-2,4.7076E-2,-6.5573403E-3],"categories":[],"categories_nodes":[],"categories_segments":[],"categories_sizes":[],"default_left":[0,0,0,0,0,0,0],"id":26,"left_children":[1,3,5,-1,-1,-1,-1],"loss_changes":[2.2880728E0,5.9026515E-1,3.4400787E0,0E0,0E0,0E0,0E0],"parents":[2147483647,0,0,1,1,2,2],"right_children":[2,4,6,-1,-1,-1,-1],"split_conditions":[3.7919173E-1,1.7186059E-1,6.21E-1,-8.084982E-3,-3.294711E-2,4.7076E-2,-6.5573403E-3],"split_indices":[2,2,2,0,0,0,0],"split_type":[0,0,0,0,0,0,0],"sum_hessian":[2.08E2,8.9E1,1.19E2,4.8E1,4.1E1,4E1,7.9E1],"tree_param":{"num_deleted":"0","num_feature":"3","num_nodes":"7","size_leaf_vector":"1"}},{"base_weights":[-1.1803021E-2,-1.3171934E-1,7.847829E-2,-8.084982E-3,-3.294711E-2,4.7076E-2,-6.5573403E-3],"categories":[],"categories_nodes":[],"categories_segments":[],"categories_sizes":[],"default_left":[0,0,0,0,0,0,0],"id":27,"left_children":[1,3,5,-1,-1,-1,-1],"loss_changes":[2.2880728E0,5.9026515E-1,3.4400787E0,0E0,0E0,0E0,0E0],"parents":[2147483647,0,0,1,1,2,2],"right_children":[2,4,6,-1,-1,-1,-1],"split_conditions":[3.7919173E-1,1.7186059E-1,6.21E-1,-8.084982E-3,-3.294711E-2,4.7076E-2,-6.5573403E-3],"split_indices":[2,2,2,0,0,0,0],"split_type":[0,0,0,0,0,0,0],"sum_hessian":[2.08E2,8.9E1,1.19E2,4.8E1,4.1E1,4E1,7.9E1],"tree_param":{"num_deleted":"0","num_feature":"3","num_nodes":"7","size_leaf_vector":"1"}},{"base_weights":[-1.1803021E-2,-1.3171934E-1,7.847829E-2,-8.084982E-3,-3.294711E-2,4.7076E-2,-6.5573403E-3],"categories":[],"categories_nodes":[],"categories_segments":[],"categories_sizes":[],"default_left":[0,0,0,0,0,0,0],"id":28,"left_children":[1,3,5,-1,-1,-1,-1],"loss_changes":[2.2880728E0,5.9026515E-1,3.4400787E0,0E0,0E0,0E0,0E0],"parents":[2147483647,0,0,1,1,2,2],"right_children":[2,4,6,-1,-1,-1,-1],"split_conditions":[3.7919173E-1,1.7186059E-1,6.21E-1,-8.084982E-3,-3.294711E-2,4.7076E-2,-6.5573403E-3],"split_indices":[2,2,2,0,0,0,0],"split_type":[0,0,0,0,0,0,0],"sum_hessian":[2.08E2,8.9E1,1.19E2,4.8E1,4.1E1,4E1,7.9E1],"tree_param":{"num_deleted":"0","num_feature":"3","num_nodes":"7","size_leaf_vector":"1"}},{"base_weights":[-1.1803021E-2,-1.3171934E-1,7.847829E-2,-8.084982E-3,-3.294711E-2,4.7076E-2,-6.5573403E-3],"categories":[],"categories_nodes":[],"categories_segments":[],"categories_sizes":[],"default_left":[0,0,0,0,0,0,0],"id":29,"left_children":[1,3,5,-1,-1,-1,-1],"loss_changes":[2.2880728E0,5.9026515E-1,3.4400787E0,0E0,0E0,0E0,0E0],"parents":[2147483647,0,0,1,1,2,2],"right_children":[2,4,6,-1,-1,-1,-1],"split_conditions":[3.7919173E-1,1.7186059E-1,6.21E-1,-8.084982E-3,-3.294711E-2,4.7076E-2,-6.5573403E-3],"split_indices":[2,2,2,0,0,0,0],"split_type":[0,0,0,0,0,0,0],"sum_hessian":[2.08E2,8.9E1,1.19E2,4.8E1,4.1E1,4E1,7.9E1],"tree_param":{"num_deleted":"0","num_feature":"3","num_nodes":"7","size_leaf_vector":"1"}},{"base_weights":[3.989409E-2,-2.9635977E-2,2.7908819E-2,1.2227705E-1,-5.143238E-2,8.826581E-5,3.1282634E-2],"categories":[],"categories_nodes":[],"categories_segments":[],"categories_sizes":[],"default_left":[0,0,0,0,0,0,0],"id":30,"left_children":[1,3,-1,5,-1,-1,-1],"loss_changes":[2.125359E0,6.839981E0,0E0,1.0025449E0,0E0,0E0,0E0],"parents":[2147483647,0,0,1,1,3,3],"right_children":[2,4,-1,6,-1,-1,-1],"split_conditions":[6.9784415E-1,4.7671282E-1,2.7908819E-2,1.3947533E-1,-5.143238E-2,8.826581E-5,3.1282634E-2],"split_indices":[2,2,0,2,0,0,0],"split_type":[0,0,0,0,0,0,0],"sum_hessian":[2.09E2,1.42E2,6.7E1,9.6E1,4.6E1,4E1,5.6E1],"tree_param":{"num_deleted":"0","num_feature":"3","num_nodes":"7","size_leaf_vector":"1"}},{"base_weights":[3.989409E-2,-2.9635977E-2,2.7908819E-2,1.2227705E-1,-5.143238E-2,8.826581E-5,3.1282634E-2],"categories":[],"categories_nodes":[],"categories_segments":[],"categories_sizes":[],"default_left":[0,0,0,0,0,0,0],"id":31,"left_children":[1,3,-1,5,-1,-1,-1],"loss_changes":[2.125359E0,6.839981E0,0E0,1.0025449E0,0E0,0E0,0E0],"parents":[2147483647,0,0,1,1,3,3],"right_children":[2,4,-1,6,-1,-1,-1],"split_conditions":[6.9784415E-1,4.7671282E-1,2.7908819E-2,1.3947533E-1,-5.143238E-2,8.826581E-5,3.1282634E-2],"split_indices":[2,2,0,2,0,0,0],"split_type":[0,0,0,0,0,0,0],"sum_hessian":[2.09E2,1.42E2,6.7E1,9.6E1,4.6E1,4E1,5.6E1],"tree_param":{"num_deleted":"0","num_feature":"3","num_nodes":"7","size_leaf_vector":"1"}},{"base_weights":[3.989409E-2,-2.9635977E-2,2.7908819E-2,1.2227705E-1,-5.143238E-2,8.826581E-5,3.1282634E-2],"categories":[],"categories_nodes":[],"categories_segments":[],"categories_sizes":[],"default_left":[0,0,0,0,0,0,0],"id":32,"left_children":[1,3,-1,5,-1,-1,-1],"loss_changes":[2.125359E0,6.839981E0,0E0,1.0025449E0,0E0,0E0,0E0],"parents":[2147483647,0,0,1,1,3,3],"right_children":[2,4,-1,6,-1,-1,-1],"split_conditions":[6.9784415E-1,4.7671282E-1,2.7908819E-2,1.3947533E-1,-5.143238E-2,8.826581E-5,3.1282634E-2],"split_indices":[2,2,0,2,0,0,0],"split_type":[0,0,0,0,0,0,0],"sum_hessian":[2.09E2,1.42E2,6.7E1,9.6E1,4.6E1,4E1,5.6E1],"tree_param":{"num_deleted":"0","num_feature":"3","num_nodes":"7","size_leaf_vector":"1"}},{"base_weights":[3.989409E-2,-2.9635977E-2,2.7908819E-2,1.2227705E-1,-5.143238E-2,8.826581E-5,3.1282634E-2],"categories":[],"categories_nodes":[],"categories_segments":[],"categories_sizes":[],"default_left":[0,0,0,0,0,0,0],"id":33,"left_children":[1,3,-1,5,-1,-1,-1],"loss_changes":[2.125359E0,6.839981E0,0E0,1.0025449E0,0E0,0E0,0E0],"parents":[2147483647,0,0,1,1,3,3],"right_children":[2,4,-1,6,-1,-1,-1],"split_conditions":[6.9784415E-1,4.7671282E-1,2.7908819E-2,1.3947533E-1,-5.143238E-2,8.826581E-5,3.1282634E-2],"split_indices":[2,2,0,2,0,0,0],"split_type":[0,0,0,0,0,0,0],"sum_hessian":[2.09E2,1.42E2,6.7E1,9.6E1,4.6E1,4E1,5.6E1],"tree_param":{"num_deleted":"0","num_feature":"3","num_nodes":"7","size_leaf_vector":"1"}},{"base_weights":[3.989409E-2,-2.9635977E-2,2.7908819E-2,1.2227705E-1,-5.143238E-2,8.826581E-5,3.1282634E-2],"categories":[],"categories_nodes":[],"categories_segments":[],"categories_sizes":[],"default_left":[0,0,0,0,0,0,0],"id":34,"left_children":[1,3,-1,5,-1,-1,-1],"loss_changes":[2.125359E0,6.839981E0,0E0,1.0025449E0,0E0,0E0,0E0],"parents":[2147483647,0,0,1,1,3,3],"right_children":[2,4,-1,6,-1,-1,-1],"split_conditions":[6.9784415E-1,4.7671282E-1,2.7908819E-2,1.3947533E-1,-5.143238E-2,8.826581E-5,3.1282634E-2],"split_indices":[2,2,0,2,0,0,0],"split_type":[0,0,0,0,0,0,0],"sum_hessian":[2.09E2,1.42E2,6.7E1,9.6E1,4.6E1,4E1,5.6E1],"tree_param":{"num_deleted":"0","num_feature":"3","num_nodes":"7","size_leaf_vector":"1"}},{"base_weights":[3.989409E-2,-2.9635977E-2,2.7908819E-2,1.2227705E-1,-5.143238E-2,8.826581E-5,3.1282634E-2],"categories":[],"categories_nodes":[],"categories_segments":[],"categories_sizes":[],"default_left":[0,0,0,0,0,0,0],"id":35,"left_children":[1,3,-1,5,-1,-1,-1],"loss_changes":[2.125359E0,6.839981E0,0E0,1.0025449E0,0E0,0E0,0E0],"parents":[2147483647,0,0,1,1,3,3],"right_children":[2,4,-1,6,-1,-1,-1],"split_conditions":[6.9784415E-1,4.7671282E-1,2.7908819E-2,1.3947533E-1,-5.143238E-2,8.826581E-5,3.1282634E-2],"split_indices":[2,2,0,2,0,0,0],"split_type":[0,0,0,0,0,0,0],"sum_hessian":[2.09E2,1.42E2,6.7E1,9.6E1,4.6E1,4E1,5.6E1],"tree_param":{"num_deleted":"0","num_feature":"3","num_nodes":"7","size_leaf_vector":"1"}},{"base_weights":[6.3449284E-3,-7.273459E-2,2.5964363E-2,1.8667405E-2,-5.3093407E-2],"categories":[],"categories_nodes":[],"categories_segments":[],"categories_sizes":[],"default_left":[0,0,0,0,0],"id":36,"left_children":[1,3,-1,-1,-1],"loss_changes":[2.8121927E0,8.0122175E0,0E0,0E0,0E0],"parents":[2147483647,0,0,1,1],"right_children":[2,4,-1,-1,-1],"split_conditions":[5.742729E-1,3.1173685E-1,2.5964363E-2,1.8667405E-2,-5.3093407E-2],"split_indices":[0,0,0,0,0],"split_type":[0,0,0,0,0],"sum_hessian":[2.12E2,1.44E2,6.8E1,8.5E1,5.9E1],"tree_param":{"num_deleted":"0","num_feature":"3","num_nodes":"5","size_leaf_vector":"1"}},{"base_weights":[6.3449284E-3,-7.273459E-2,2.5964363E-2,1.8667405E-2,-5.3093407E-2],"categories":[],"categories_nodes":[],"categories_segments":[],"categories_sizes":[],"default_left":[0,0,0,0,0],"id":37,"left_children":[1,3,-1,-1,-1],"loss_changes":[2.8121927E0,8.0122175E0,0E0,0E0,0E0],"parents":[2147483647,0,0,1,1],"right_children":[2,4,-1,-1,-1],"split_conditions":[5.742729E-1,3.1173685E-1,2.5964363E-2,1.8667405E-2,-5.3093407E-2],"split_indices":[0,0,0,0,0],"split_type":[0,0,0,0,0],"sum_hessian":[2.12E2,1.44E2,6.8E1,8.5E1,5.9E1],"tree_param":{"num_deleted":"0","num_feature":"3","num_nodes":"5","size_leaf_vector":"1"}},{"base_weights":[6.3449284E-3,-7.273459E-2,2.5964363E-2,1.8667405E-2,-5.3093407E-2],"categories":[],"categories_nodes":[],"categories_segments":[],"categories_sizes":[],"default_left":[0,0,0,0,0],"id":38,"left_children":[1,3,-1,-1,-1],"loss_changes":[2.8121927E0,8.0122175E0,0E0,0E0,0E0],"parents":[2147483647,0,0,1,1],"right_children":[2,4,-1,-1,-1],"split_conditions":[5.742729E-1,3.1173685E-1,2.5964363E-2,1.8667405E-2,-5.3093407E-2],"split_indices":[0,0,0,0,0],"split_type":[0,0,0,0,0],"sum_hessian":[2.12E2,1.44E2,6.8E1,8.5E1,5.9E1],"tree_param":{"num_deleted":"0","num_feature":"3","num_nodes":"5","size_leaf_vector":"1"}},{"base_weights":[6.3449284E-3,-7.273459E-2,2.5964363E-2,1.8667405E-2,-5.3093407E-2],"categories":[],"categories_nodes":[],"categories_segments":[],"categories_sizes":[],"default_left":[0,0,0,0,0],"id":39,"left_children":[1,3,-1,-1,-1],"loss_changes":[2.8121927E0,8.0122175E0,0E0,0E0,0E0],"parents":[2147483647,0,0,1,1],"right_children":[2,4,-1,-1,-1],"split_conditions":[5.742729E-1,3.1173685E-1,2.5964363E-2,1.8667405E-2,-5.3093407E-2],"split_indices":[0,0,0,0,0],"split_type":[0,0,0,0,0],"sum_hessian":[2.12E2,1.44E2,6.8E1,8.5E1,5.9E1],"tree_param":{"num_deleted":"0","num_feature":"3","num_nodes":"5","size_leaf_vector":"1"}},{"base_weights":[6.3449284E-3,-7.273459E-2,2.5964363E-2,1.8667405E-2,-5.3093407E-2],"categories":[],"categories_nodes":[],"categories_segments":[],"categories_sizes":[],"default_left":[0,0,0,0,0],"id":40,"left_children":[1,3,-1,-1,-1],"loss_changes":[2.8121927E0,8.0122175E0,0E0,0E0,0E0],"parents":[2147483647,0,0,1,1],"right_children":[2,4,-1,-1,-1],"split_conditions":[5.742729E-1,3.1173685E-1,2.5964363E-2,1.8667405E-2,-5.3093407E-2],"split_indices":[0,0,0,0,0],"split_type":[0,0,0,0,0],"sum_hessian":[2.12E2,1.44E2,6.8E1,8.5E1,5.9E1],"tree_param":{"num_deleted":"0","num_feature":"3","num_nodes":"5","size_leaf_vector":"1"}},{"base_weights":[6.3449284E-3,-7.273459E-2,2.5964363E-2,1.8667405E-2,-5.3093407E-2],"categories":[],"categories_nodes":[],"categories_segments":[],"categories_sizes":[],"default_left":[0,0,0,0,0],"id":41,"left_children":[1,3,-1,-1,-1],"loss_changes":[2.8121927E0,8.0122175E0,0E0,0E0,0E0],"parents":[2147483647,0,0,1,1],"right_children":[2,4,-1,-1,-1],"split_conditions":[5.742729E-1,3.1173685E-1,2.5964363E-2,1.8667405E-2,-5.3093407E-2],"split_indices":[0,0,0,0,0],"split_type":[0,0,0,0,0],"sum_hessian":[2.12E2,1.44E2,6.8E1,8.5E1,5.9E1],"tree_param":{"num_deleted":"0","num_feature":"3","num_nodes":"5","size_leaf_vector":"1"}},{"base_weights":[2.9778117E-2,-2.4851123E-2,8.07396E-2,5.1627927E-2,-6.0386498E-2,-5.53224E-2,2.382001E-2],"categories":[],"categories_nodes":[],"categories_segments":[],"categories_sizes":[],"default_left":[0,0,0,0,0,0,0],"id":42,"left_children":[1,-1,3,-1,5,-1,-1],"loss_changes":[1.9764292E0,0E0,5.827396E0,0E0,6.984641E0,0E0,0E0],"parents":[2147483647,0,0,2,2,4,4],"right_children":[2,-1,4,-1,6,-1,-1],"split_conditions":[1.182E-1,-2.4851123E-2,4.0355816E-1,5.1627927E-2,6.211717E-1,-5.53224E-2,2.382001E-2],"split_indices":[1,0,1,0,1,0,0],"split_type":[0,0,0,0,0,0,0],"sum_hessian":[1.96E2,4E1,1.56E2,5.4E1,1.02E2,4.2E1,6E1],"tree_param":{"num_deleted":"0","num_feature":"3","num_nodes":"7","size_leaf_vector":"1"}},{"base_weights":[2.9778117E-2,-2.4851123E-2,8.07396E-2,5.1627927E-2,-6.0386498E-2,-5.53224E-2,2.382001E-2],"categories":[],"categories_nodes":[],"categories_segments":[],"categories_sizes":[],"default_left":[0,0,0,0,0,0,0],"id":43,"left_children":[1,-1,3,-1,5,-1,-1],"loss_changes":[1.9764292E0,0E0,5.827396E0,0E0,6.984641E0,0E0,0E0],"parents":[2147483647,0,0,2,2,4,4],"right_children":[2,-1,4,-1,6,-1,-1],"split_conditions":[1.182E-1,-2.4851123E-2,4.0355816E-1,5.1627927E-2,6.211717E-1,-5.53224E-2,2.382001E-2],"split_indices":[1,0,1,0,1,0,0],"split_type":[0,0,0,0,0,0,0],"sum_hessian":[1.96E2,4E1,1.56E2,5.4E1,1.02E2,4.2E1,6E1],"tree_param":{"num_deleted":"0","num_feature":"3","num_nodes":"7","size_leaf_vector":"1"}},{"base_weights":[2.9778117E-2,-2.4851123E-2,8.07396E-2,5.1627927E-2,-6.0386498E-2,-5.53224E-2,2.382001E-2],"categories":[],"categories_nodes":[],"categories_segments":[],"categories_sizes":[],"default_left":[0,0,0,0,0,0,0],"id":44,"left_children":[1,-1,3,-1,5,-1,-1],"loss_changes":[1.9764292E0,0E0,5.827396E0,0E0,6.984641E0,0E0,0E0],"parents":[2147483647,0,0,2,2,4,4],"right_children":[2,-1,4,-1,6,-1,-1],"split_conditions":[1.182E-1,-2.4851123E-2,4.0355816E-1,5.1627927E-2,6.211717E-1,-5.53224E-2,2.382001E-2],"split_indices":[1,0,1,0,1,0,0],"split_type":[0,0,0,0,0,0,0],"sum_hessian":[1.96E2,4E1,1.56E2,5.4E1,1.02E2,4.2E1,6E1],"tree_param":{"num_deleted":"0","num_feature":"3","num_nodes":"7","size_leaf_vector":"1"}},{"base_weights":[2.9778117E-2,-2.4851123E-2,8.07396E-2,5.1627927E-2,-6.0386498E-2,-5.53224E-2,2.382001E-2],"categories":[],"categories_nodes":[],"categories_segments":[],"categories_sizes":[],"default_left":[0,0,0,0,0,0,0],"id":45,"left_children":[1,-1,3,-1,5,-1,-1],"loss_changes":[1.9764292E0,0E0,5.827396E0,0E0,6.984641E0,0E0,0E0],"parents":[2147483647,0,0,2,2,4,4],"right_children":[2,-1,4,-1,6,-1,-1],"split_conditions":[1.182E-1,-2.4851123E-2,4.0355816E-1,5.1627927E-2,6.211717E-1,-5.53224E-2,2.382001E-2],"split_indices":[1,0,1,0,1,0,0],"split_type":[0,0,0,0,0,0,0],"sum_hessian":[1.96E2,4E1,1.56E2,5.4E1,1.02E2,4.2E1,6E1],"tree_param":{"num_deleted":"0","num_feature":"3","num_nodes":"7","size_leaf_vector":"1"}},{"base_weights":[2.9778117E-2,-2.4851123E-2,8.07396E-2,5.1627927E-2,-6.0386498E-2,-5.53224E-2,2.382001E-2],"categories":[],"categories_nodes":[],"categories_segments":[],"categories_sizes":[],"default_left":[0,0,0,0,0,0,0],"id":46,"left_children":[1,-1,3,-1,5,-1,-1],"loss_changes":[1.9764292E0,0E0,5.827396E0,0E0,6.984641E0,0E0,0E0],"parents":[2147483647,0,0,2,2,4,4],"right_children":[2,-1,4,-1,6,-1,-1],"split_conditions":[1.182E-1,-2.4851123E-2,4.0355816E-1,5.1627927E-2,6.211717E-1,-5.53224E-2,2.382001E-2],"split_indices":[1,0,1,0,1,0,0],"split_type":[0,0,0,0,0,0,0],"sum_hessian":[1.96E2,4E1,1.56E2,5.4E1,1.02E2,4.2E1,6E1],"tree_param":{"num_deleted":"0","num_feature":"3","num_nodes":"7","size_leaf_vector":"1"}},{"base_weights":[2.9778117E-2,-2.4851123E-2,8.07396E-2,5.1627927E-2,-6.0386498E-2,-5.53224E-2,2.382001E-2],"categories":[],"categories_nodes":[],"categories_segments":[],"categories_sizes":[],"default_left":[0,0,0,0,0,0,0],"id":47,"left_children":[1,-1,3,-1,5,-1,-1],"loss_changes":[1.9764292E0,0E0,5.827396E0,0E0,6.984641E0,0E0,0E0],"parents":[2147483647,0,0,2,2,4,4],"right_children":[2,-1,4,-1,6,-1,-1],"split_conditions":[1.182E-1,-2.4851123E-2,4.0355816E-1,5.1627927E-2,6.211717E-1,-5.53224E-2,2.382001E-2],"split_indices":[1,0,1,0,1,0,0],"split_type":[0,0,0,0,0,0,0],"sum_hessian":[1.96E2,4E1,1.56E2,5.4E1,1.02E2,4.2E1,6E1],"tree_param":{"num_deleted":"0","num_feature":"3","num_nodes":"7","size_leaf_vector":"1"}},{"base_weights":[-2.487259E-2,-2.3603652E-2,5.0051555E-2,1.6081463E-1,-2.8289044E-2,3.7128266E-2,7.2010597E-3],"categories":[],"categories_nodes":[],"categories_segments":[],"categories_sizes":[],"default_left":[0,0,0,0,0,0,0],"id":48,"left_children":[1,-1,3,5,-1,-1,-1],"loss_changes":[2.071966E0,0E0,3.5860262E0,8.66235E-1,0E0,0E0,0E0],"parents":[2147483647,0,0,2,2,3,3],"right_children":[2,-1,4,6,-1,-1,-1],"split_conditions":[2.6770458E-1,-2.3603652E-2,7.378053E-1,4.9815324E-1,-2.8289044E-2,3.7128266E-2,7.2010597E-3],"split_indices":[0,0,0,0,0,0,0],"split_type":[0,0,0,0,0,0,0],"sum_hessian":[2.08E2,7.5E1,1.33E2,9.1E1,4.2E1,5.1E1,4E1],"tree_param":{"num_deleted":"0","num_feature":"3","num_nodes":"7","size_leaf_vector":"1"}},{"base_weights":[-2.487259E-2,-2.3603652E-2,5.0051555E-2,1.6081463E-1,-2.8289044E-2,3.7128266E-2,7.2010597E-3],"categories":[],"categories_nodes":[],"categories_segments":[],"categories_sizes":[],"default_left":[0,0,0,0,0,0,0],"id":49,"left_children":[1,-1,3,5,-1,-1,-1],"loss_changes":[2.071966E0,0E0,3.5860262E0,8.66235E-1,0E0,0E0,0E0],"parents":[2147483647,0,0,2,2,3,3],"right_children":[2,-1,4,6,-1,-1,-1],"split_conditions":[2.6770458E-1,-2.3603652E-2,7.378053E-1,4.9815324E-1,-2.8289044E-2,3.7128266E-2,7.2010597E-3],"split_indices":[0,0,0,0,0,0,0],"split_type":[0,0,0,0,0,0,0],"sum_hessian":[2.08E2,7.5E1,1.33E2,9.1E1,4.2E1,5.1E1,4E1],"tree_param":{"num_deleted":"0","num_feature":"3","num_nodes":"7","size_leaf_vector":"1"}},{"base_weights":[-2.487259E-2,-2.3603652E-2,5.0051555E-2,1.6081463E-1,-2.8289044E-2,3.7128266E-2,7.2010597E-3],"categories":[],"categories_nodes":[],"categories_segments":[],"categories_sizes":[],"default_left":[0,0,0,0,0,0,0],"id":50,"left_children":[1,-1,3,5,-1,-1,-1],"loss_changes":[2.071966E0,0E0,3.5860262E0,8.66235E-1,0E0,0E0,0E0],"parents":[2147483647,0,0,2,2,3,3],"right_children":[2,-1,4,6,-1,-1,-1],"split_conditions":[2.6770458E-1,-2.3603652E-2,7.378053E-1,4.9815324E-1,-2.8289044E-2,3.7128266E-2,7.2010597E-3],"split_indices":[0,0,0,0,0,0,0],"split_type":[0,0,0,0,0,0,0],"sum_hessian":[2.08E2,7.5E1,1.33E2,9.1E1,4.2E1,5.1E1,4E1],"tree_param":{"num_deleted":"0","num_feature":"3","num_nodes":"7","size_leaf_vector":"1"}},{"base_weights":[-2.487259E-2,-2.3603652E-2,5.0051555E-2,1.6081463E-1,-2.8289044E-2,3.7128266E-2,7.2010597E-3],"categories":[],"categories_nodes":[],"categories_segments":[],"categories_sizes":[],"default_left":[0,0,0,0,0,0,0],"id":51,"left_children":[1,-1,3,5,-1,-1,-1],"loss_changes":[2.071966E0,0E0,3.5860262E0,8.66235E-1,0E0,0E0,0E0],"parents":[2147483647,0,0,2,2,3,3],"right_children":[2,-1,4,6,-1,-1,-1],"split_conditions":[2.6770458E-1,-2.3603652E-2,7.378053E-1,4.9815324E-1,-2.8289044E-2,3.7128266E-2,7.2010597E-3],"split_indices":[0,0,0,0,0,0,0],"split_type":[0,0,0,0,0,0,0],"sum_hessian":[2.08E2,7.5E1,1.33E2,9.1E1,4.2E1,5.1E1,4E1],"tree_param":{"num_deleted":"0","num_feature":"3","num_nodes":"7","size_leaf_vector":"1"}},{"base_weights":[-2.487259E-2,-2.3603652E-2,5.0051555E-2,1.6081463E-1,-2.8289044E-2,3.7128266E-2,7.2010597E-3],"categories":[],"categories_nodes":[],"categories_segments":[],"categories_sizes":[],"default_left":[0,0,0,0,0,0,0],"id":52,"left_children":[1,-1,3,5,-1,-1,-1],"loss_changes":[2.071966E0,0E0,3.5860262E0,8.66235E-1,0E0,0E0,0E0],"parents":[2147483647,0,0,2,2,3,3],"right_children":[2,-1,4,6,-1,-1,-1],"split_conditions":[2.6770458E-1,-2.3603652E-2,7.378053E-1,4.9815324E-1,-2.8289044E-2,3.7128266E-2,7.2010597E-3],"split_indices":[0,0,0,0,0,0,0],"split_type":[0,0,0,0,0,0,0],"sum_hessian":[2.08E2,7.5E1,1.33E2,9.1E1,4.2E1,5.1E1,4E1],"tree_param":{"num_deleted":"0","num_feature":"3","num_nodes":"7","size_leaf_vector":"1"}},{"base_weights":[-2.487259E-2,-2.3603652E-2,5.0051555E-2,1.6081463E-1,-2.8289044E-2,3.7128266E-2,7.2010597E-3],"categories":[],"categories_nodes":[],"categories_segments":[],"categories_sizes":[],"default_left":[0,0,0,0,0,0,0],"id":53,"left_children":[1,-1,3,5,-1,-1,-1],"loss_changes":[2.071966E0,0E0,3.5860262E0,8.66235E-1,0E0,0E0,0E0],"parents":[2147483647,0,0,2,2,3,3],"right_children":[2,-1,4,6,-1,-1,-1],"split_conditions":[2.6770458E-1,-2.3603652E-2,7.378053E-1,4.9815324E-1,-2.8289044E-2,3.7128266E-2,7.2010597E-3],"split_indices":[0,0,0,0,0,0,0],"split_type":[0,0,0,0,0,0,0],"sum_hessian":[2.08E2,7.5E1,1.33E2,9.1E1,4.2E1,5.1E1,4E1],"tree_param":{"num_deleted":"0","num_feature":"3","num_nodes":"7","size_leaf_vector":"1"}},{"base_weights":[2.0025965E-2,3.3268623E-2,-4.737889E-2,-4.0466595E-2,4.4974912E-2,2.8793506E-2,-3.0210646E-2],"categories":[],"categories_nodes":[],"categories_segments":[],"categories_sizes":[],"default_left":[0,0,0,0,0,0,0],"id":54,"left_children":[1,-1,3,-1,5,-1,-1],"loss_changes":[2.7598832E0,0E0,3.1419961E0,0E0,3.9596565E0,0E0,0E0],"parents":[2147483647,0,0,2,2,4,4],"right_children":[2,-1,4,-1,6,-1,-1],"split_conditions":[2.0096397E-1,3.3268623E-2,4.3141523E-1,-4.0466595E-2,7.756E-1,2.8793506E-2,-3.0210646E-2],"split_indices":[2,0,2,0,2,0,0],"split_type":[0,0,0,0,0,0,0],"sum_hessian":[2.02E2,5E1,1.52E2,4.4E1,1.08E2,6.8E1,4E1],"tree_param":{"num_deleted":"0","num_feature":"3","num_nodes":"7","size_leaf_vector":"1"}},{"base_weights":[2.0025965E-2,3.3268623E-2,-4.737889E-2,-4.0466595E-2,4.4974912E-2,2.8793506E-2,-3.0210646E-2],"categories":[],"categories_nodes":[],"categories_segments":[],"categories_sizes":[],"default_left":[0,0,0,0,0,0,0],"id":55,"left_children":[1,-1,3,-1,5,-1,-1],"loss_changes":[2.7598832E0,0E0,3.1419961E0,0E0,3.9596565E0,0E0,0E0],"parents":[2147483647,0,0,2,2,4,4],"right_children":[2,-1,4,-1,6,-1,-1],"split_conditions":[2.0096397E-1,3.3268623E-2,4.3141523E-1,-4.0466595E-2,7.756E-1,2.8793506E-2,-3.0210646E-2],"split_indices":[2,0,2,0,2,0,0],"split_type":[0,0,0,0,0,0,0],"sum_hessian":[2.02E2,5E1,1.52E2,4.4E1,1.08E2,6.8E1,4E1],"tree_param":{"num_deleted":"0","num_feature":"3","num_nodes":"7","size_leaf_vector":"1"}},{"base_weights":[2.0025965E-2,3.3268623E-2,-4.737889E-2,-4.0466595E-2,4.4974912E-2,2.8793506E-2,-3.0210646E-2],"categories":[],"categories_nodes":[],"categories_segments":[],"categories_sizes":[],"default_left":[0,0,0,0,0,0,0],"id":56,"left_children":[1,-1,3,-1,5,-1,-1],"loss_changes":[2.7598832E0,0E0,3.1419961E0,0E0,3.9596565E0,0E0,0E0],"parents":[2147483647,0,0,2,2,4,4],"right_children":[2,-1,4,-1,6,-1,-1],"split_conditions":[2.0096397E-1,3.3268623E-2,4.3141523E-1,-4.0466595E-2,7.756E-1,2.8793506E-2,-3.0210646E-2],"split_indices":[2,0,2,0,2,0,0],"split_type":[0,0,0,0,0,0,0],"sum_hessian":[2.02E2,5E1,1.52E2,4.4E1,1.08E2,6.8E1,4E1],"tree_param":{"num_deleted":"0","num_feature":"3","num_nodes":"7","size_leaf_vector":"1"}},{"base_weights":[2.0025965E-2,3.3268623E-2,-4.737889E-2,-4.0466595E-2,4.4974912E-2,2.8793506E-2,-3.0210646E-2],"categories":[],"categories_nodes":[],"categories_segments":[],"categories_sizes":[],"default_left":[0,0,0,0,0,0,0],"id":57,"left_children":[1,-1,3,-1,5,-1,-1],"loss_changes":[2.7598832E0,0E0,3.1419961E0,0E0,3.9596565E0,0E0,0E0],"parents":[2147483647,0,0,2,2,4,4],"right_children":[2,-1,4,-1,6,-1,-1],"split_conditions":[2.0096397E-1,3.3268623E-2,4.3141523E-1,-4.0466595E-2,7.756E-1,2.8793506E-2,-3.0210646E-2],"split_indices":[2,0,2,0,2,0,0],"split_type":[0,0,0,0,0,0,0],"sum_hessian":[2.02E2,5E1,1.52E2,4.4E1,1.08E2,6.8E1,4E1],"tree_param":{"num_deleted":"0","num_feature":"3","num_nodes":"7","size_leaf_vector":"1"}},{"base_weights":[2.0025965E-2,3.3268623E-2,-4.737889E-2,-4.0466595E-2,4.4974912E-2,2.8793506E-2,-3.0210646E-2],"categories":[],"categories_nodes":[],"categories_segments":[],"categories_sizes":[],"default_left":[0,0,0,0,0,0,0],"id":58,"left_children":[1,-1,3,-1,5,-1,-1],"loss_changes":[2.7598832E0,0E0,3.1419961E0,0E0,3.9596565E0,0E0,0E0],"parents":[2147483647,0,0,2,2,4,4],"right_children":[2,-1,4,-1,6,-1,-1],"split_conditions":[2.0096397E-1,3.3268623E-2,4.3141523E-1,-4.0466595E-2,7.756E-1,2.8793506E-2,-3.0210646E-2],"split_indices":[2,0,2,0,2,0,0],"split_type":[0,0,0,0,0,0,0],"sum_hessian":[2.02E2,5E1,1.52E2,4.4E1,1.08E2,6.8E1,4E1],"tree_param":{"num_deleted":"0","num_feature":"3","num_nodes":"7","size_leaf_vector":"1"}},{"base_weights":[2.0025965E-2,3.3268623E-2,-4.737889E-2,-4.0466595E-2,4.4974912E-2,2.8793506E-2,-3.0210646E-2],"categories":[],"categories_nodes":[],"categories_segments":[],"categories_sizes":[],"default_left":[0,0,0,0,0,0,0],"id":59,"left_children":[1,-1,3,-1,5,-1,-1],"loss_changes":[2.7598832E0,0E0,3.1419961E0,0E0,3.9596565E0,0E0,0E0],"parents":[2147483647,0,0,2,2,4,4],"right_children":[2,-1,4,-1,6,-1,-1],"split_conditions":[2.0096397E-1,3.3268623E-2,4.3141523E-1,-4.0466595E-2,7.756E-1,2.8793506E-2,-3.0210646E-2],"split_indices":[2,0,2,0,2,0,0],"split_type":[0,0,0,0,0,0,0],"sum_hessian":[2.02E2,5E1,1.52E2,4.4E1,1.08E2,6.8E1,4E1],"tree_param":{"num_deleted":"0","num_feature":"3","num_nodes":"7","size_leaf_vector":"1"}},{"base_weights":[-4.868534E-2,-3.648694E-2,-2.0323766E-3,1.2636751E-2,-4.6119343E-2,-2.1444974E-2,6.722975E-3],"categories":[],"categories_nodes":[],"categories_segments":[],"categories_sizes":[],"default_left":[0,0,0,0,0,0,0],"id":60,"left_children":[1,-1,3,-1,5,-1,-1],"loss_changes":[1.9163733E0,0E0,6.6132E-1,0E0,1.0112114E0,0E0,0E0],"parents":[2147483647,0,0,2,2,4,4],"right_children":[2,-1,4,-1,6,-1,-1],"split_conditions":[1.3534415E-1,-3.648694E-2,4.7671282E-1,1.2636751E-2,7.267128E-1,-2.1444974E-2,6.722975E-3],"split_indices":[2,0,2,0,2,0,0],"split_type":[0,0,0,0,0,0,0],"sum_hessian":[2.12E2,4E1,1.72E2,5.8E1,1.14E2,5.5E1,5.9E1],"tree_param":{"num_deleted":"0","num_feature":"3","num_nodes":"7","size_leaf_vector":"1"}},{"base_weights":[-4.868534E-2,-3.648694E-2,-2.0323766E-3,1.2636751E-2,-4.6119343E-2,-2.1444974E-2,6.722975E-3],"categories":[],"categories_nodes":[],"categories_segments":[],"categories_sizes":[],"default_left":[0,0,0,0,0,0,0],"id":61,"left_children":[1,-1,3,-1,5,-1,-1],"loss_changes":[1.9163733E0,0E0,6.6132E-1,0E0,1.0112114E0,0E0,0E0],"parents":[2147483647,0,0,2,2,4,4],"right_children":[2,-1,4,-1,6,-1,-1],"split_conditions":[1.3534415E-1,-3.648694E-2,4.7671282E-1,1.2636751E-2,7.267128E-1,-2.1444974E-2,6.722975E-3],"split_indices":[2,0,2,0,2,0,0],"split_type":[0,0,0,0,0,0,0],"sum_hessian":[2.12E2,4E1,1.72E2,5.8E1,1.14E2,5.5E1,5.9E1],"tree_param":{"num_deleted":"0","num_feature":"3","num_nodes":"7","size_leaf_vector":"1"}},{"base_weights":[-4.868534E-2,-3.648694E-2,-2.0323766E-3,1.2636751E-2,-4.6119343E-2,-2.1444974E-2,6.722975E-3],"categories":[],"categories_nodes":[],"categories_segments":[],"categories_sizes":[],"default_left":[0,0,0,0,0,0,0],"id":62,"left_children":[1,-1,3,-1,5,-1,-1],"loss_changes":[1.9163733E0,0E0,6.6132E-1,0E0,1.0112114E0,0E0,0E0],"parents":[2147483647,0,0,2,2,4,4],"right_children":[2,-1,4,-1,6,-1,-1],"split_conditions":[1.3534415E-1,-3.648694E-2,4.7671282E-1,1.2636751E-2,7.267128E-1,-2.1444974E-2,6.722975E-3],"split_indices":[2,0,2,0,2,0,0],"split_type":[0,0,0,0,0,0,0],"sum_hessian":[2.12E2,4E1,1.72E2,5.8E1,1.14E2,5.5E1,5.9E1],"tree_param":{"num_deleted":"0","num_feature":"3","num_nodes":"7","size_leaf_vector":"1"}},{"base_weights":[-4.868534E-2,-3.648694E-2,-2.0323766E-3,1.2636751E-2,-4.6119343E-2,-2.1444974E-2,6.722975E-3],"categories":[],"categories_nodes":[],"categories_segments":[],"categories_sizes":[],"default_left":[0,0,0,0,0,0,0],"id":63,"left_children":[1,-1,3,-1,5,-1,-1],"loss_changes":[1.9163733E0,0E0,6.6132E-1,0E0,1.0112114E0,0E0,0E0],"parents":[2147483647,0,0,2,2,4,4],"right_children":[2,-1,4,-1,6,-1,-1],"split_conditions":[1.3534415E-1,-3.648694E-2,4.7671282E-1,1.2636751E-2,7.267128E-1,-2.1444974E-2,6.722975E-3],"split_indices":[2,0,2,0,2,0,0],"split_type":[0,0,0,0,0,0,0],"sum_hessian":[2.12E2,4E1,1.72E2,5.8E1,1.14E2,5.5E1,5.9E1],"tree_param":{"num_deleted":"0","num_feature":"3","num_nodes":"7","size_leaf_vector":"1"}},{"base_weights":[-4.868534E-2,-3.648694E-2,-2.0323766E-3,1.2636751E-2,-4.6119343E-2,-2.1444974E-2,6.722975E-3],"categories":[],"categories_nodes":[],"categories_segments":[],"categories_sizes":[],"default_left":[0,0,0,0,0,0,0],"id":64,"left_children":[1,-1,3,-1,5,-1,-1],"loss_changes":[1.9163733E0,0E0,6.6132E-1,0E0,1.0112114E0,0E0,0E0],"parents":[2147483647,0,0,2,2,4,4],"right_children":[2,-1,4,-1,6,-1,-1],"split_conditions":[1.3534415E-1,-3.648694E-2,4.7671282E-1,1.2636751E-2,7.267128E-1,-2.1444974E-2,6.722975E-3],"split_indices":[2,0,2,0,2,0,0],"split_type":[0,0,0,0,0,0,0],"sum_hessian":[2.12E2,4E1,1.72E2,5.8E1,1.14E2,5.5E1,5.9E1],"tree_param":{"num_deleted":"0","num_feature":"3","num_nodes":"7","size_leaf_vector":"1"}},{"base_weights":[-4.868534E-2,-3.648694E-2,-2.0323766E-3,1.2636751E-2,-4.6119343E-2,-2.1444974E-2,6.722975E-3],"categories":[],"categories_nodes":[],"categories_segments":[],"categories_sizes":[],"default_left":[0,0,0,0,0,0,0],"id":65,"left_children":[1,-1,3,-1,5,-1,-1],"loss_changes":[1.9163733E0,0E0,6.6132E-1,0E0,1.0112114E0,0E0,0E0],"parents":[2147483647,0,0,2,2,4,4],"right_children":[2,-1,4,-1,6,-1,-1],"split_conditions":[1.3534415E-1,-3.648694E-2,4.7671282E-1,1.2636751E-2,7.267128E-1,-2.1444974E-2,6.722975E-3],"split_indices":[2,0,2,0,2,0,0],"split_type":[0,0,0,0,0,0,0],"sum_hessian":[2.12E2,4E1,1.72E2,5.8E1,1.14E2,5.5E1,5.9E1],"tree_param":{"num_deleted":"0","num_feature":"3","num_nodes":"7","size_leaf_vector":"1"}},{"base_weights":[2.3686765E-2,1.1926194E-1,-3.63702E-2,2.2811519E-2,1.2562863E-2,-2.1297174E-2,1.0667145E-2],"categories":[],"categories_nodes":[],"categories_segments":[],"categories_sizes":[],"default_left":[0,0,0,0,0,0,0],"id":66,"left_children":[1,3,5,-1,-1,-1,-1],"loss_changes":[1.216899E0,7.170713E-2,1.4730982E0,0E0,0E0,0E0,0E0],"parents":[2147483647,0,0,1,1,2,2],"right_children":[2,4,6,-1,-1,-1,-1],"split_conditions":[3.1E-1,9.58E-2,6.077618E-1,2.2811519E-2,1.2562863E-2,-2.1297174E-2,1.0667145E-2],"split_indices":[0,0,0,0,0,0,0],"split_type":[0,0,0,0,0,0,0],"sum_hessian":[2.09E2,8E1,1.29E2,4E1,4E1,6.5E1,6.4E1],"tree_param":{"num_deleted":"0","num_feature":"3","num_nodes":"7","size_leaf_vector":"1"}},{"base_weights":[2.3686765E-2,1.1926194E-1,-3.63702E-2,2.2811519E-2,1.2562863E-2,-2.1297174E-2,1.0667145E-2],"categories":[],"categories_nodes":[],"categories_segments":[],"categories_sizes":[],"default_left":[0,0,0,0,0,0,0],"id":67,"left_children":[1,3,5,-1,-1,-1,-1],"loss_changes":[1.216899E0,7.170713E-2,1.4730982E0,0E0,0E0,0E0,0E0],"parents":[2147483647,0,0,1,1,2,2],"right_children":[2,4,6,-1,-1,-1,-1],"split_conditions":[3.1E-1,9.58E-2,6.077618E-1,2.2811519E-2,1.2562863E-2,-2.1297174E-2,1.0667145E-2],"split_indices":[0,0,0,0,0,0,0],"split_type":[0,0,0,0,0,0,0],"sum_hessian":[2.09E2,8E1,1.29E2,4E1,4E1,6.5E1,6.4E1],"tree_param":{"num_deleted":"0","num_feature":"3","num_nodes":"7","size_leaf_vector":"1"}},{"base_weights":[2.3686765E-2,1.1926194E-1,-3.63702E-2,2.2811519E-2,1.2562863E-2,-2.1297174E-2,1.0667145E-2],"categories":[],"categories_nodes":[],"categories_segments":[],"categories_sizes":[],"default_left":[0,0,0,0,0,0,0],"id":68,"left_children":[1,3,5,-1,-1,-1,-1],"loss_changes":[1.216899E0,7.170713E-2,1.4730982E0,0E0,0E0,0E0,0E0],"parents":[2147483647,0,0,1,1,2,2],"right_children":[2,4,6,-1,-1,-1,-1],"split_conditions":[3.1E-1,9.58E-2,6.077618E-1,2.2811519E-2,1.2562863E-2,-2.1297174E-2,1.0667145E-2],"split_indices":[0,0,0,0,0,0,0],"split_type":[0,0,0,0,0,0,0],"sum_hessian":[2.09E2,8E1,1.29E2,4E1,4E1,6.5E1,6.4E1],"tree_param":{"num_deleted":"0","num_feature":"3","num_nodes":"7","size_leaf_vector":"1"}},{"base_weights":[2.3686765E-2,1.1926194E-1,-3.63702E-2,2.2811519E-2,1.2562863E-2,-2.1297174E-2,1.0667145E-2],"categories":[],"categories_nodes":[],"categories_segments":[],"categories_sizes":[],"default_left":[0,0,0,0,0,0,0],"id":69,"left_children":[1,3,5,-1,-1,-1,-1],"loss_changes":[1.216899E0,7.170713E-2,1.4730982E0,0E0,0E0,0E0,0E0],"parents":[2147483647,0,0,1,1,2,2],"right_children":[2,4,6,-1,-1,-1,-1],"split_conditions":[3.1E-1,9.58E-2,6.077618E-1,2.2811519E-2,1.2562863E-2,-2.1297174E-2,1.0667145E-2],"split_indices":[0,0,0,0,0,0,0],"split_type":[0,0,0,0,0,0,0],"sum_hessian":[2.09E2,8E1,1.29E2,4E1,4E1,6.5E1,6.4E1],"tree_param":{"num_deleted":"0","num_feature":"3","num_nodes":"7","size_leaf_vector":"1"}},{"base_weights":[2.3686765E-2,1.1926194E-1,-3.63702E-2,2.2811519E-2,1.2562863E-2,-2.1297174E-2,1.0667145E-2],"categories":[],"categories_nodes":[],"categories_segments":[],"categories_sizes":[],"default_left":[0,0,0,0,0,0,0],"id":70,"left_children":[1,3,5,-1,-1,-1,-1],"loss_changes":[1.216899E0,7.170713E-2,1.4730982E0,0E0,0E0,0E0,0E0],"parents":[2147483647,0,0,1,1,2,2],"right_children":[2,4,6,-1,-1,-1,-1],"split_conditions":[3.1E-1,9.58E-2,6.077618E-1,2.2811519E-2,1.2562863E-2,-2.1297174E-2,1.0667145E-2],"split_indices":[0,0,0,0,0,0,0],"split_type":[0,0,0,0,0,0,0],"sum_hessian":[2.09E2,8E1,1.29E2,4E1,4E1,6.5E1,6.4E1],"tree_param":{"num_deleted":"0","num_feature":"3","num_nodes":"7","size_leaf_vector":"1"}},{"base_weights":[2.3686765E-2,1.1926194E-1,-3.63702E-2,2.2811519E-2,1.2562863E-2,-2.1297174E-2,1.0667145E-2],"categories":[],"categories_nodes":[],"categories_segments":[],"categories_sizes":[],"default_left":[0,0,0,0,0,0,0],"id":71,"left_children":[1,3,5,-1,-1,-1,-1],"loss_changes":[1.216899E0,7.170713E-2,1.4730982E0,0E0,0E0,0E0,0E0],"parents":[2147483647,0,0,1,1,2,2],"right_children":[2,4,6,-1,-1,-1,-1],"split_conditions":[3.1E-1,9.58E-2,6.077618E-1,2.2811519E-2,1.2562863E-2,-2.1297174E-2,1.0667145E-2],"split_indices":[0,0,0,0,0,0,0],"split_type":[0,0,0,0,0,0,0],"sum_hessian":[2.09E2,8E1,1.29E2,4E1,4E1,6.5E1,6.4E1],"tree_param":{"num_deleted":"0","num_feature":"3","num_nodes":"7","size_leaf_vector":"1"}},{"base_weights":[-2.2823287E-2,4.6912037E-2,-3.825864E-2,-1.6884081E-2,2.559014E-2,1.4716179E-2,-3.2147083E-2],"categories":[],"categories_nodes":[],"categories_segments":[],"categories_sizes":[],"default_left":[0,0,0,0,0,0,0],"id":72,"left_children":[1,3,-1,5,-1,-1,-1],"loss_changes":[3.4939756E0,1.3112537E0,0E0,2.5258443E0,0E0,0E0,0E0],"parents":[2147483647,0,0,1,1,3,3],"right_children":[2,4,-1,6,-1,-1,-1],"split_conditions":[7.203E-1,4.3875593E-1,-3.825864E-2,2.4617173E-1,2.559014E-2,1.4716179E-2,-3.2147083E-2],"split_indices":[1,1,0,1,0,0,0],"split_type":[0,0,0,0,0,0,0],"sum_hessian":[2.15E2,1.66E2,4.9E1,1.1E2,5.6E1,7E1,4E1],"tree_param":{"num_deleted":"0","num_feature":"3","num_nodes":"7","size_leaf_vector":"1"}},{"base_weights":[-2.2823287E-2,4.6912037E-2,-3.825864E-2,-1.6884081E-2,2.559014E-2,1.4716179E-2,-3.2147083E-2],"categories":[],"categories_nodes":[],"categories_segments":[],"categories_sizes":[],"default_left":[0,0,0,0,0,0,0],"id":73,"left_children":[1,3,-1,5,-1,-1,-1],"loss_changes":[3.4939756E0,1.3112537E0,0E0,2.5258443E0,0E0,0E0,0E0],"parents":[2147483647,0,0,1,1,3,3],"right_children":[2,4,-1,6,-1,-1,-1],"split_conditions":[7.203E-1,4.3875593E-1,-3.825864E-2,2.4617173E-1,2.559014E-2,1.4716179E-2,-3.2147083E-2],"split_indices":[1,1,0,1,0,0,0],"split_type":[0,0,0,0,0,0,0],"sum_hessian":[2.15E2,1.66E2,4.9E1,1.1E2,5.6E1,7E1,4E1],"tree_param":{"num_deleted":"0","num_feature":"3","num_nodes":"7","size_leaf_vector":"1"}},{"base_weights":[-2.2823287E-2,4.6912037E-2,-3.825864E-2,-1.6884081E-2,2.559014E-2,1.4716179E-2,-3.2147083E-2],"categories":[],"categories_nodes":[],"categories_segments":[],"categories_sizes":[],"default_left":[0,0,0,0,0,0,0],"id":74,"left_children":[1,3,-1,5,-1,-1,-1],"loss_changes":[3.4939756E0,1.3112537E0,0E0,2.5258443E0,0E0,0E0,0E0],"parents":[2147483647,0,0,1,1,3,3],"right_children":[2,4,-1,6,-1,-1,-1],"split_conditions":[7.203E-1,4.3875593E-1,-3.825864E-2,2.4617173E-1,2.559014E-2,1.4716179E-2,-3.2147083E-2],"split_indices":[1,1,0,1,0,0,0],"split_type":[0,0,0,0,0,0,0],"sum_hessian":[2.15E2,1.66E2,4.9E1,1.1E2,5.6E1,7E1,4E1],"tree_param":{"num_deleted":"0","num_feature":"3","num_nodes":"7","size_leaf_vector":"1"}},{"base_weights":[-2.2823287E-2,4.6912037E-2,-3.825864E-2,-1.6884081E-2,2.559014E-2,1.4716179E-2,-3.2147083E-2],"categories":[],"categories_nodes":[],"categories_segments":[],"categories_sizes":[],"default_left":[0,0,0,0,0,0,0],"id":75,"left_children":[1,3,-1,5,-1,-1,-1],"loss_changes":[3.4939756E0,1.3112537E0,0E0,2.5258443E0,0E0,0E0,0E0],"parents":[2147483647,0,0,1,1,3,3],"right_children":[2,4,-1,6,-1,-1,-1],"split_conditions":[7.203E-1,4.3875593E-1,-3.825864E-2,2.4617173E-1,2.559014E-2,1.4716179E-2,-3.2147083E-2],"split_indices":[1,1,0,1,0,0,0],"split_type":[0,0,0,0,0,0,0],"sum_hessian":[2.15E2,1.66E2,4.9E1,1.1E2,5.6E1,7E1,4E1],"tree_param":{"num_deleted":"0","num_feature":"3","num_nodes":"7","size_leaf_vector":"1"}},{"base_weights":[-2.2823287E-2,4.6912037E-2,-3.825864E-2,-1.6884081E-2,2.559014E-2,1.4716179E-2,-3.2147083E-2],"categories":[],"categories_nodes":[],"categories_segments":[],"categories_sizes":[],"default_left":[0,0,0,0,0,0,0],"id":76,"left_children":[1,3,-1,5,-1,-1,-1],"loss_changes":[3.4939756E0,1.3112537E0,0E0,2.5258443E0,0E0,0E0,0E0],"parents":[2147483647,0,0,1,1,3,3],"right_children":[2,4,-1,6,-1,-1,-1],"split_conditions":[7.203E-1,4.3875593E-1,-3.825864E-2,2.4617173E-1,2.559014E-2,1.4716179E-2,-3.2147083E-2],"split_indices":[1,1,0,1,0,0,0],"split_type":[0,0,0,0,0,0,0],"sum_hessian":[2.15E2,1.66E2,4.9E1,1.1E2,5.6E1,7E1,4E1],"tree_param":{"num_deleted":"0","num_feature":"3","num_nodes":"7","size_leaf_vector":"1"}},{"base_weights":[-2.2823287E-2,4.6912037E-2,-3.825864E-2,-1.6884081E-2,2.559014E-2,1.4716179E-2,-3.2147083E-2],"categories":[],"categories_nodes":[],"categories_segments":[],"categories_sizes":[],"default_left":[0,0,0,0,0,0,0],"id":77,"left_children":[1,3,-1,5,-1,-1,-1],"loss_changes":[3.4939756E0,1.3112537E0,0E0,2.5258443E0,0E0,0E0,0E0],"parents":[2147483647,0,0,1,1,3,3],"right_children":[2,4,-1,6,-1,-1,-1],"split_conditions":[7.203E-1,4.3875593E-1,-3.825864E-2,2.4617173E-1,2.559014E-2,1.4716179E-2,-3.2147083E-2],"split_indices":[1,1,0,1,0,0,0],"split_type":[0,0,0,0,0,0,0],"sum_hessian":[2.15E2,1.66E2,4.9E1,1.1E2,5.6E1,7E1,4E1],"tree_param":{"num_deleted":"0","num_feature":"3","num_nodes":"7","size_leaf_vector":"1"}},{"base_weights":[1.6891107E-2,-4.426803E-2,2.5622884E-2,3.4668587E-2,-3.330714E-2,-1.5162259E-2,1.9230776E-2],"categories":[],"categories_nodes":[],"categories_segments":[],"categories_sizes":[],"default_left":[0,0,0,0,0,0,0],"id":78,"left_children":[1,3,-1,5,-1,-1,-1],"loss_changes":[1.91074E0,2.0479243E0,0E0,1.3003527E0,0E0,0E0,0E0],"parents":[2147483647,0,0,1,1,3,3],"right_children":[2,4,-1,6,-1,-1,-1],"split_conditions":[6.211717E-1,4.0355816E-1,2.5622884E-2,1.0808964E-1,-3.330714E-2,-1.5162259E-2,1.9230776E-2],"split_indices":[1,1,0,1,0,0,0],"split_type":[0,0,0,0,0,0,0],"sum_hessian":[2.02E2,1.45E2,5.7E1,1.01E2,4.4E1,4.1E1,6E1],"tree_param":{"num_deleted":"0","num_feature":"3","num_nodes":"7","size_leaf_vector":"1"}},{"base_weights":[1.6891107E-2,-4.426803E-2,2.5622884E-2,3.4668587E-2,-3.330714E-2,-1.5162259E-2,1.9230776E-2],"categories":[],"categories_nodes":[],"categories_segments":[],"categories_sizes":[],"default_left":[0,0,0,0,0,0,0],"id":79,"left_children":[1,3,-1,5,-1,-1,-1],"loss_changes":[1.91074E0,2.0479243E0,0E0,1.3003527E0,0E0,0E0,0E0],"parents":[2147483647,0,0,1,1,3,3],"right_children":[2,4,-1,6,-1,-1,-1],"split_conditions":[6.211717E-1,4.0355816E-1,2.5622884E-2,1.0808964E-1,-3.330714E-2,-1.5162259E-2,1.9230776E-2],"split_indices":[1,1,0,1,0,0,0],"split_type":[0,0,0,0,0,0,0],"sum_hessian":[2.02E2,1.45E2,5.7E1,1.01E2,4.4E1,4.1E1,6E1],"tree_param":{"num_deleted":"0","num_feature":"3","num_nodes":"7","size_leaf_vector":"1"}},{"base_weights":[1.6891107E-2,-4.426803E-2,2.5622884E-2,3.4668587E-2,-3.330714E-2,-1.5162259E-2,1.9230776E-2],"categories":[],"categories_nodes":[],"categories_segments":[],"categories_sizes":[],"default_left":[0,0,0,0,0,0,0],"id":80,"left_children":[1,3,-1,5,-1,-1,-1],"loss_changes":[1.91074E0,2.0479243E0,0E0,1.3003527E0,0E0,0E0,0E0],"parents":[2147483647,0,0,1,1,3,3],"right_children":[2,4,-1,6,-1,-1,-1],"split_conditions":[6.211717E-1,4.0355816E-1,2.5622884E-2,1.0808964E-1,-3.330714E-2,-1.5162259E-2,1.9230776E-2],"split_indices":[1,1,0,1,0,0,0],"split_type":[0,0,0,0,0,0,0],"sum_hessian":[2.02E2,1.45E2,5.7E1,1.01E2,4.4E1,4.1E1,6E1],"tree_param":{"num_deleted":"0","num_feature":"3","num_nodes":"7","size_leaf_vector":"1"}},{"base_weights":[1.6891107E-2,-4.426803E-2,2.5622884E-2,3.4668587E-2,-3.330714E-2,-1.5162259E-2,1.9230776E-2],"categories":[],"categories_nodes":[],"categories_segments":[],"categories_sizes":[],"default_left":[0,0,0,0,0,0,0],"id":81,"left_children":[1,3,-1,5,-1,-1,-1],"loss_changes":[1.91074E0,2.0479243E0,0E0,1.3003527E0,0E0,0E0,0E0],"parents":[2147483647,0,0,1,1,3,3],"right_children":[2,4,-1,6,-1,-1,-1],"split_conditions":[6.211717E-1,4.0355816E-1,2.5622884E-2,1.0808964E-1,-3.330714E-2,-1.5162259E-2,1.9230776E-2],"split_indices":[1,1,0,1,0,0,0],"split_type":[0,0,0,0,0,0,0],"sum_hessian":[2.02E2,1.45E2,5.7E1,1.01E2,4.4E1,4.1E1,6E1],"tree_param":{"num_deleted":"0","num_feature":"3","num_nodes":"7","size_leaf_vector":"1"}},{"base_weights":[1.6891107E-2,-4.426803E-2,2.5622884E-2,3.4668587E-2,-3.330714E-2,-1.5162259E-2,1.9230776E-2],"categories":[],"categories_nodes":[],"categories_segments":[],"categories_sizes":[],"default_left":[0,0,0,0,0,0,0],"id":82,"left_children":[1,3,-1,5,-1,-1,-1],"loss_changes":[1.91074E0,2.0479243E0,0E0,1.3003527E0,0E0,0E0,0E0],"parents":[2147483647,0,0,1,1,3,3],"right_children":[2,4,-1,6,-1,-1,-1],"split_conditions":[6.211717E-1,4.0355816E-1,2.5622884E-2,1.0808964E-1,-3.330714E-2,-1.5162259E-2,1.9230776E-2],"split_indices":[1,1,0,1,0,0,0],"split_type":[0,0,0,0,0,0,0],"sum_hessian":[2.02E2,1.45E2,5.7E1,1.01E2,4.4E1,4.1E1,6E1],"tree_param":{"num_deleted":"0","num_feature":"3","num_nodes":"7","size_leaf_vector":"1"}},{"base_weights":[1.6891107E-2,-4.426803E-2,2.5622884E-2,3.4668587E-2,-3.330714E-2,-1.5162259E-2,1.9230776E-2],"categories":[],"categories_nodes":[],"categories_segments":[],"categories_sizes":[],"default_left":[0,0,0,0,0,0,0],"id":83,"left_children":[1,3,-1,5,-1,-1,-1],"loss_changes":[1.91074E0,2.0479243E0,0E0,1.3003527E0,0E0,0E0,0E0],"parents":[2147483647,0,0,1,1,3,3],"right_children":[2,4,-1,6,-1,-1,-1],"split_conditions":[6.211717E-1,4.0355816E-1,2.5622884E-2,1.0808964E-1,-3.330714E-2,-1.5162259E-2,1.9230776E-2],"split_indices":[1,1,0,1,0,0,0],"split_type":[0,0,0,0,0,0,0],"sum_hessian":[2.02E2,1.45E2,5.7E1,1.01E2,4.4E1,4.1E1,6E1],"tree_param":{"num_deleted":"0","num_feature":"3","num_nodes":"7","size_leaf_vector":"1"}},{"base_weights":[9.836617E-4,5.5702377E-2,-2.7590148E-2,2.1490468E-2,1.1816977E-2,-1.7786892E-2,1.5267762E-2],"categories":[],"categories_nodes":[],"categories_segments":[],"categories_sizes":[],"default_left":[0,0,0,0,0,0,0],"id":84,"left_children":[1,3,-1,-1,5,-1,-1],"loss_changes":[2.0795536E0,6.01526E-1,0E0,0E0,1.2599604E0,0E0,0E0],"parents":[2147483647,0,0,1,1,4,4],"right_children":[2,4,-1,-1,6,-1,-1],"split_conditions":[7.203E-1,1.5035927E-1,-2.7590148E-2,2.1490468E-2,3.9461562E-1,-1.7786892E-2,1.5267762E-2],"split_indices":[1,1,0,0,1,0,0],"split_type":[0,0,0,0,0,0,0],"sum_hessian":[2.04E2,1.58E2,4.6E1,5.2E1,1.06E2,4.3E1,6.3E1],"tree_param":{"num_deleted":"0","num_feature":"3","num_nodes":"7","size_leaf_vector":"1"}},{"base_weights":[9.836617E-4,5.5702377E-2,-2.7590148E-2,2.1490468E-2,1.1816977E-2,-1.7786892E-2,1.5267762E-2],"categories":[],"categories_nodes":[],"categories_segments":[],"categories_sizes":[],"default_left":[0,0,0,0,0,0,0],"id":85,"left_children":[1,3,-1,-1,5,-1,-1],"loss_changes":[2.0795536E0,6.01526E-1,0E0,0E0,1.2599604E0,0E0,0E0],"parents":[2147483647,0,0,1,1,4,4],"right_children":[2,4,-1,-1,6,-1,-1],"split_conditions":[7.203E-1,1.5035927E-1,-2.7590148E-2,2.1490468E-2,3.9461562E-1,-1.7786892E-2,1.5267762E-2],"split_indices":[1,1,0,0,1,0,0],"split_type":[0,0,0,0,0,0,0],"sum_hessian":[2.04E2,1.58E2,4.6E1,5.2E1,1.06E2,4.3E1,6.3E1],"tree_param":{"num_deleted":"0","num_feature":"3","num_nodes":"7","size_leaf_vector":"1"}},{"base_weights":[9.836617E-4,5.5702377E-2,-2.7590148E-2,2.1490468E-2,1.1816977E-2,-1.7786892E-2,1.5267762E-2],"categories":[],"categories_nodes":[],"categories_segments":[],"categories_sizes":[],"default_left":[0,0,0,0,0,0,0],"id":86,"left_children":[1,3,-1,-1,5,-1,-1],"loss_changes":[2.0795536E0,6.01526E-1,0E0,0E0,1.2599604E0,0E0,0E0],"parents":[2147483647,0,0,1,1,4,4],"right_children":[2,4,-1,-1,6,-1,-1],"split_conditions":[7.203E-1,1.5035927E-1,-2.7590148E-2,2.1490468E-2,3.9461562E-1,-1.7786892E-2,1.5267762E-2],"split_indices":[1,1,0,0,1,0,0],"split_type":[0,0,0,0,0,0,0],"sum_hessian":[2.04E2,1.58E2,4.6E1,5.2E1,1.06E2,4.3E1,6.3E1],"tree_param":{"num_deleted":"0","num_feature":"3","num_nodes":"7","size_leaf_vector":"1"}},{"base_weights":[9.836617E-4,5.5702377E-2,-2.7590148E-2,2.1490468E-2,1.1816977E-2,-1.7786892E-2,1.5267762E-2],"categories":[],"categories_nodes":[],"categories_segments":[],"categories_sizes":[],"default_left":[0,0,0,0,0,0,0],"id":87,"left_children":[1,3,-1,-1,5,-1,-1],"loss_changes":[2.0795536E0,6.01526E-1,0E0,0E0,1.2599604E0,0E0,0E0],"parents":[2147483647,0,0,1,1,4,4],"right_children":[2,4,-1,-1,6,-1,-1],"split_conditions":[7.203E-1,1.5035927E-1,-2.7590148E-2,2.1490468E-2,3.9461562E-1,-1.7786892E-2,1.5267762E-2],"split_indices":[1,1,0,0,1,0,0],"split_type":[0,0,0,0,0,0,0],"sum_hessian":[2.04E2,1.58E2,4.6E1,5.2E1,1.06E2,4.3E1,6.3E1],"tree_param":{"num_deleted":"0","num_feature":"3","num_nodes":"7","size_leaf_vector":"1"}},{"base_weights":[9.836617E-4,5.5702377E-2,-2.7590148E-2,2.1490468E-2,1.1816977E-2,-1.7786892E-2,1.5267762E-2],"categories":[],"categories_nodes":[],"categories_segments":[],"categories_sizes":[],"default_left":[0,0,0,0,0,0,0],"id":88,"left_children":[1,3,-1,-1,5,-1,-1],"loss_changes":[2.0795536E0,6.01526E-1,0E0,0E0,1.2599604E0,0E0,0E0],"parents":[2147483647,0,0,1,1,4,4],"right_children":[2,4,-1,-1,6,-1,-1],"split_conditions":[7.203E-1,1.5035927E-1,-2.7590148E-2,2.1490468E-2,3.9461562E-1,-1.7786892E-2,1.5267762E-2],"split_indices":[1,1,0,0,1,0,0],"split_type":[0,0,0,0,0,0,0],"sum_hessian":[2.04E2,1.58E2,4.6E1,5.2E1,1.06E2,4.3E1,6.3E1],"tree_param":{"num_deleted":"0","num_feature":"3","num_nodes":"7","size_leaf_vector":"1"}},{"base_weights":[9.836617E-4,5.5702377E-2,-2.7590148E-2,2.1490468E-2,1.1816977E-2,-1.7786892E-2,1.5267762E-2],"categories":[],"categories_nodes":[],"categories_segments":[],"categories_sizes":[],"default_left":[0,0,0,0,0,0,0],"id":89,"left_children":[1,3,-1,-1,5,-1,-1],"loss_changes":[2.0795536E0,6.01526E-1,0E0,0E0,1.2599604E0,0E0,0E0],"parents":[2147483647,0,0,1,1,4,4],"right_children":[2,4,-1,-1,6,-1,-1],"split_conditions":[7.203E-1,1.5035927E-1,-2.7590148E-2,2.1490468E-2,3.9461562E-1,-1.7786892E-2,1.5267762E-2],"split_indices":[1,1,0,0,1,0,0],"split_type":[0,0,0,0,0,0,0],"sum_hessian":[2.04E2,1.58E2,4.6E1,5.2E1,1.06E2,4.3E1,6.3E1],"tree_param":{"num_deleted":"0","num_feature":"3","num_nodes":"7","size_leaf_vector":"1"}},{"base_weights":[-6.973897E-2,-1.6893214E-1,3.3678047E-2,-6.896867E-4,-5.263387E-2,2.4944449E-2,-1.0350717E-2],"categories":[],"categories_nodes":[],"categories_segments":[],"categories_sizes":[],"default_left":[0,0,0,0,0,0,0],"id":90,"left_children":[1,3,5,-1,-1,-1,-1],"loss_changes":[2.048173E0,2.9847898E0,1.3394504E0,0E0,0E0,0E0,0E0],"parents":[2147483647,0,0,1,1,2,2],"right_children":[2,4,6,-1,-1,-1,-1],"split_conditions":[3.829E-1,1.506405E-1,6.1162263E-1,-6.896867E-4,-5.263387E-2,2.4944449E-2,-1.0350717E-2],"split_indices":[0,0,0,0,0,0,0],"split_type":[0,0,0,0,0,0,0],"sum_hessian":[1.97E2,1E2,9.7E1,5.3E1,4.7E1,4.2E1,5.5E1],"tree_param":{"num_deleted":"0","num_feature":"3","num_nodes":"7","size_leaf_vector":"1"}},{"base_weights":[-6.973897E-2,-1.6893214E-1,3.3678047E-2,-6.896867E-4,-5.263387E-2,2.4944449E-2,-1.0350717E-2],"categories":[],"categories_nodes":[],"categories_segments":[],"categories_sizes":[],"default_left":[0,0,0,0,0,0,0],"id":91,"left_children":[1,3,5,-1,-1,-1,-1],"loss_changes":[2.048173E0,2.9847898E0,1.3394504E0,0E0,0E0,0E0,0E0],"parents":[2147483647,0,0,1,1,2,2],"right_children":[2,4,6,-1,-1,-1,-1],"split_conditions":[3.829E-1,1.506405E-1,6.1162263E-1,-6.896867E-4,-5.263387E-2,2.4944449E-2,-1.0350717E-2],"split_indices":[0,0,0,0,0,0,0],"split_type":[0,0,0,0,0,0,0],"sum_hessian":[1.97E2,1E2,9.7E1,5.3E1,4.7E1,4.2E1,5.5E1],"tree_param":{"num_deleted":"0","num_feature":"3","num_nodes":"7","size_leaf_vector":"1"}},{"base_weights":[-6.973897E-2,-1.6893214E-1,3.3678047E-2,-6.896867E-4,-5.263387E-2,2.4944449E-2,-1.0350717E-2],"categories":[],"categories_nodes":[],"categories_segments":[],"categories_sizes":[],"default_left":[0,0,0,0,0,0,0],"id":92,"left_children":[1,3,5,-1,-1,-1,-1],"loss_changes":[2.048173E0,2.9847898E0,1.3394504E0,0E0,0E0,0E0,0E0],"parents":[2147483647,0,0,1,1,2,2],"right_children":[2,4,6,-1,-1,-1,-1],"split_conditions":[3.829E-1,1.506405E-1,6.1162263E-1,-6.896867E-4,-5.263387E-2,2.4944449E-2,-1.0350717E-2],"split_indices":[0,0,0,0,0,0,0],"split_type":[0,0,0,0,0,0,0],"sum_hessian":[1.97E2,1E2,9.7E1,5.3E1,4.7E1,4.2E1,5.5E1],"tree_param":{"num_deleted":"0","num_feature":"3","num_nodes":"7","size_leaf_vector":"1"}},{"base_weights":[-6.973897E-2,-1.6893214E-1,3.3678047E-2,-6.896867E-4,-5.263387E-2,2.4944449E-2,-1.0350717E-2],"categories":[],"categories_nodes":[],"categories_segments":[],"categories_sizes":[],"default_left":[0,0,0,0,0,0,0],"id":93,"left_children":[1,3,5,-1,-1,-1,-1],"loss_changes":[2.048173E0,2.9847898E0,1.3394504E0,0E0,0E0,0E0,0E0],"parents":[2147483647,0,0,1,1,2,2],"right_children":[2,4,6,-1,-1,-1,-1],"split_conditions":[3.829E-1,1.506405E-1,6.1162263E-1,-6.896867E-4,-5.263387E-2,2.4944449E-2,-1.0350717E-2],"split_indices":[0,0,0,0,0,0,0],"split_type":[0,0,0,0,0,0,0],"sum_hessian":[1.97E2,1E2,9.7E1,5.3E1,4.7E1,4.2E1,5.5E1],"tree_param":{"num_deleted":"0","num_feature":"3","num_nodes":"7","size_leaf_vector":"1"}},{"base_weights":[-6.973897E-2,-1.6893214E-1,3.3678047E-2,-6.896867E-4,-5.263387E-2,2.4944449E-2,-1.0350717E-2],"categories":[],"categories_nodes":[],"categories_segments":[],"categories_sizes":[],"default_left":[0,0,0,0,0,0,0],"id":94,"left_children":[1,3,5,-1,-1,-1,-1],"loss_changes":[2.048173E0,2.9847898E0,1.3394504E0,0E0,0E0,0E0,0E0],"parents":[2147483647,0,0,1,1,2,2],"right_children":[2,4,6,-1,-1,-1,-1],"split_conditions":[3.829E-1,1.506405E-1,6.1162263E-1,-6.896867E-4,-5.263387E-2,2.4944449E-2,-1.0350717E-2],"split_indices":[0,0,0,0,0,0,0],"split_type":[0,0,0,0,0,0,0],"sum_hessian":[1.97E2,1E2,9.7E1,5.3E1,4.7E1,4.2E1,5.5E1],"tree_param":{"num_deleted":"0","num_feature":"3","num_nodes":"7","size_leaf_vector":"1"}},{"base_weights":[-6.973897E-2,-1.6893214E-1,3.3678047E-2,-6.896867E-4,-5.263387E-2,2.4944449E-2,-1.0350717E-2],"categories":[],"categories_nodes":[],"categories_segments":[],"categories_sizes":[],"default_left":[0,0,0,0,0,0,0],"id":95,"left_children":[1,3,5,-1,-1,-1,-1],"loss_changes":[2.048173E0,2.9847898E0,1.3394504E0,0E0,0E0,0E0,0E0],"parents":[2147483647,0,0,1,1,2,2],"right_children":[2,4,6,-1,-1,-1,-1],"split_conditions":[3.829E-1,1.506405E-1,6.1162263E-1,-6.896867E-4,-5.263387E-2,2.4944449E-2,-1.0350717E-2],"split_indices":[0,0,0,0,0,0,0],"split_type":[0,0,0,0,0,0,0],"sum_hessian":[1.97E2,1E2,9.7E1,5.3E1,4.7E1,4.2E1,5.5E1],"tree_param":{"num_deleted":"0","num_feature":"3","num_nodes":"7","size_leaf_vector":"1"}},{"base_weights":[5.9669822E-2,-1.2077654E-2,1.1762522E-1,5.1218882E-2,7.813196E-3,1.0223974E-2,-9.037343E-3],"categories":[],"categories_nodes":[],"categories_segments":[],"categories_sizes":[],"default_left":[0,0,0,0,0,0,0],"id":96,"left_children":[1,-1,3,-1,5,-1,-1],"loss_changes":[1.6865182E0,0E0,3.5502992E0,0E0,4.087873E-1,0E0,0E0],"parents":[2147483647,0,0,2,2,4,4],"right_children":[2,-1,4,-1,6,-1,-1],"split_conditions":[2.1571429E-1,-1.2077654E-2,3.928828E-1,5.1218882E-2,7.150014E-1,1.0223974E-2,-9.037343E-3],"split_indices":[0,0,0,0,0,0,0],"split_type":[0,0,0,0,0,0,0],"sum_hessian":[2.05E2,6E1,1.45E2,4.7E1,9.8E1,5.2E1,4.6E1],"tree_param":{"num_deleted":"0","num_feature":"3","num_nodes":"7","size_leaf_vector":"1"}},{"base_weights":[5.9669822E-2,-1.2077654E-2,1.1762522E-1,5.1218882E-2,7.813196E-3,1.0223974E-2,-9.037343E-3],"categories":[],"categories_nodes":[],"categories_segments":[],"categories_sizes":[],"default_left":[0,0,0,0,0,0,0],"id":97,"left_children":[1,-1,3,-1,5,-1,-1],"loss_changes":[1.6865182E0,0E0,3.5502992E0,0E0,4.087873E-1,0E0,0E0],"parents":[2147483647,0,0,2,2,4,4],"right_children":[2,-1,4,-1,6,-1,-1],"split_conditions":[2.1571429E-1,-1.2077654E-2,3.928828E-1,5.1218882E-2,7.150014E-1,1.0223974E-2,-9.037343E-3],"split_indices":[0,0,0,0,0,0,0],"split_type":[0,0,0,0,0,0,0],"sum_hessian":[2.05E2,6E1,1.45E2,4.7E1,9.8E1,5.2E1,4.6E1],"tree_param":{"num_deleted":"0","num_feature":"3","num_nodes":"7","size_leaf_vector":"1"}},{"base_weights":[5.9669822E-2,-1.2077654E-2,1.1762522E-1,5.1218882E-2,7.813196E-3,1.0223974E-2,-9.037343E-3],"categories":[],"categories_nodes":[],"categories_segments":[],"categories_sizes":[],"default_left":[0,0,0,0,0,0,0],"id":98,"left_children":[1,-1,3,-1,5,-1,-1],"loss_changes":[1.6865182E0,0E0,3.5502992E0,0E0,4.087873E-1,0E0,0E0],"parents":[2147483647,0,0,2,2,4,4],"right_children":[2,-1,4,-1,6,-1,-1],"split_conditions":[2.1571429E-1,-1.2077654E-2,3.928828E-1,5.1218882E-2,7.150014E-1,1.0223974E-2,-9.037343E-3],"split_indices":[0,0,0,0,0,0,0],"split_type":[0,0,0,0,0,0,0],"sum_hessian":[2.05E2,6E1,1.45E2,4.7E1,9.8E1,5.2E1,4.6E1],"tree_param":{"num_deleted":"0","num_feature":"3","num_nodes":"7","size_leaf_vector":"1"}},{"base_weights":[5.9669822E-2,-1.2077654E-2,1.1762522E-1,5.1218882E-2,7.813196E-3,1.0223974E-2,-9.037343E-3],"categories":[],"categories_nodes":[],"categories_segments":[],"categories_sizes":[],"default_left":[0,0,0,0,0,0,0],"id":99,"left_children":[1,-1,3,-1,5,-1,-1],"loss_changes":[1.6865182E0,0E0,3.5502992E0,0E0,4.087873E-1,0E0,0E0],"parents":[2147483647,0,0,2,2,4,4],"right_children":[2,-1,4,-1,6,-1,-1],"split_conditions":[2.1571429E-1,-1.2077654E-2,3.928828E-1,5.1218882E-2,7.150014E-1,1.0223974E-2,-9.037343E-3],"split_indices":[0,0,0,0,0,0,0],"split_type":[0,0,0,0,0,0,0],"sum_hessian":[2.05E2,6E1,1.45E2,4.7E1,9.8E1,5.2E1,4.6E1],"tree_param":{"num_deleted":"0","num_feature":"3","num_nodes":"7","size_leaf_vector":"1"}},{"base_weights":[5.9669822E-2,-1.2077654E-2,1.1762522E-1,5.1218882E-2,7.813196E-3,1.0223974E-2,-9.037343E-3],"categories":[],"categories_nodes":[],"categories_segments":[],"categories_sizes":[],"default_left":[0,0,0,0,0,0,0],"id":100,"left_children":[1,-1,3,-1,5,-1,-1],"loss_changes":[1.6865182E0,0E0,3.5502992E0,0E0,4.087873E-1,0E0,0E0],"parents":[2147483647,0,0,2,2,4,4],"right_children":[2,-1,4,-1,6,-1,-1],"split_conditions":[2.1571429E-1,-1.2077654E-2,3.928828E-1,5.1218882E-2,7.150014E-1,1.0223974E-2,-9.037343E-3],"split_indices":[0,0,0,0,0,0,0],"split_type":[0,0,0,0,0,0,0],"sum_hessian":[2.05E2,6E1,1.45E2,4.7E1,9.8E1,5.2E1,4.6E1],"tree_param":{"num_deleted":"0","num_feature":"3","num_nodes":"7","size_leaf_vector":"1"}},{"base_weights":[5.9669822E-2,-1.2077654E-2,1.1762522E-1,5.1218882E-2,7.813196E-3,1.0223974E-2,-9.037343E-3],"categories":[],"categories_nodes":[],"categories_segments":[],"categories_sizes":[],"default_left":[0,0,0,0,0,0,0],"id":101,"left_children":[1,-1,3,-1,5,-1,-1],"loss_changes":[1.6865182E0,0E0,3.5502992E0,0E0,4.087873E-1,0E0,0E0],"parents":[2147483647,0,0,2,2,4,4],"right_children":[2,-1,4,-1,6,-1,-1],"split_conditions":[2.1571429E-1,-1.2077654E-2,3.928828E-1,5.1218882E-2,7.150014E-1,1.0223974E-2,-9.037343E-3],"split_indices":[0,0,0,0,0,0,0],"split_type":[0,0,0,0,0,0,0],"sum_hessian":[2.05E2,6E1,1.45E2,4.7E1,9.8E1,5.2E1,4.6E1],"tree_param":{"num_deleted":"0","num_feature":"3","num_nodes":"7","size_leaf_vector":"1"}},{"base_weights":[8.112325E-3,-4.3576755E-2,1.5125735E-2,1.4725288E-3,-1.41592985E-2],"categories":[],"categories_nodes":[],"categories_segments":[],"categories_sizes":[],"default_left":[0,0,0,0,0],"id":102,"left_children":[1,3,-1,-1,-1],"loss_changes":[9.9764395E-1,3.6013407E-1,0E0,0E0,0E0],"parents":[2147483647,0,0,1,1],"right_children":[2,4,-1,-1,-1],"split_conditions":[5.586717E-1,2.4617173E-1,1.5125735E-2,1.4725288E-3,-1.41592985E-2],"split_indices":[1,1,0,0,0],"split_type":[0,0,0,0,0],"sum_hessian":[2.07E2,1.33E2,7.4E1,6.5E1,6.8E1],"tree_param":{"num_deleted":"0","num_feature":"3","num_nodes":"5","size_leaf_vector":"1"}},{"base_weights":[8.112325E-3,-4.3576755E-2,1.5125735E-2,1.4725288E-3,-1.41592985E-2],"categories":[],"categories_nodes":[],"categories_segments":[],"categories_sizes":[],"default_left":[0,0,0,0,0],"id":103,"left_children":[1,3,-1,-1,-1],"loss_changes":[9.9764395E-1,3.6013407E-1,0E0,0E0,0E0],"parents":[2147483647,0,0,1,1],"right_children":[2,4,-1,-1,-1],"split_conditions":[5.586717E-1,2.4617173E-1,1.5125735E-2,1.4725288E-3,-1.41592985E-2],"split_indices":[1,1,0,0,0],"split_type":[0,0,0,0,0],"sum_hessian":[2.07E2,1.33E2,7.4E1,6.5E1,6.8E1],"tree_param":{"num_deleted":"0","num_feature":"3","num_nodes":"5","size_leaf_vector":"1"}},{"base_weights":[8.112325E-3,-4.3576755E-2,1.5125735E-2,1.4725288E-3,-1.41592985E-2],"categories":[],"categories_nodes":[],"categories_segments":[],"categories_sizes":[],"default_left":[0,0,0,0,0],"id":104,"left_children":[1,3,-1,-1,-1],"loss_changes":[9.9764395E-1,3.6013407E-1,0E0,0E0,0E0],"parents":[2147483647,0,0,1,1],"right_children":[2,4,-1,-1,-1],"split_conditions":[5.586717E-1,2.4617173E-1,1.5125735E-2,1.4725288E-3,-1.41592985E-2],"split_indices":[1,1,0,0,0],"split_type":[0,0,0,0,0],"sum_hessian":[2.07E2,1.33E2,7.4E1,6.5E1,6.8E1],"tree_param":{"num_deleted":"0","num_feature":"3","num_nodes":"5","size_leaf_vector":"1"}},{"base_weights":[8.112325E-3,-4.3576755E-2,1.5125735E-2,1.4725288E-3,-1.41592985E-2],"categories":[],"categories_nodes":[],"categories_segments":[],"categories_sizes":[],"default_left":[0,0,0,0,0],"id":105,"left_children":[1,3,-1,-1,-1],"loss_changes":[9.9764395E-1,3.6013407E-1,0E0,0E0,0E0],"parents":[2147483647,0,0,1,1],"right_children":[2,4,-1,-1,-1],"split_conditions":[5.586717E-1,2.4617173E-1,1.5125735E-2,1.4725288E-3,-1.41592985E-2],"split_indices":[1,1,0,0,0],"split_type":[0,0,0,0,0],"sum_hessian":[2.07E2,1.33E2,7.4E1,6.5E1,6.8E1],"tree_param":{"num_deleted":"0","num_feature":"3","num_nodes":"5","size_leaf_vector":"1"}},{"base_weights":[8.112325E-3,-4.3576755E-2,1.5125735E-2,1.4725288E-3,-1.41592985E-2],"categories":[],"categories_nodes":[],"categories_segments":[],"categories_sizes":[],"default_left":[0,0,0,0,0],"id":106,"left_children":[1,3,-1,-1,-1],"loss_changes":[9.9764395E-1,3.6013407E-1,0E0,0E0,0E0],"parents":[2147483647,0,0,1,1],"right_children":[2,4,-1,-1,-1],"split_conditions":[5.586717E-1,2.4617173E-1,1.5125735E-2,1.4725288E-3,-1.41592985E-2],"split_indices":[1,1,0,0,0],"split_type":[0,0,0,0,0],"sum_hessian":[2.07E2,1.33E2,7.4E1,6.5E1,6.8E1],"tree_param":{"num_deleted":"0","num_feature":"3","num_nodes":"5","size_leaf_vector":"1"}},{"base_weights":[8.112325E-3,-4.3576755E-2,1.5125735E-2,1.4725288E-3,-1.41592985E-2],"categories":[],"categories_nodes":[],"categories_segments":[],"categories_sizes":[],"default_left":[0,0,0,0,0],"id":107,"left_children":[1,3,-1,-1,-1],"loss_changes":[9.9764395E-1,3.6013407E-1,0E0,0E0,0E0],"parents":[2147483647,0,0,1,1],"right_children":[2,4,-1,-1,-1],"split_conditions":[5.586717E-1,2.4617173E-1,1.5125735E-2,1.4725288E-3,-1.41592985E-2],"split_indices":[1,1,0,0,0],"split_type":[0,0,0,0,0],"sum_hessian":[2.07E2,1.33E2,7.4E1,6.5E1,6.8E1],"tree_param":{"num_deleted":"0","num_feature":"3","num_nodes":"5","size_leaf_vector":"1"}},{"base_weights":[1.7441291E-2,-3.4563497E-2,1.8247943E-2,2.5953906E-2,-1.9663211E-2,-4.6357247E-3,1.3340418E-2],"categories":[],"categories_nodes":[],"categories_segments":[],"categories_sizes":[],"default_left":[0,0,0,0,0,0,0],"id":108,"left_children":[1,3,-1,5,-1,-1,-1],"loss_changes":[1.1473725E0,8.288497E-1,0E0,3.1652907E-1,0E0,0E0,0E0],"parents":[2147483647,0,0,1,1,3,3],"right_children":[2,4,-1,6,-1,-1,-1],"split_conditions":[5.742729E-1,3.1173685E-1,1.8247943E-2,1.0776179E-1,-1.9663211E-2,-4.6357247E-3,1.3340418E-2],"split_indices":[0,0,0,0,0,0,0],"split_type":[0,0,0,0,0,0,0],"sum_hessian":[2.11E2,1.41E2,7E1,8.7E1,5.4E1,4.6E1,4.1E1],"tree_param":{"num_deleted":"0","num_feature":"3","num_nodes":"7","size_leaf_vector":"1"}},{"base_weights":[1.7441291E-2,-3.4563497E-2,1.8247943E-2,2.5953906E-2,-1.9663211E-2,-4.6357247E-3,1.3340418E-2],"categories":[],"categories_nodes":[],"categories_segments":[],"categories_sizes":[],"default_left":[0,0,0,0,0,0,0],"id":109,"left_children":[1,3,-1,5,-1,-1,-1],"loss_changes":[1.1473725E0,8.288497E-1,0E0,3.1652907E-1,0E0,0E0,0E0],"parents":[2147483647,0,0,1,1,3,3],"right_children":[2,4,-1,6,-1,-1,-1],"split_conditions":[5.742729E-1,3.1173685E-1,1.8247943E-2,1.0776179E-1,-1.9663211E-2,-4.6357247E-3,1.3340418E-2],"split_indices":[0,0,0,0,0,0,0],"split_type":[0,0,0,0,0,0,0],"sum_hessian":[2.11E2,1.41E2,7E1,8.7E1,5.4E1,4.6E1,4.1E1],"tree_param":{"num_deleted":"0","num_feature":"3","num_nodes":"7","size_leaf_vector":"1"}},{"base_weights":[1.7441291E-2,-3.4563497E-2,1.8247943E-2,2.5953906E-2,-1.9663211E-2,-4.6357247E-3,1.3340418E-2],"categories":[],"categories_nodes":[],"categories_segments":[],"categories_sizes":[],"default_left":[0,0,0,0,0,0,0],"id":110,"left_children":[1,3,-1,5,-1,-1,-1],"loss_changes":[1.1473725E0,8.288497E-1,0E0,3.1652907E-1,0E0,0E0,0E0],"parents":[2147483647,0,0,1,1,3,3],"right_children":[2,4,-1,6,-1,-1,-1],"split_conditions":[5.742729E-1,3.1173685E-1,1.8247943E-2,1.0776179E-1,-1.9663211E-2,-4.6357247E-3,1.3340418E-2],"split_indices":[0,0,0,0,0,0,0],"split_type":[0,0,0,0,0,0,0],"sum_hessian":[2.11E2,1.41E2,7E1,8.7E1,5.4E1,4.6E1,4.1E1],"tree_param":{"num_deleted":"0","num_feature":"3","num_nodes":"7","size_leaf_vector":"1"}},{"base_weights":[1.7441291E-2,-3.4563497E-2,1.8247943E-2,2.5953906E-2,-1.9663211E-2,-4.6357247E-3,1.3340418E-2],"categories":[],"categories_nodes":[],"categories_segments":[],"categories_sizes":[],"default_left":[0,0,0,0,0,0,0],"id":111,"left_children":[1,3,-1,5,-1,-1,-1],"loss_changes":[1.1473725E0,8.288497E-1,0E0,3.1652907E-1,0E0,0E0,0E0],"parents":[2147483647,0,0,1,1,3,3],"right_children":[2,4,-1,6,-1,-1,-1],"split_conditions":[5.742729E-1,3.1173685E-1,1.8247943E-2,1.0776179E-1,-1.9663211E-2,-4.6357247E-3,1.3340418E-2],"split_indices":[0,0,0,0,0,0,0],"split_type":[0,0,0,0,0,0,0],"sum_hessian":[2.11E2,1.41E2,7E1,8.7E1,5.4E1,4.6E1,4.1E1],"tree_param":{"num_deleted":"0","num_feature":"3","num_nodes":"7","size_leaf_vector":"1"}},{"base_weights":[1.7441291E-2,-3.4563497E-2,1.8247943E-2,2.5953906E-2,-1.9663211E-2,-4.6357247E-3,1.3340418E-2],"categories":[],"categories_nodes":[],"categories_segments":[],"categories_sizes":[],"default_left":[0,0,0,0,0,0,0],"id":112,"left_children":[1,3,-1,5,-1,-1,-1],"loss_changes":[1.1473725E0,8.288497E-1,0E0,3.1652907E-1,0E0,0E0,0E0],"parents":[2147483647,0,0,1,1,3,3],"right_children":[2,4,-1,6,-1,-1,-1],"split_conditions":[5.742729E-1,3.1173685E-1,1.8247943E-2,1.0776179E-1,-1.9663211E-2,-4.6357247E-3,1.3340418E-2],"split_indices":[0,0,0,0,0,0,0],"split_type":[0,0,0,0,0,0,0],"sum_hessian":[2.11E2,1.41E2,7E1,8.7E1,5.4E1,4.6E1,4.1E1],"tree_param":{"num_deleted":"0","num_feature":"3","num_nodes":"7","size_leaf_vector":"1"}},{"base_weights":[1.7441291E-2,-3.4563497E-2,1.8247943E-2,2.5953906E-2,-1.9663211E-2,-4.6357247E-3,1.3340418E-2],"categories":[],"categories_nodes":[],"categories_segments":[],"categories_sizes":[],"default_left":[0,0,0,0,0,0,0],"id":113,"left_children":[1,3,-1,5,-1,-1,-1],"loss_changes":[1.1473725E0,8.288497E-1,0E0,3.1652907E-1,0E0,0E0,0E0],"parents":[2147483647,0,0,1,1,3,3],"right_children":[2,4,-1,6,-1,-1,-1],"split_conditions":[5.742729E-1,3.1173685E-1,1.8247943E-2,1.0776179E-1,-1.9663211E-2,-4.6357247E-3,1.3340418E-2],"split_indices":[0,0,0,0,0,0,0],"split_type":[0,0,0,0,0,0,0],"sum_hessian":[2.11E2,1.41E2,7E1,8.7E1,5.4E1,4.6E1,4.1E1],"tree_param":{"num_deleted":"0","num_feature":"3","num_nodes":"7","size_leaf_vector":"1"}},{"base_weights":[-1.4194309E-2,6.0684305E-2,-3.3105675E-2,-1.5719077E-2,2.4867648E-2,1.9647318E-3,-6.8304418E-3],"categories":[],"categories_nodes":[],"categories_segments":[],"categories_sizes":[],"default_left":[0,0,0,0,0,0,0],"id":114,"left_children":[1,3,-1,5,-1,-1,-1],"loss_changes":[3.1260405E0,1.1889193E0,0E0,7.4980006E-2,0E0,0E0,0E0],"parents":[2147483647,0,0,1,1,3,3],"right_children":[2,4,-1,6,-1,-1,-1],"split_conditions":[6.723757E-1,3.66795E-1,-3.3105675E-2,1.2117172E-1,2.4867648E-2,1.9647318E-3,-6.8304418E-3],"split_indices":[1,1,0,1,0,0,0],"split_type":[0,0,0,0,0,0,0],"sum_hessian":[2.01E2,1.48E2,5.3E1,8.6E1,6.2E1,4.4E1,4.2E1],"tree_param":{"num_deleted":"0","num_feature":"3","num_nodes":"7","size_leaf_vector":"1"}},{"base_weights":[-1.4194309E-2,6.0684305E-2,-3.3105675E-2,-1.5719077E-2,2.4867648E-2,1.9647318E-3,-6.8304418E-3],"categories":[],"categories_nodes":[],"categories_segments":[],"categories_sizes":[],"default_left":[0,0,0,0,0,0,0],"id":115,"left_children":[1,3,-1,5,-1,-1,-1],"loss_changes":[3.1260405E0,1.1889193E0,0E0,7.4980006E-2,0E0,0E0,0E0],"parents":[2147483647,0,0,1,1,3,3],"right_children":[2,4,-1,6,-1,-1,-1],"split_conditions":[6.723757E-1,3.66795E-1,-3.3105675E-2,1.2117172E-1,2.4867648E-2,1.9647318E-3,-6.8304418E-3],"split_indices":[1,1,0,1,0,0,0],"split_type":[0,0,0,0,0,0,0],"sum_hessian":[2.01E2,1.48E2,5.3E1,8.6E1,6.2E1,4.4E1,4.2E1],"tree_param":{"num_deleted":"0","num_feature":"3","num_nodes":"7","size_leaf_vector":"1"}},{"base_weights":[-1.4194309E-2,6.0684305E-2,-3.3105675E-2,-1.5719077E-2,2.4867648E-2,1.9647318E-3,-6.8304418E-3],"categories":[],"categories_nodes":[],"categories_segments":[],"categories_sizes":[],"default_left":[0,0,0,0,0,0,0],"id":116,"left_children":[1,3,-1,5,-1,-1,-1],"loss_changes":[3.1260405E0,1.1889193E0,0E0,7.4980006E-2,0E0,0E0,0E0],"parents":[2147483647,0,0,1,1,3,3],"right_children":[2,4,-1,6,-1,-1,-1],"split_conditions":[6.723757E-1,3.66795E-1,-3.3105675E-2,1.2117172E-1,2.4867648E-2,1.9647318E-3,-6.8304418E-3],"split_indices":[1,1,0,1,0,0,0],"split_type":[0,0,0,0,0,0,0],"sum_hessian":[2.01E2,1.48E2,5.3E1,8.6E1,6.2E1,4.4E1,4.2E1],"tree_param":{"num_deleted":"0","num_feature":"3","num_nodes":"7","size_leaf_vector":"1"}},{"base_weights":[-1.4194309E-2,6.0684305E-2,-3.3105675E-2,-1.5719077E-2,2.4867648E-2,1.9647318E-3,-6.8304418E-3],"categories":[],"categories_nodes":[],"categories_segments":[],"categories_sizes":[],"default_left":[0,0,0,0,0,0,0],"id":117,"left_children":[1,3,-1,5,-1,-1,-1],"loss_changes":[3.1260405E0,1.1889193E0,0E0,7.4980006E-2,0E0,0E0,0E0],"parents":[2147483647,0,0,1,1,3,3],"right_children":[2,4,-1,6,-1,-1,-1],"split_conditions":[6.723757E-1,3.66795E-1,-3.3105675E-2,1.2117172E-1,2.4867648E-2,1.9647318E-3,-6.8304418E-3],"split_indices":[1,1,0,1,0,0,0],"split_type":[0,0,0,0,0,0,0],"sum_hessian":[2.01E2,1.48E2,5.3E1,8.6E1,6.2E1,4.4E1,4.2E1],"tree_param":{"num_deleted":"0","num_feature":"3","num_nodes":"7","size_leaf_vector":"1"}},{"base_weights":[-1.4194309E-2,6.0684305E-2,-3.3105675E-2,-1.5719077E-2,2.4867648E-2,1.9647318E-3,-6.8304418E-3],"categories":[],"categories_nodes":[],"categories_segments":[],"categories_sizes":[],"default_left":[0,0,0,0,0,0,0],"id":118,"left_children":[1,3,-1,5,-1,-1,-1],"loss_changes":[3.1260405E0,1.1889193E0,0E0,7.4980006E-2,0E0,0E0,0E0],"parents":[2147483647,0,0,1,1,3,3],"right_children":[2,4,-1,6,-1,-1,-1],"split_conditions":[6.723757E-1,3.66795E-1,-3.3105675E-2,1.2117172E-1,2.4867648E-2,1.9647318E-3,-6.8304418E-3],"split_indices":[1,1,0,1,0,0,0],"split_type":[0,0,0,0,0,0,0],"sum_hessian":[2.01E2,1.48E2,5.3E1,8.6E1,6.2E1,4.4E1,4.2E1],"tree_param":{"num_deleted":"0","num_feature":"3","num_nodes":"7","size_leaf_vector":"1"}},{"base_weights":[-1.4194309E-2,6.0684305E-2,-3.3105675E-2,-1.5719077E-2,2.4867648E-2,1.9647318E-3,-6.8304418E-3],"categories":[],"categories_nodes":[],"categories_segments":[],"categories_sizes":[],"default_left":[0,0,0,0,0,0,0],"id":119,"left_children":[1,3,-1,5,-1,-1,-1],"loss_changes":[3.1260405E0,1.1889193E0,0E0,7.4980006E-2,0E0,0E0,0E0],"parents":[2147483647,0,0,1,1,3,3],"right_children":[2,4,-1,6,-1,-1,-1],"split_conditions":[6.723757E-1,3.66795E-1,-3.3105675E-2,1.2117172E-1,2.4867648E-2,1.9647318E-3,-6.8304418E-3],"split_indices":[1,1,0,1,0,0,0],"split_type":[0,0,0,0,0,0,0],"sum_hessian":[2.01E2,1.48E2,5.3E1,8.6E1,6.2E1,4.4E1,4.2E1],"tree_param":{"num_deleted":"0","num_feature":"3","num_nodes":"7","size_leaf_vector":"1"}},{"base_weights":[1.925256E-2,2.2005005E-2,-1.726807E-2,-2.5325578E-2,4.0946133E-2,1.5020897E-2,-6.9113118E-3],"categories":[],"categories_nodes":[],"categories_segments":[],"categories_sizes":[],"default_left":[0,0,0,0,0,0,0],"id":120,"left_children":[1,-1,3,-1,5,-1,-1],"loss_changes":[9.3768144E-1,0E0,1.3975637E0,0E0,5.914913E-1,0E0,0E0],"parents":[2147483647,0,0,2,2,4,4],"right_children":[2,-1,4,-1,6,-1,-1],"split_conditions":[1.3947533E-1,2.2005005E-2,3.7919173E-1,-2.5325578E-2,7.6034415E-1,1.5020897E-2,-6.9113118E-3],"split_indices":[2,0,2,0,2,0,0],"split_type":[0,0,0,0,0,0,0],"sum_hessian":[2.01E2,4.4E1,1.57E2,4.3E1,1.14E2,6.8E1,4.6E1],"tree_param":{"num_deleted":"0","num_feature":"3","num_nodes":"7","size_leaf_vector":"1"}},{"base_weights":[1.925256E-2,2.2005005E-2,-1.726807E-2,-2.5325578E-2,4.0946133E-2,1.5020897E-2,-6.9113118E-3],"categories":[],"categories_nodes":[],"categories_segments":[],"categories_sizes":[],"default_left":[0,0,0,0,0,0,0],"id":121,"left_children":[1,-1,3,-1,5,-1,-1],"loss_changes":[9.3768144E-1,0E0,1.3975637E0,0E0,5.914913E-1,0E0,0E0],"parents":[2147483647,0,0,2,2,4,4],"right_children":[2,-1,4,-1,6,-1,-1],"split_conditions":[1.3947533E-1,2.2005005E-2,3.7919173E-1,-2.5325578E-2,7.6034415E-1,1.5020897E-2,-6.9113118E-3],"split_indices":[2,0,2,0,2,0,0],"split_type":[0,0,0,0,0,0,0],"sum_hessian":[2.01E2,4.4E1,1.57E2,4.3E1,1.14E2,6.8E1,4.6E1],"tree_param":{"num_deleted":"0","num_feature":"3","num_nodes":"7","size_leaf_vector":"1"}},{"base_weights":[1.925256E-2,2.2005005E-2,-1.726807E-2,-2.5325578E-2,4.0946133E-2,1.5020897E-2,-6.9113118E-3],"categories":[],"categories_nodes":[],"categories_segments":[],"categories_sizes":[],"default_left":[0,0,0,0,0,0,0],"id":122,"left_children":[1,-1,3,-1,5,-1,-1],"loss_changes":[9.3768144E-1,0E0,1.3975637E0,0E0,5.914913E-1,0E0,0E0],"parents":[2147483647,0,0,2,2,4,4],"right_children":[2,-1,4,-1,6,-1,-1],"split_conditions":[1.3947533E-1,2.2005005E-2,3.7919173E-1,-2.5325578E-2,7.6034415E-1,1.5020897E-2,-6.9113118E-3],"split_indices":[2,0,2,0,2,0,0],"split_type":[0,0,0,0,0,0,0],"sum_hessian":[2.01E2,4.4E1,1.57E2,4.3E1,1.14E2,6.8E1,4.6E1],"tree_param":{"num_deleted":"0","num_feature":"3","num_nodes":"7","size_leaf_vector":"1"}},{"base_weights":[1.925256E-2,2.2005005E-2,-1.726807E-2,-2.5325578E-2,4.0946133E-2,1.5020897E-2,-6.9113118E-3],"categories":[],"categories_nodes":[],"categories_segments":[],"categories_sizes":[],"default_left":[0,0,0,0,0,0,0],"id":123,"left_children":[1,-1,3,-1,5,-1,-1],"loss_changes":[9.3768144E-1,0E0,1.3975637E0,0E0,5.914913E-1,0E0,0E0],"parents":[2147483647,0,0,2,2,4,4],"right_children":[2,-1,4,-1,6,-1,-1],"split_conditions":[1.3947533E-1,2.2005005E-2,3.7919173E-1,-2.5325578E-2,7.6034415E-1,1.5020897E-2,-6.9113118E-3],"split_indices":[2,0,2,0,2,0,0],"split_type":[0,0,0,0,0,0,0],"sum_hessian":[2.01E2,4.4E1,1.57E2,4.3E1,1.14E2,6.8E1,4.6E1],"tree_param":{"num_deleted":"0","num_feature":"3","num_nodes":"7","size_leaf_vector":"1"}},{"base_weights":[1.925256E-2,2.2005005E-2,-1.726807E-2,-2.5325578E-2,4.0946133E-2,1.5020897E-2,-6.9113118E-3],"categories":[],"categories_nodes":[],"categories_segments":[],"categories_sizes":[],"default_left":[0,0,0,0,0,0,0],"id":124,"left_children":[1,-1,3,-1,5,-1,-1],"loss_changes":[9.3768144E-1,0E0,1.3975637E0,0E0,5.914913E-1,0E0,0E0],"parents":[2147483647,0,0,2,2,4,4],"right_children":[2,-1,4,-1,6,-1,-1],"split_conditions":[1.3947533E-1,2.2005005E-2,3.7919173E-1,-2.5325578E-2,7.6034415E-1,1.5020897E-2,-6.9113118E-3],"split_indices":[2,0,2,0,2,0,0],"split_type":[0,0,0,0,0,0,0],"sum_hessian":[2.01E2,4.4E1,1.57E2,4.3E1,1.14E2,6.8E1,4.6E1],"tree_param":{"num_deleted":"0","num_feature":"3","num_nodes":"7","size_leaf_vector":"1"}},{"base_weights":[1.925256E-2,2.2005005E-2,-1.726807E-2,-2.5325578E-2,4.0946133E-2,1.5020897E-2,-6.9113118E-3],"categories":[],"categories_nodes":[],"categories_segments":[],"categories_sizes":[],"default_left":[0,0,0,0,0,0,0],"id":125,"left_children":[1,-1,3,-1,5,-1,-1],"loss_changes":[9.3768144E-1,0E0,1.3975637E0,0E0,5.914913E-1,0E0,0E0],"parents":[2147483647,0,0,2,2,4,4],"right_children":[2,-1,4,-1,6,-1,-1],"split_conditions":[1.3947533E-1,2.2005005E-2,3.7919173E-1,-2.5325578E-2,7.6034415E-1,1.5020897E-2,-6.9113118E-3],"split_indices":[2,0,2,0,2,0,0],"split_type":[0,0,0,0,0,0,0],"sum_hessian":[2.01E2,4.4E1,1.57E2,4.3E1,1.14E2,6.8E1,4.6E1],"tree_param":{"num_deleted":"0","num_feature":"3","num_nodes":"7","size_leaf_vector":"1"}},{"base_weights":[1.8043785E-3,-1.18739314E-1,8.982819E-2,-4.3324255E-3,-3.2522712E-2,2.8410995E-2,-2.3621302E-3],"categories":[],"categories_nodes":[],"categories_segments":[],"categories_sizes":[],"default_left":[0,0,0,0,0,0,0],"id":126,"left_children":[1,3,5,-1,-1,-1,-1],"loss_changes":[2.1797814E0,7.401608E-1,1.2291921E0,0E0,0E0,0E0,0E0],"parents":[2147483647,0,0,1,1,2,2],"right_children":[2,4,6,-1,-1,-1,-1],"split_conditions":[3.346635E-1,1.080399E-1,6.1162263E-1,-4.3324255E-3,-3.2522712E-2,2.8410995E-2,-2.3621302E-3],"split_indices":[0,0,0,0,0,0,0],"split_type":[0,0,0,0,0,0,0],"sum_hessian":[2.02E2,8.5E1,1.17E2,4.5E1,4E1,6E1,5.7E1],"tree_param":{"num_deleted":"0","num_feature":"3","num_nodes":"7","size_leaf_vector":"1"}},{"base_weights":[1.8043785E-3,-1.18739314E-1,8.982819E-2,-4.3324255E-3,-3.2522712E-2,2.8410995E-2,-2.3621302E-3],"categories":[],"categories_nodes":[],"categories_segments":[],"categories_sizes":[],"default_left":[0,0,0,0,0,0,0],"id":127,"left_children":[1,3,5,-1,-1,-1,-1],"loss_changes":[2.1797814E0,7.401608E-1,1.2291921E0,0E0,0E0,0E0,0E0],"parents":[2147483647,0,0,1,1,2,2],"right_children":[2,4,6,-1,-1,-1,-1],"split_conditions":[3.346635E-1,1.080399E-1,6.1162263E-1,-4.3324255E-3,-3.2522712E-2,2.8410995E-2,-2.3621302E-3],"split_indices":[0,0,0,0,0,0,0],"split_type":[0,0,0,0,0,0,0],"sum_hessian":[2.02E2,8.5E1,1.17E2,4.5E1,4E1,6E1,5.7E1],"tree_param":{"num_deleted":"0","num_feature":"3","num_nodes":"7","size_leaf_vector":"1"}},{"base_weights":[1.8043785E-3,-1.18739314E-1,8.982819E-2,-4.3324255E-3,-3.2522712E-2,2.8410995E-2,-2.3621302E-3],"categories":[],"categories_nodes":[],"categories_segments":[],"categories_sizes":[],"default_left":[0,0,0,0,0,0,0],"id":128,"left_children":[1,3,5,-1,-1,-1,-1],"loss_changes":[2.1797814E0,7.401608E-1,1.2291921E0,0E0,0E0,0E0,0E0],"parents":[2147483647,0,0,1,1,2,2],"right_children":[2,4,6,-1,-1,-1,-1],"split_conditions":[3.346635E-1,1.080399E-1,6.1162263E-1,-4.3324255E-3,-3.2522712E-2,2.8410995E-2,-2.3621302E-3],"split_indices":[0,0,0,0,0,0,0],"split_type":[0,0,0,0,0,0,0],"sum_hessian":[2.02E2,8.5E1,1.17E2,4.5E1,4E1,6E1,5.7E1],"tree_param":{"num_deleted":"0","num_feature":"3","num_nodes":"7","size_leaf_vector":"1"}},{"base_weights":[1.8043785E-3,-1.18739314E-1,8.982819E-2,-4.3324255E-3,-3.2522712E-2,2.8410995E-2,-2.3621302E-3],"categories":[],"categories_nodes":[],"categories_segments":[],"categories_sizes":[],"default_left":[0,0,0,0,0,0,0],"id":129,"left_children":[1,3,5,-1,-1,-1,-1],"loss_changes":[2.1797814E0,7.401608E-1,1.2291921E0,0E0,0E0,0E0,0E0],"parents":[2147483647,0,0,1,1,2,2],"right_children":[2,4,6,-1,-1,-1,-1],"split_conditions":[3.346635E-1,1.080399E-1,6.1162263E-1,-4.3324255E-3,-3.2522712E-2,2.8410995E-2,-2.3621302E-3],"split_indices":[0,0,0,0,0,0,0],"split_type":[0,0,0,0,0,0,0],"sum_hessian":[2.02E2,8.5E1,1.17E2,4.5E1,4E1,6E1,5.7E1],"tree_param":{"num_deleted":"0","num_feature":"3","num_nodes":"7","size_leaf_vector":"1"}},{"base_weights":[1.8043785E-3,-1.18739314E-1,8.982819E-2,-4.3324255E-3,-3.2522712E-2,2.8410995E-2,-2.3621302E-3],"categories":[],"categories_nodes":[],"categories_segments":[],"categories_sizes":[],"default_left":[0,0,0,0,0,0,0],"id":130,"left_children":[1,3,5,-1,-1,-1,-1],"loss_changes":[2.1797814E0,7.401608E-1,1.2291921E0,0E0,0E0,0E0,0E0],"parents":[2147483647,0,0,1,1,2,2],"right_children":[2,4,6,-1,-1,-1,-1],"split_conditions":[3.346635E-1,1.080399E-1,6.1162263E-1,-4.3324255E-3,-3.2522712E-2,2.8410995E-2,-2.3621302E-3],"split_indices":[0,0,0,0,0,0,0],"split_type":[0,0,0,0,0,0,0],"sum_hessian":[2.02E2,8.5E1,1.17E2,4.5E1,4E1,6E1,5.7E1],"tree_param":{"num_deleted":"0","num_feature":"3","num_nodes":"7","size_leaf_vector":"1"}},{"base_weights":[1.8043785E-3,-1.18739314E-1,8.982819E-2,-4.3324255E-3,-3.2522712E-2,2.8410995E-2,-2.3621302E-3],"categories":[],"categories_nodes":[],"categories_segments":[],"categories_sizes":[],"default_left":[0,0,0,0,0,0,0],"id":131,"left_children":[1,3,5,-1,-1,-1,-1],"loss_changes":[2.1797814E0,7.401608E-1,