{"learner":{"attributes":{"scikit_learn":"{\"_estimator_type\": \"regressor\"}"},"feature_names":[],"feature_types":[],"gradient_booster":{"model":{"gbtree_model_param":{"num_parallel_tree":"5","num_trees":"935"},"iteration_indptr":[0,5,10,15,20,25,30,35,40,45,50,55,60,65,70,75,80,85,90,95,100,105,110,115,120,125,130,135,140,145,150,155,160,165,170,175,180,185,190,195,200,205,210,215,220,225,230,235,240,245,250,255,260,265,270,275,280,285,290,295,300,305,310,315,320,325,330,335,340,345,350,355,360,365,370,375,380,385,390,395,400,405,410,415,420,425,430,435,440,445,450,455,460,465,470,475,480,485,490,495,500,505,510,515,520,525,530,535,540,545,550,555,560,565,570,575,580,585,590,595,600,605,610,615,620,625,630,635,640,645,650,655,660,665,670,675,680,685,690,695,700,705,710,715,720,725,730,735,740,745,750,755,760,765,770,775,780,785,790,795,800,805,810,815,820,825,830,835,840,845,850,855,860,865,870,875,880,885,890,895,900,905,910,915,920,925,930,935],"tree_info":[0,0,0,0,0,0,0,0,0,0,0,0,0,0,0,0,0,0,0,0,0,0,0,0,0,0,0,0,0,0,0,0,0,0,0,0,0,0,0,0,0,0,0,0,0,0,0,0,0,0,0,0,0,0,0,0,0,0,0,0,0,0,0,0,0,0,0,0,0,0,0,0,0,0,0,0,0,0,0,0,0,0,0,0,0,0,0,0,0,0,0,0,0,0,0,0,0,0,0,0,0,0,0,0,0,0,0,0,0,0,0,0,0,0,0,0,0,0,0,0,0,0,0,0,0,0,0,0,0,0,0,0,0,0,0,0,0,0,0,0,0,0,0,0,0,0,0,0,0,0,0,0,0,0,0,0,0,0,0,0,0,0,0,0,0,0,0,0,0,0,0,0,0,0,0,0,0,0,0,0,0,0,0,0,0,0,0,0,0,0,0,0,0,0,0,0,0,0,0,0,0,0,0,0,0,0,0,0,0,0,0,0,0,0,0,0,0,0,0,0,0,0,0,0,0,0,0,0,0,0,0,0,0,0,0,0,0,0,0,0,0,0,0,0,0,0,0,0,0,0,0,0,0,0,0,0,0,0,0,0,0,0,0,0,0,0,0,0,0,0,0,0,0,0,0,0,0,0,0,0,0,0,0,0,0,0,0,0,0,0,0,0,0,0,0,0,0,0,0,0,0,0,0,0,0,0,0,0,0,0,0,0,0,0,0,0,0,0,0,0,0,0,0,0,0,0,0,0,0,0,0,0,0,0,0,0,0,0,0,0,0,0,0,0,0,0,0,0,0,0,0,0,0,0,0,0,0,0,0,0,0,0,0,0,0,0,0,0,0,0,0,0,0,0,0,0,0,0,0,0,0,0,0,0,0,0,0,0,0,0,0,0,0,0,0,0,0,0,0,0,0,0,0,0,0,0,0,0,0,0,0,0,0,0,0,0,0,0,0,0,0,0,0,0,0,0,0,0,0,0,0,0,0,0,0,0,0,0,0,0,0,0,0,0,0,0,0,0,0,0,0,0,0,0,0,0,0,0,0,0,0,0,0,0,0,0,0,0,0,0,0,0,0,0,0,0,0,0,0,0,0,0,0,0,0,0,0,0,0,0,0,0,0,0,0,0,0,0,0,0,0,0,0,0,0,0,0,0,0,0,0,0,0,0,0,0,0,0,0,0,0,0,0,0,0,0,0,0,0,0,0,0,0,0,0,0,0,0,0,0,0,0,0,0,0,0,0,0,0,0,0,0,0,0,0,0,0,0,0,0,0,0,0,0,0,0,0,0,0,0,0,0,0,0,0,0,0,0,0,0,0,0,0,0,0,0,0,0,0,0,0,0,0,0,0,0,0,0,0,0,0,0,0,0,0,0,0,0,0,0,0,0,0,0,0,0,0,0,0,0,0,0,0,0,0,0,0,0,0,0,0,0,0,0,0,0,0,0,0,0,0,0,0,0,0,0,0,0,0,0,0,0,0,0,0,0,0,0,0,0,0,0,0,0,0,0,0,0,0,0,0,0,0,0,0,0,0,0,0,0,0,0,0,0,0,0,0,0,0,0,0,0,0,0,0,0,0,0,0,0,0,0,0,0,0,0,0,0,0,0,0,0,0,0,0,0,0,0,0,0,0,0,0,0,0,0,0,0,0,0,0,0,0,0,0,0,0,0,0,0,0,0,0,0,0,0,0,0,0,0,0,0,0,0,0,0,0,0,0,0,0,0,0,0,0,0,0,0,0,0,0,0,0,0,0,0,0,0,0,0,0,0,0,0,0,0,0,0,0,0,0,0,0,0,0,0,0,0,0,0,0,0,0,0,0,0,0,0,0,0,0,0,0,0,0,0,0,0,0,0,0,0,0,0,0,0,0,0,0,0,0,0,0,0,0,0,0,0,0,0,0,0,0,0,0,0,0,0,0,0,0,0,0,0,0,0,0,0,0,0,0,0,0,0,0,0,0,0,0,0,0,0,0,0,0,0,0,0,0,0,0,0,0,0,0,0,0,0,0,0,0,0,0,0,0,0,0,0,0,0,0,0,0,0,0,0,0,0,0,0,0,0,0,0,0,0,0,0,0,0,0,0,0,0,0,0,0,0,0,0,0,0,0,0,0],"trees":[{"base_weights":[-5.9598475E-3,2.7735844E-1,-1.4242895E0,6.407403E-1,-8.733752E-2,-5.2100018E-2,-1.0379368E0,2.8599E-1,8.8109416E-1,-3.8725123E-1,8.749661E-1,5.6998674E-3,-5.1643163E-2,2.109406E-2,-5.384159E-2,1.2477292E0,6.000613E-1,-7.337744E-3,-1.1577697E0,1.4526472E0,3.6266628E-1,-1.9969614E-1,1.6160752E-1,4.733072E-2,8.7558156E-1,5.287602E-3,6.342418E-1,-2.545426E-1,9.042726E-1,5.885495E-3,-4.2116933E-2,5.127741E-2,1.972301E-2,2.9148346E-2,-4.28901E-3,-1.6101742E-2,1.2902422E-1,8.658726E-3,-3.0202789E-3,1.03939995E-2,3.0542847E-2,1.051779E-3,7.6882017E-1,-5.295137E-1,4.3475833E-2,7.796619E-4,3.60536E-2,5.0784316E-4,5.0875493E-3,2.9699543E-2,3.6364898E-1,-1.799968E-1,-2.765951E-2,2.301737E-1,-2.1612129E-1,-9.943212E-3,1.903811E-2,-1.7241633E-2,1.5111923E-2,2.5977159E-2,1.4683798E-2,-1.0491539E-2,1.5387571E-3,3.943039E-3,-3.4384888E-3],"categories":[],"categories_nodes":[],"categories_segments":[],"categories_sizes":[],"default_left":[0,0,0,0,0,0,0,0,0,0,0,0,0,0,0,0,0,0,0,0,0,0,0,0,0,0,0,0,0,0,0,0,0,0,0,0,0,0,0,0,0,0,0,0,0,0,0,0,0,0,0,0,0,0,0,0,0,0,0,0,0,0,0,0,0],"id":0,"left_children":[1,3,5,7,9,-1,11,13,15,17,19,-1,-1,-1,21,23,25,27,29,31,33,35,37,-1,39,-1,41,43,45,-1,-1,-1,-1,-1,-1,-1,47,-1,-1,-1,-1,-1,49,51,53,-1,-1,-1,-1,-1,55,57,-1,59,61,-1,-1,-1,-1,63,-1,-1,-1,-1,-1],"loss_changes":[7.649256E1,2.1125256E1,2.1119995E0,6.3685493E0,2.3861975E1,0E0,2.1451794E1,5.595681E0,3.5438385E0,1.8337616E1,4.936263E0,0E0,0E0,0E0,7.362907E-1,5.9176636E-1,2.1388721E-1,1.023587E1,1.0426157E1,2.8962135E-1,4.72768E0,1.8202348E0,4.440899E-1,0E0,8.106499E-1,0E0,2.09418E0,2.9638367E0,3.2161012E0,0E0,0E0,0E0,0E0,0E0,0E0,0E0,4.5488343E-2,0E0,0E0,0E0,0E0,0E0,1.9289341E0,2.7051005E0,9.901484E-1,0E0,0E0,0E0,0E0,0E0,3.081601E0,4.56168E0,0E0,6.818038E-1,4.1045663E-1,0E0,0E0,0E0,0E0,1.7848355E-1,0E0,0E0,0E0,0E0,0E0],"parents":[2147483647,0,0,1,1,2,2,3,3,4,4,6,6,7,7,8,8,9,9,10,10,14,14,15,15,16,16,17,17,18,18,19,19,20,20,21,21,22,22,24,24,26,26,27,27,28,28,36,36,42,42,43,43,44,44,50,50,51,51,53,53,54,54,59,59],"right_children":[2,4,6,8,10,-1,12,14,16,18,20,-1,-1,-1,22,24,26,28,30,32,34,36,38,-1,40,-1,42,44,46,-1,-1,-1,-1,-1,-1,-1,48,-1,-1,-1,-1,-1,50,52,54,-1,-1,-1,-1,-1,56,58,-1,60,62,-1,-1,-1,-1,64,-1,-1,-1,-1,-1],"split_conditions":[7.203E-1,3.429E-1,8.38241E-1,9.0238795E-2,6.211717E-1,-5.2100018E-2,9.336717E-1,2.4927516E-1,2.276E-1,6.88E-1,7.823E-1,5.6998674E-3,-5.1643163E-2,2.109406E-2,2.67E-2,1.363616E-1,1.2057172E-1,5.568838E-1,4.381E-1,6.836717E-1,6.295105E-1,3.805981E-1,4.9742985E-1,4.733072E-2,2.0397838E-2,5.287602E-3,3.549095E-1,4.318E-1,5.42646E-1,5.885495E-3,-4.2116933E-2,5.127741E-2,1.972301E-2,2.9148346E-2,-4.28901E-3,-1.6101742E-2,6.2662745E-1,8.658726E-3,-3.0202789E-3,1.03939995E-2,3.0542847E-2,1.051779E-3,5.6111985E-1,2.158042E-1,6.208E-1,7.796619E-4,3.60536E-2,5.0784316E-4,5.0875493E-3,2.9699543E-2,7.267128E-1,1.2768334E-1,-2.765951E-2,5.900344E-1,6.481033E-1,-9.943212E-3,1.903811E-2,-1.7241633E-2,1.5111923E-2,5.032E-1,1.4683798E-2,-1.0491539E-2,1.5387571E-3,3.943039E-3,-3.4384888E-3],"split_indices":[1,1,1,1,1,0,1,2,2,2,2,0,0,0,1,1,1,1,1,1,1,2,2,0,2,0,2,2,2,0,0,0,0,0,0,0,2,0,0,0,0,0,2,2,2,0,0,0,0,0,2,2,0,2,2,0,0,0,0,2,0,0,0,0,0],"split_type":[0,0,0,0,0,0,0,0,0,0,0,0,0,0,0,0,0,0,0,0,0,0,0,0,0,0,0,0,0,0,0,0,0,0,0,0,0,0,0,0,0,0,0,0,0,0,0,0,0,0,0,0,0,0,0,0,0,0,0,0,0,0,0,0,0],"sum_hessian":[1.87E2,1.57E2,3E1,7.8E1,7.9E1,1.1E1,1.9E1,3.3E1,4.5E1,6.1E1,1.8E1,8E0,1.1E1,1.3E1,2E1,1.7E1,2.8E1,4.2E1,1.9E1,7E0,1.1E1,1.2E1,8E0,5E0,1.2E1,3E0,2.5E1,3.4E1,8E0,4E0,1.5E1,3E0,4E0,4E0,7E0,5E0,7E0,5E0,3E0,5E0,7E0,5E0,2E1,1.7E1,1.7E1,3E0,5E0,3E0,4E0,1E1,1E1,1.1E1,6E0,1E1,7E0,3E0,7E0,7E0,4E0,7E0,3E0,4E0,3E0,4E0,3E0],"tree_param":{"num_deleted":"0","num_feature":"3","num_nodes":"65","size_leaf_vector":"1"}},{"base_weights":[-5.9598475E-3,2.7735844E-1,-1.4242895E0,6.407403E-1,-8.733752E-2,-5.2100018E-2,-1.0379368E0,2.8599E-1,8.8109416E-1,-3.8725123E-1,8.749661E-1,5.6998674E-3,-5.1643163E-2,2.109406E-2,-5.384159E-2,1.2477292E0,6.000613E-1,-7.337744E-3,-1.1577697E0,1.4526472E0,3.6266628E-1,-1.9969614E-1,1.6160752E-1,4.733072E-2,8.7558156E-1,5.287602E-3,6.342418E-1,-2.545426E-1,9.042726E-1,5.885495E-3,-4.2116933E-2,5.127741E-2,1.972301E-2,2.9148346E-2,-4.28901E-3,-1.6101742E-2,1.2902422E-1,8.658726E-3,-3.0202789E-3,1.03939995E-2,3.0542847E-2,1.051779E-3,7.6882017E-1,-5.295137E-1,4.3475833E-2,7.796619E-4,3.60536E-2,5.0784316E-4,5.0875493E-3,2.9699543E-2,3.6364898E-1,-1.799968E-1,-2.765951E-2,2.301737E-1,-2.1612129E-1,-9.943212E-3,1.903811E-2,-1.7241633E-2,1.5111923E-2,2.5977159E-2,1.4683798E-2,-1.0491539E-2,1.5387571E-3,3.943039E-3,-3.4384888E-3],"categories":[],"categories_nodes":[],"categories_segments":[],"categories_sizes":[],"default_left":[0,0,0,0,0,0,0,0,0,0,0,0,0,0,0,0,0,0,0,0,0,0,0,0,0,0,0,0,0,0,0,0,0,0,0,0,0,0,0,0,0,0,0,0,0,0,0,0,0,0,0,0,0,0,0,0,0,0,0,0,0,0,0,0,0],"id":1,"left_children":[1,3,5,7,9,-1,11,13,15,17,19,-1,-1,-1,21,23,25,27,29,31,33,35,37,-1,39,-1,41,43,45,-1,-1,-1,-1,-1,-1,-1,47,-1,-1,-1,-1,-1,49,51,53,-1,-1,-1,-1,-1,55,57,-1,59,61,-1,-1,-1,-1,63,-1,-1,-1,-1,-1],"loss_changes":[7.649256E1,2.1125256E1,2.1119995E0,6.3685493E0,2.3861975E1,0E0,2.1451794E1,5.595681E0,3.5438385E0,1.8337616E1,4.936263E0,0E0,0E0,0E0,7.362907E-1,5.9176636E-1,2.1388721E-1,1.023587E1,1.0426157E1,2.8962135E-1,4.72768E0,1.8202348E0,4.440899E-1,0E0,8.106499E-1,0E0,2.09418E0,2.9638367E0,3.2161012E0,0E0,0E0,0E0,0E0,0E0,0E0,0E0,4.5488343E-2,0E0,0E0,0E0,0E0,0E0,1.9289341E0,2.7051005E0,9.901484E-1,0E0,0E0,0E0,0E0,0E0,3.081601E0,4.56168E0,0E0,6.818038E-1,4.1045663E-1,0E0,0E0,0E0,0E0,1.7848355E-1,0E0,0E0,0E0,0E0,0E0],"parents":[2147483647,0,0,1,1,2,2,3,3,4,4,6,6,7,7,8,8,9,9,10,10,14,14,15,15,16,16,17,17,18,18,19,19,20,20,21,21,22,22,24,24,26,26,27,27,28,28,36,36,42,42,43,43,44,44,50,50,51,51,53,53,54,54,59,59],"right_children":[2,4,6,8,10,-1,12,14,16,18,20,-1,-1,-1,22,24,26,28,30,32,34,36,38,-1,40,-1,42,44,46,-1,-1,-1,-1,-1,-1,-1,48,-1,-1,-1,-1,-1,50,52,54,-1,-1,-1,-1,-1,56,58,-1,60,62,-1,-1,-1,-1,64,-1,-1,-1,-1,-1],"split_conditions":[7.203E-1,3.429E-1,8.38241E-1,9.0238795E-2,6.211717E-1,-5.2100018E-2,9.336717E-1,2.4927516E-1,2.276E-1,6.88E-1,7.823E-1,5.6998674E-3,-5.1643163E-2,2.109406E-2,2.67E-2,1.363616E-1,1.2057172E-1,5.568838E-1,4.381E-1,6.836717E-1,6.295105E-1,3.805981E-1,4.9742985E-1,4.733072E-2,2.0397838E-2,5.287602E-3,3.549095E-1,4.318E-1,5.42646E-1,5.885495E-3,-4.2116933E-2,5.127741E-2,1.972301E-2,2.9148346E-2,-4.28901E-3,-1.6101742E-2,6.2662745E-1,8.658726E-3,-3.0202789E-3,1.03939995E-2,3.0542847E-2,1.051779E-3,5.6111985E-1,2.158042E-1,6.208E-1,7.796619E-4,3.60536E-2,5.0784316E-4,5.0875493E-3,2.9699543E-2,7.267128E-1,1.2768334E-1,-2.765951E-2,5.900344E-1,6.481033E-1,-9.943212E-3,1.903811E-2,-1.7241633E-2,1.5111923E-2,5.032E-1,1.4683798E-2,-1.0491539E-2,1.5387571E-3,3.943039E-3,-3.4384888E-3],"split_indices":[1,1,1,1,1,0,1,2,2,2,2,0,0,0,1,1,1,1,1,1,1,2,2,0,2,0,2,2,2,0,0,0,0,0,0,0,2,0,0,0,0,0,2,2,2,0,0,0,0,0,2,2,0,2,2,0,0,0,0,2,0,0,0,0,0],"split_type":[0,0,0,0,0,0,0,0,0,0,0,0,0,0,0,0,0,0,0,0,0,0,0,0,0,0,0,0,0,0,0,0,0,0,0,0,0,0,0,0,0,0,0,0,0,0,0,0,0,0,0,0,0,0,0,0,0,0,0,0,0,0,0,0,0],"sum_hessian":[1.87E2,1.57E2,3E1,7.8E1,7.9E1,1.1E1,1.9E1,3.3E1,4.5E1,6.1E1,1.8E1,8E0,1.1E1,1.3E1,2E1,1.7E1,2.8E1,4.2E1,1.9E1,7E0,1.1E1,1.2E1,8E0,5E0,1.2E1,3E0,2.5E1,3.4E1,8E0,4E0,1.5E1,3E0,4E0,4E0,7E0,5E0,7E0,5E0,3E0,5E0,7E0,5E0,2E1,1.7E1,1.7E1,3E0,5E0,3E0,4E0,1E1,1E1,1.1E1,6E0,1E1,7E0,3E0,7E0,7E0,4E0,7E0,3E0,4E0,3E0,4E0,3E0],"tree_param":{"num_deleted":"0","num_feature":"3","num_nodes":"65","size_leaf_vector":"1"}},{"base_weights":[-5.9598475E-3,2.7735844E-1,-1.4242895E0,6.407403E-1,-8.733752E-2,-5.2100018E-2,-1.0379368E0,2.8599E-1,8.8109416E-1,-3.8725123E-1,8.749661E-1,5.6998674E-3,-5.1643163E-2,2.109406E-2,-5.384159E-2,1.2477292E0,6.000613E-1,-7.337744E-3,-1.1577697E0,1.4526472E0,3.6266628E-1,-1.9969614E-1,1.6160752E-1,4.733072E-2,8.7558156E-1,5.287602E-3,6.342418E-1,-2.545426E-1,9.042726E-1,5.885495E-3,-4.2116933E-2,5.127741E-2,1.972301E-2,2.9148346E-2,-4.28901E-3,-1.6101742E-2,1.2902422E-1,8.658726E-3,-3.0202789E-3,1.03939995E-2,3.0542847E-2,1.051779E-3,7.6882017E-1,-5.295137E-1,4.3475833E-2,7.796619E-4,3.60536E-2,5.0784316E-4,5.0875493E-3,2.9699543E-2,3.6364898E-1,-1.799968E-1,-2.765951E-2,2.301737E-1,-2.1612129E-1,-9.943212E-3,1.903811E-2,-1.7241633E-2,1.5111923E-2,2.5977159E-2,1.4683798E-2,-1.0491539E-2,1.5387571E-3,3.943039E-3,-3.4384888E-3],"categories":[],"categories_nodes":[],"categories_segments":[],"categories_sizes":[],"default_left":[0,0,0,0,0,0,0,0,0,0,0,0,0,0,0,0,0,0,0,0,0,0,0,0,0,0,0,0,0,0,0,0,0,0,0,0,0,0,0,0,0,0,0,0,0,0,0,0,0,0,0,0,0,0,0,0,0,0,0,0,0,0,0,0,0],"id":2,"left_children":[1,3,5,7,9,-1,11,13,15,17,19,-1,-1,-1,21,23,25,27,29,31,33,35,37,-1,39,-1,41,43,45,-1,-1,-1,-1,-1,-1,-1,47,-1,-1,-1,-1,-1,49,51,53,-1,-1,-1,-1,-1,55,57,-1,59,61,-1,-1,-1,-1,63,-1,-1,-1,-1,-1],"loss_changes":[7.649256E1,2.1125256E1,2.1119995E0,6.3685493E0,2.3861975E1,0E0,2.1451794E1,5.595681E0,3.5438385E0,1.8337616E1,4.936263E0,0E0,0E0,0E0,7.362907E-1,5.9176636E-1,2.1388721E-1,1.023587E1,1.0426157E1,2.8962135E-1,4.72768E0,1.8202348E0,4.440899E-1,0E0,8.106499E-1,0E0,2.09418E0,2.9638367E0,3.2161012E0,0E0,0E0,0E0,0E0,0E0,0E0,0E0,4.5488343E-2,0E0,0E0,0E0,0E0,0E0,1.9289341E0,2.7051005E0,9.901484E-1,0E0,0E0,0E0,0E0,0E0,3.081601E0,4.56168E0,0E0,6.818038E-1,4.1045663E-1,0E0,0E0,0E0,0E0,1.7848355E-1,0E0,0E0,0E0,0E0,0E0],"parents":[2147483647,0,0,1,1,2,2,3,3,4,4,6,6,7,7,8,8,9,9,10,10,14,14,15,15,16,16,17,17,18,18,19,19,20,20,21,21,22,22,24,24,26,26,27,27,28,28,36,36,42,42,43,43,44,44,50,50,51,51,53,53,54,54,59,59],"right_children":[2,4,6,8,10,-1,12,14,16,18,20,-1,-1,-1,22,24,26,28,30,32,34,36,38,-1,40,-1,42,44,46,-1,-1,-1,-1,-1,-1,-1,48,-1,-1,-1,-1,-1,50,52,54,-1,-1,-1,-1,-1,56,58,-1,60,62,-1,-1,-1,-1,64,-1,-1,-1,-1,-1],"split_conditions":[7.203E-1,3.429E-1,8.38241E-1,9.0238795E-2,6.211717E-1,-5.2100018E-2,9.336717E-1,2.4927516E-1,2.276E-1,6.88E-1,7.823E-1,5.6998674E-3,-5.1643163E-2,2.109406E-2,2.67E-2,1.363616E-1,1.2057172E-1,5.568838E-1,4.381E-1,6.836717E-1,6.295105E-1,3.805981E-1,4.9742985E-1,4.733072E-2,2.0397838E-2,5.287602E-3,3.549095E-1,4.318E-1,5.42646E-1,5.885495E-3,-4.2116933E-2,5.127741E-2,1.972301E-2,2.9148346E-2,-4.28901E-3,-1.6101742E-2,6.2662745E-1,8.658726E-3,-3.0202789E-3,1.03939995E-2,3.0542847E-2,1.051779E-3,5.6111985E-1,2.158042E-1,6.208E-1,7.796619E-4,3.60536E-2,5.0784316E-4,5.0875493E-3,2.9699543E-2,7.267128E-1,1.2768334E-1,-2.765951E-2,5.900344E-1,6.481033E-1,-9.943212E-3,1.903811E-2,-1.7241633E-2,1.5111923E-2,5.032E-1,1.4683798E-2,-1.0491539E-2,1.5387571E-3,3.943039E-3,-3.4384888E-3],"split_indices":[1,1,1,1,1,0,1,2,2,2,2,0,0,0,1,1,1,1,1,1,1,2,2,0,2,0,2,2,2,0,0,0,0,0,0,0,2,0,0,0,0,0,2,2,2,0,0,0,0,0,2,2,0,2,2,0,0,0,0,2,0,0,0,0,0],"split_type":[0,0,0,0,0,0,0,0,0,0,0,0,0,0,0,0,0,0,0,0,0,0,0,0,0,0,0,0,0,0,0,0,0,0,0,0,0,0,0,0,0,0,0,0,0,0,0,0,0,0,0,0,0,0,0,0,0,0,0,0,0,0,0,0,0],"sum_hessian":[1.87E2,1.57E2,3E1,7.8E1,7.9E1,1.1E1,1.9E1,3.3E1,4.5E1,6.1E1,1.8E1,8E0,1.1E1,1.3E1,2E1,1.7E1,2.8E1,4.2E1,1.9E1,7E0,1.1E1,1.2E1,8E0,5E0,1.2E1,3E0,2.5E1,3.4E1,8E0,4E0,1.5E1,3E0,4E0,4E0,7E0,5E0,7E0,5E0,3E0,5E0,7E0,5E0,2E1,1.7E1,1.7E1,3E0,5E0,3E0,4E0,1E1,1E1,1.1E1,6E0,1E1,7E0,3E0,7E0,7E0,4E0,7E0,3E0,4E0,3E0,4E0,3E0],"tree_param":{"num_deleted":"0","num_feature":"3","num_nodes":"65","size_leaf_vector":"1"}},{"base_weights":[-5.9598475E-3,2.7735844E-1,-1.4242895E0,6.407403E-1,-8.733752E-2,-5.2100018E-2,-1.0379368E0,2.8599E-1,8.8109416E-1,-3.8725123E-1,8.749661E-1,5.6998674E-3,-5.1643163E-2,2.109406E-2,-5.384159E-2,1.2477292E0,6.000613E-1,-7.337744E-3,-1.1577697E0,1.4526472E0,3.6266628E-1,-1.9969614E-1,1.6160752E-1,4.733072E-2,8.7558156E-1,5.287602E-3,6.342418E-1,-2.545426E-1,9.042726E-1,5.885495E-3,-4.2116933E-2,5.127741E-2,1.972301E-2,2.9148346E-2,-4.28901E-3,-1.6101742E-2,1.2902422E-1,8.658726E-3,-3.0202789E-3,1.03939995E-2,3.0542847E-2,1.051779E-3,7.6882017E-1,-5.295137E-1,4.3475833E-2,7.796619E-4,3.60536E-2,5.0784316E-4,5.0875493E-3,2.9699543E-2,3.6364898E-1,-1.799968E-1,-2.765951E-2,2.301737E-1,-2.1612129E-1,-9.943212E-3,1.903811E-2,-1.7241633E-2,1.5111923E-2,2.5977159E-2,1.4683798E-2,-1.0491539E-2,1.5387571E-3,3.943039E-3,-3.4384888E-3],"categories":[],"categories_nodes":[],"categories_segments":[],"categories_sizes":[],"default_left":[0,0,0,0,0,0,0,0,0,0,0,0,0,0,0,0,0,0,0,0,0,0,0,0,0,0,0,0,0,0,0,0,0,0,0,0,0,0,0,0,0,0,0,0,0,0,0,0,0,0,0,0,0,0,0,0,0,0,0,0,0,0,0,0,0],"id":3,"left_children":[1,3,5,7,9,-1,11,13,15,17,19,-1,-1,-1,21,23,25,27,29,31,33,35,37,-1,39,-1,41,43,45,-1,-1,-1,-1,-1,-1,-1,47,-1,-1,-1,-1,-1,49,51,53,-1,-1,-1,-1,-1,55,57,-1,59,61,-1,-1,-1,-1,63,-1,-1,-1,-1,-1],"loss_changes":[7.649256E1,2.1125256E1,2.1119995E0,6.3685493E0,2.3861975E1,0E0,2.1451794E1,5.595681E0,3.5438385E0,1.8337616E1,4.936263E0,0E0,0E0,0E0,7.362907E-1,5.9176636E-1,2.1388721E-1,1.023587E1,1.0426157E1,2.8962135E-1,4.72768E0,1.8202348E0,4.440899E-1,0E0,8.106499E-1,0E0,2.09418E0,2.9638367E0,3.2161012E0,0E0,0E0,0E0,0E0,0E0,0E0,0E0,4.5488343E-2,0E0,0E0,0E0,0E0,0E0,1.9289341E0,2.7051005E0,9.901484E-1,0E0,0E0,0E0,0E0,0E0,3.081601E0,4.56168E0,0E0,6.818038E-1,4.1045663E-1,0E0,0E0,0E0,0E0,1.7848355E-1,0E0,0E0,0E0,0E0,0E0],"parents":[2147483647,0,0,1,1,2,2,3,3,4,4,6,6,7,7,8,8,9,9,10,10,14,14,15,15,16,16,17,17,18,18,19,19,20,20,21,21,22,22,24,24,26,26,27,27,28,28,36,36,42,42,43,43,44,44,50,50,51,51,53,53,54,54,59,59],"right_children":[2,4,6,8,10,-1,12,14,16,18,20,-1,-1,-1,22,24,26,28,30,32,34,36,38,-1,40,-1,42,44,46,-1,-1,-1,-1,-1,-1,-1,48,-1,-1,-1,-1,-1,50,52,54,-1,-1,-1,-1,-1,56,58,-1,60,62,-1,-1,-1,-1,64,-1,-1,-1,-1,-1],"split_conditions":[7.203E-1,3.429E-1,8.38241E-1,9.0238795E-2,6.211717E-1,-5.2100018E-2,9.336717E-1,2.4927516E-1,2.276E-1,6.88E-1,7.823E-1,5.6998674E-3,-5.1643163E-2,2.109406E-2,2.67E-2,1.363616E-1,1.2057172E-1,5.568838E-1,4.381E-1,6.836717E-1,6.295105E-1,3.805981E-1,4.9742985E-1,4.733072E-2,2.0397838E-2,5.287602E-3,3.549095E-1,4.318E-1,5.42646E-1,5.885495E-3,-4.2116933E-2,5.127741E-2,1.972301E-2,2.9148346E-2,-4.28901E-3,-1.6101742E-2,6.2662745E-1,8.658726E-3,-3.0202789E-3,1.03939995E-2,3.0542847E-2,1.051779E-3,5.6111985E-1,2.158042E-1,6.208E-1,7.796619E-4,3.60536E-2,5.0784316E-4,5.0875493E-3,2.9699543E-2,7.267128E-1,1.2768334E-1,-2.765951E-2,5.900344E-1,6.481033E-1,-9.943212E-3,1.903811E-2,-1.7241633E-2,1.5111923E-2,5.032E-1,1.4683798E-2,-1.0491539E-2,1.5387571E-3,3.943039E-3,-3.4384888E-3],"split_indices":[1,1,1,1,1,0,1,2,2,2,2,0,0,0,1,1,1,1,1,1,1,2,2,0,2,0,2,2,2,0,0,0,0,0,0,0,2,0,0,0,0,0,2,2,2,0,0,0,0,0,2,2,0,2,2,0,0,0,0,2,0,0,0,0,0],"split_type":[0,0,0,0,0,0,0,0,0,0,0,0,0,0,0,0,0,0,0,0,0,0,0,0,0,0,0,0,0,0,0,0,0,0,0,0,0,0,0,0,0,0,0,0,0,0,0,0,0,0,0,0,0,0,0,0,0,0,0,0,0,0,0,0,0],"sum_hessian":[1.87E2,1.57E2,3E1,7.8E1,7.9E1,1.1E1,1.9E1,3.3E1,4.5E1,6.1E1,1.8E1,8E0,1.1E1,1.3E1,2E1,1.7E1,2.8E1,4.2E1,1.9E1,7E0,1.1E1,1.2E1,8E0,5E0,1.2E1,3E0,2.5E1,3.4E1,8E0,4E0,1.5E1,3E0,4E0,4E0,7E0,5E0,7E0,5E0,3E0,5E0,7E0,5E0,2E1,1.7E1,1.7E1,3E0,5E0,3E0,4E0,1E1,1E1,1.1E1,6E0,1E1,7E0,3E0,7E0,7E0,4E0,7E0,3E0,4E0,3E0,4E0,3E0],"tree_param":{"num_deleted":"0","num_feature":"3","num_nodes":"65","size_leaf_vector":"1"}},{"base_weights":[-5.9598475E-3,2.7735844E-1,-1.4242895E0,6.407403E-1,-8.733752E-2,-5.2100018E-2,-1.0379368E0,2.8599E-1,8.8109416E-1,-3.8725123E-1,8.749661E-1,5.6998674E-3,-5.1643163E-2,2.109406E-2,-5.384159E-2,1.2477292E0,6.000613E-1,-7.337744E-3,-1.1577697E0,1.4526472E0,3.6266628E-1,-1.9969614E-1,1.6160752E-1,4.733072E-2,8.7558156E-1,5.287602E-3,6.342418E-1,-2.545426E-1,9.042726E-1,5.885495E-3,-4.2116933E-2,5.127741E-2,1.972301E-2,2.9148346E-2,-4.28901E-3,-1.6101742E-2,1.2902422E-1,8.658726E-3,-3.0202789E-3,1.03939995E-2,3.0542847E-2,1.051779E-3,7.6882017E-1,-5.295137E-1,4.3475833E-2,7.796619E-4,3.60536E-2,5.0784316E-4,5.0875493E-3,2.9699543E-2,3.6364898E-1,-1.799968E-1,-2.765951E-2,2.301737E-1,-2.1612129E-1,-9.943212E-3,1.903811E-2,-1.7241633E-2,1.5111923E-2,2.5977159E-2,1.4683798E-2,-1.0491539E-2,1.5387571E-3,3.943039E-3,-3.4384888E-3],"categories":[],"categories_nodes":[],"categories_segments":[],"categories_sizes":[],"default_left":[0,0,0,0,0,0,0,0,0,0,0,0,0,0,0,0,0,0,0,0,0,0,0,0,0,0,0,0,0,0,0,0,0,0,0,0,0,0,0,0,0,0,0,0,0,0,0,0,0,0,0,0,0,0,0,0,0,0,0,0,0,0,0,0,0],"id":4,"left_children":[1,3,5,7,9,-1,11,13,15,17,19,-1,-1,-1,21,23,25,27,29,31,33,35,37,-1,39,-1,41,43,45,-1,-1,-1,-1,-1,-1,-1,47,-1,-1,-1,-1,-1,49,51,53,-1,-1,-1,-1,-1,55,57,-1,59,61,-1,-1,-1,-1,63,-1,-1,-1,-1,-1],"loss_changes":[7.649256E1,2.1125256E1,2.1119995E0,6.3685493E0,2.3861975E1,0E0,2.1451794E1,5.595681E0,3.5438385E0,1.8337616E1,4.936263E0,0E0,0E0,0E0,7.362907E-1,5.9176636E-1,2.1388721E-1,1.023587E1,1.0426157E1,2.8962135E-1,4.72768E0,1.8202348E0,4.440899E-1,0E0,8.106499E-1,0E0,2.09418E0,2.9638367E0,3.2161012E0,0E0,0E0,0E0,0E0,0E0,0E0,0E0,4.5488343E-2,0E0,0E0,0E0,0E0,0E0,1.9289341E0,2.7051005E0,9.901484E-1,0E0,0E0,0E0,0E0,0E0,3.081601E0,4.56168E0,0E0,6.818038E-1,4.1045663E-1,0E0,0E0,0E0,0E0,1.7848355E-1,0E0,0E0,0E0,0E0,0E0],"parents":[2147483647,0,0,1,1,2,2,3,3,4,4,6,6,7,7,8,8,9,9,10,10,14,14,15,15,16,16,17,17,18,18,19,19,20,20,21,21,22,22,24,24,26,26,27,27,28,28,36,36,42,42,43,43,44,44,50,50,51,51,53,53,54,54,59,59],"right_children":[2,4,6,8,10,-1,12,14,16,18,20,-1,-1,-1,22,24,26,28,30,32,34,36,38,-1,40,-1,42,44,46,-1,-1,-1,-1,-1,-1,-1,48,-1,-1,-1,-1,-1,50,52,54,-1,-1,-1,-1,-1,56,58,-1,60,62,-1,-1,-1,-1,64,-1,-1,-1,-1,-1],"split_conditions":[7.203E-1,3.429E-1,8.38241E-1,9.0238795E-2,6.211717E-1,-5.2100018E-2,9.336717E-1,2.4927516E-1,2.276E-1,6.88E-1,7.823E-1,5.6998674E-3,-5.1643163E-2,2.109406E-2,2.67E-2,1.363616E-1,1.2057172E-1,5.568838E-1,4.381E-1,6.836717E-1,6.295105E-1,3.805981E-1,4.9742985E-1,4.733072E-2,2.0397838E-2,5.287602E-3,3.549095E-1,4.318E-1,5.42646E-1,5.885495E-3,-4.2116933E-2,5.127741E-2,1.972301E-2,2.9148346E-2,-4.28901E-3,-1.6101742E-2,6.2662745E-1,8.658726E-3,-3.0202789E-3,1.03939995E-2,3.0542847E-2,1.051779E-3,5.6111985E-1,2.158042E-1,6.208E-1,7.796619E-4,3.60536E-2,5.0784316E-4,5.0875493E-3,2.9699543E-2,7.267128E-1,1.2768334E-1,-2.765951E-2,5.900344E-1,6.481033E-1,-9.943212E-3,1.903811E-2,-1.7241633E-2,1.5111923E-2,5.032E-1,1.4683798E-2,-1.0491539E-2,1.5387571E-3,3.943039E-3,-3.4384888E-3],"split_indices":[1,1,1,1,1,0,1,2,2,2,2,0,0,0,1,1,1,1,1,1,1,2,2,0,2,0,2,2,2,0,0,0,0,0,0,0,2,0,0,0,0,0,2,2,2,0,0,0,0,0,2,2,0,2,2,0,0,0,0,2,0,0,0,0,0],"split_type":[0,0,0,0,0,0,0,0,0,0,0,0,0,0,0,0,0,0,0,0,0,0,0,0,0,0,0,0,0,0,0,0,0,0,0,0,0,0,0,0,0,0,0,0,0,0,0,0,0,0,0,0,0,0,0,0,0,0,0,0,0,0,0,0,0],"sum_hessian":[1.87E2,1.57E2,3E1,7.8E1,7.9E1,1.1E1,1.9E1,3.3E1,4.5E1,6.1E1,1.8E1,8E0,1.1E1,1.3E1,2E1,1.7E1,2.8E1,4.2E1,1.9E1,7E0,1.1E1,1.2E1,8E0,5E0,1.2E1,3E0,2.5E1,3.4E1,8E0,4E0,1.5E1,3E0,4E0,4E0,7E0,5E0,7E0,5E0,3E0,5E0,7E0,5E0,2E1,1.7E1,1.7E1,3E0,5E0,3E0,4E0,1E1,1E1,1.1E1,6E0,1E1,7E0,3E0,7E0,7E0,4E0,7E0,3E0,4E0,3E0,4E0,3E0],"tree_param":{"num_deleted":"0","num_feature":"3","num_nodes":"65","size_leaf_vector":"1"}},{"base_weights":[-1.9907237E-3,6.5619653E-1,-6.329151E-1,3.5686813E-2,4.7767E-1,-4.0939817E-1,-1.420369E0,4.0338475E-1,4.0252913E-2,-7.168394E-1,-1.0003961E-1,-1.018719E0,-5.2400995E-2,5.7546073E-1,-7.978206E-1,-5.2523226E-1,-3.349223E-2,3.751735E-1,-3.7307376E-1,-1.1474977E-2,-4.1410916E-2,6.959546E-1,2.8786626E-1,-1.0024894E-2,-3.175712E-2,-8.657881E-1,1.412064E-2,-1.0389045E-2,6.845016E-1,-1.4696942E-1,-6.028723E-1,1.393249E-1,7.9571897E-1,-2.8376964E-1,6.569273E-1,-1.1550903E0,-4.6103656E-1,4.9124504E-3,2.5441902E-2,3.1392598E-3,-7.992935E-3,9.2203375E-3,-3.0639868E-2,1.4546618E-3,4.7466457E-3,2.4801776E-2,9.0261264E-4,-1.2820373E-2,1.9037816E-3,2.3841236E-2,-7.5409136E-4,-1.1154522E-2,-3.687284E-2,2.646308E-3,-4.0317096E-2],"categories":[],"categories_nodes":[],"categories_segments":[],"categories_sizes":[],"default_left":[0,0,0,0,0,0,0,0,0,0,0,0,0,0,0,0,0,0,0,0,0,0,0,0,0,0,0,0,0,0,0,0,0,0,0,0,0,0,0,0,0,0,0,0,0,0,0,0,0,0,0,0,0,0,0],"id":5,"left_children":[1,3,5,-1,7,9,11,13,-1,15,17,19,-1,21,23,25,-1,27,29,-1,-1,31,33,-1,-1,35,-1,-1,37,39,41,43,45,47,49,51,53,-1,-1,-1,-1,-1,-1,-1,-1,-1,-1,-1,-1,-1,-1,-1,-1,-1,-1],"loss_changes":[7.864532E1,9.239761E0,1.60346E1,0E0,4.3579845E0,7.267926E0,5.457001E-1,1.5595784E1,0E0,2.5049458E0,5.516721E0,3.1074715E0,0E0,1.868082E0,7.508378E-1,1.1511637E1,0E0,4.0562754E0,1.2369387E0,0E0,0E0,2.2386875E0,4.89194E0,0E0,0E0,1.8729668E0,0E0,0E0,1.0726223E0,6.201011E-1,6.4547157E0,8.190185E-3,2.5211372E0,6.4964855E-1,1.8758502E0,6.8507767E-1,7.1548457E0,0E0,0E0,0E0,0E0,0E0,0E0,0E0,0E0,0E0,0E0,0E0,0E0,0E0,0E0,0E0,0E0,0E0,0E0],"parents":[2147483647,0,0,1,1,2,2,4,4,5,5,6,6,7,7,9,9,10,10,11,11,13,13,14,14,15,15,17,17,18,18,21,21,22,22,25,25,28,28,29,29,30,30,31,31,32,32,33,33,34,34,35,35,36,36],"right_children":[2,4,6,-1,8,10,12,14,-1,16,18,20,-1,22,24,26,-1,28,30,-1,-1,32,34,-1,-1,36,-1,-1,38,40,42,44,46,48,50,52,54,-1,-1,-1,-1,-1,-1,-1,-1,-1,-1,-1,-1,-1,-1,-1,-1,-1,-1],"split_conditions":[3.589E-1,2E-4,8.939129E-1,3.5686813E-2,3.577618E-1,5.6288713E-1,9.9990773E-1,7.1290797E-1,4.0252913E-2,7.203E-1,2.2792616E-1,4.381E-1,-5.2400995E-2,3.562E-1,8.949322E-1,6.579E-1,-3.349223E-2,8.6E-3,5.88241E-1,-1.1474977E-2,-4.1410916E-2,5.52E-2,1.9927286E-1,-1.0024894E-2,-3.175712E-2,4.4927284E-1,1.412064E-2,-1.0389045E-2,7.952618E-1,6.299707E-1,5.985E-1,2.85E-2,3.1173685E-1,1.4633453E-1,3.0460772E-1,3.673E-1,5.458823E-1,4.9124504E-3,2.5441902E-2,3.1392598E-3,-7.992935E-3,9.2203375E-3,-3.0639868E-2,1.4546618E-3,4.7466457E-3,2.4801776E-2,9.0261264E-4,-1.2820373E-2,1.9037816E-3,2.3841236E-2,-7.5409136E-4,-1.1154522E-2,-3.687284E-2,2.646308E-3,-4.0317096E-2],"split_indices":[0,0,0,0,0,0,0,1,0,1,1,1,0,1,1,1,0,1,1,0,0,0,0,0,0,0,0,0,0,0,0,0,0,0,0,0,0,0,0,0,0,0,0,0,0,0,0,0,0,0,0,0,0,0,0],"split_type":[0,0,0,0,0,0,0,0,0,0,0,0,0,0,0,0,0,0,0,0,0,0,0,0,0,0,0,0,0,0,0,0,0,0,0,0,0,0,0,0,0,0,0,0,0,0,0,0,0,0,0,0,0,0,0],"sum_hessian":[1.86E2,9.1E1,9.5E1,1.8E1,7.3E1,7.6E1,1.9E1,7E1,3E0,3.7E1,3.9E1,1.3E1,6E0,6.2E1,8E0,2.9E1,8E0,1.4E1,2.5E1,7E0,6E0,4.2E1,2E1,5E0,3E0,2.2E1,7E0,4E0,1E1,1.4E1,1.1E1,7E0,3.5E1,8E0,1.2E1,1.1E1,1.1E1,4E0,6E0,5E0,9E0,4E0,7E0,3E0,4E0,3.1E1,4E0,5E0,3E0,9E0,3E0,3E0,8E0,8E0,3E0],"tree_param":{"num_deleted":"0","num_feature":"3","num_nodes":"55","size_leaf_vector":"1"}},{"base_weights":[-1.9907237E-3,6.5619653E-1,-6.329151E-1,3.5686813E-2,4.7767E-1,-4.0939817E-1,-1.420369E0,4.0338475E-1,4.0252913E-2,-7.168394E-1,-1.0003961E-1,-1.018719E0,-5.2400995E-2,5.7546073E-1,-7.978206E-1,-5.2523226E-1,-3.349223E-2,3.751735E-1,-3.7307376E-1,-1.1474977E-2,-4.1410916E-2,6.959546E-1,2.8786626E-1,-1.0024894E-2,-3.175712E-2,-8.657881E-1,1.412064E-2,-1.0389045E-2,6.845016E-1,-1.4696942E-1,-6.028723E-1,1.393249E-1,7.9571897E-1,-2.8376964E-1,6.569273E-1,-1.1550903E0,-4.6103656E-1,4.9124504E-3,2.5441902E-2,3.1392598E-3,-7.992935E-3,9.2203375E-3,-3.0639868E-2,1.4546618E-3,4.7466457E-3,2.4801776E-2,9.0261264E-4,-1.2820373E-2,1.9037816E-3,2.3841236E-2,-7.5409136E-4,-1.1154522E-2,-3.687284E-2,2.646308E-3,-4.0317096E-2],"categories":[],"categories_nodes":[],"categories_segments":[],"categories_sizes":[],"default_left":[0,0,0,0,0,0,0,0,0,0,0,0,0,0,0,0,0,0,0,0,0,0,0,0,0,0,0,0,0,0,0,0,0,0,0,0,0,0,0,0,0,0,0,0,0,0,0,0,0,0,0,0,0,0,0],"id":6,"left_children":[1,3,5,-1,7,9,11,13,-1,15,17,19,-1,21,23,25,-1,27,29,-1,-1,31,33,-1,-1,35,-1,-1,37,39,41,43,45,47,49,51,53,-1,-1,-1,-1,-1,-1,-1,-1,-1,-1,-1,-1,-1,-1,-1,-1,-1,-1],"loss_changes":[7.864532E1,9.239761E0,1.60346E1,0E0,4.3579845E0,7.267926E0,5.457001E-1,1.5595784E1,0E0,2.5049458E0,5.516721E0,3.1074715E0,0E0,1.868082E0,7.508378E-1,1.1511637E1,0E0,4.0562754E0,1.2369387E0,0E0,0E0,2.2386875E0,4.89194E0,0E0,0E0,1.8729668E0,0E0,0E0,1.0726223E0,6.201011E-1,6.4547157E0,8.190185E-3,2.5211372E0,6.4964855E-1,1.8758502E0,6.8507767E-1,7.1548457E0,0E0,0E0,0E0,0E0,0E0,0E0,0E0,0E0,0E0,0E0,0E0,0E0,0E0,0E0,0E0,0E0,0E0,0E0],"parents":[2147483647,0,0,1,1,2,2,4,4,5,5,6,6,7,7,9,9,10,10,11,11,13,13,14,14,15,15,17,17,18,18,21,21,22,22,25,25,28,28,29,29,30,30,31,31,32,32,33,33,34,34,35,35,36,36],"right_children":[2,4,6,-1,8,10,12,14,-1,16,18,20,-1,22,24,26,-1,28,30,-1,-1,32,34,-1,-1,36,-1,-1,38,40,42,44,46,48,50,52,54,-1,-1,-1,-1,-1,-1,-1,-1,-1,-1,-1,-1,-1,-1,-1,-1,-1,-1],"split_conditions":[3.589E-1,2E-4,8.939129E-1,3.5686813E-2,3.577618E-1,5.6288713E-1,9.9990773E-1,7.1290797E-1,4.0252913E-2,7.203E-1,2.2792616E-1,4.381E-1,-5.2400995E-2,3.562E-1,8.949322E-1,6.579E-1,-3.349223E-2,8.6E-3,5.88241E-1,-1.1474977E-2,-4.1410916E-2,5.52E-2,1.9927286E-1,-1.0024894E-2,-3.175712E-2,4.4927284E-1,1.412064E-2,-1.0389045E-2,7.952618E-1,6.299707E-1,5.985E-1,2.85E-2,3.1173685E-1,1.4633453E-1,3.0460772E-1,3.673E-1,5.458823E-1,4.9124504E-3,2.5441902E-2,3.1392598E-3,-7.992935E-3,9.2203375E-3,-3.0639868E-2,1.4546618E-3,4.7466457E-3,2.4801776E-2,9.0261264E-4,-1.2820373E-2,1.9037816E-3,2.3841236E-2,-7.5409136E-4,-1.1154522E-2,-3.687284E-2,2.646308E-3,-4.0317096E-2],"split_indices":[0,0,0,0,0,0,0,1,0,1,1,1,0,1,1,1,0,1,1,0,0,0,0,0,0,0,0,0,0,0,0,0,0,0,0,0,0,0,0,0,0,0,0,0,0,0,0,0,0,0,0,0,0,0,0],"split_type":[0,0,0,0,0,0,0,0,0,0,0,0,0,0,0,0,0,0,0,0,0,0,0,0,0,0,0,0,0,0,0,0,0,0,0,0,0,0,0,0,0,0,0,0,0,0,0,0,0,0,0,0,0,0,0],"sum_hessian":[1.86E2,9.1E1,9.5E1,1.8E1,7.3E1,7.6E1,1.9E1,7E1,3E0,3.7E1,3.9E1,1.3E1,6E0,6.2E1,8E0,2.9E1,8E0,1.4E1,2.5E1,7E0,6E0,4.2E1,2E1,5E0,3E0,2.2E1,7E0,4E0,1E1,1.4E1,1.1E1,7E0,3.5E1,8E0,1.2E1,1.1E1,1.1E1,4E0,6E0,5E0,9E0,4E0,7E0,3E0,4E0,3.1E1,4E0,5E0,3E0,9E0,3E0,3E0,8E0,8E0,3E0],"tree_param":{"num_deleted":"0","num_feature":"3","num_nodes":"55","size_leaf_vector":"1"}},{"base_weights":[-1.9907237E-3,6.5619653E-1,-6.329151E-1,3.5686813E-2,4.7767E-1,-4.0939817E-1,-1.420369E0,4.0338475E-1,4.0252913E-2,-7.168394E-1,-1.0003961E-1,-1.018719E0,-5.2400995E-2,5.7546073E-1,-7.978206E-1,-5.2523226E-1,-3.349223E-2,3.751735E-1,-3.7307376E-1,-1.1474977E-2,-4.1410916E-2,6.959546E-1,2.8786626E-1,-1.0024894E-2,-3.175712E-2,-8.657881E-1,1.412064E-2,-1.0389045E-2,6.845016E-1,-1.4696942E-1,-6.028723E-1,1.393249E-1,7.9571897E-1,-2.8376964E-1,6.569273E-1,-1.1550903E0,-4.6103656E-1,4.9124504E-3,2.5441902E-2,3.1392598E-3,-7.992935E-3,9.2203375E-3,-3.0639868E-2,1.4546618E-3,4.7466457E-3,2.4801776E-2,9.0261264E-4,-1.2820373E-2,1.9037816E-3,2.3841236E-2,-7.5409136E-4,-1.1154522E-2,-3.687284E-2,2.646308E-3,-4.0317096E-2],"categories":[],"categories_nodes":[],"categories_segments":[],"categories_sizes":[],"default_left":[0,0,0,0,0,0,0,0,0,0,0,0,0,0,0,0,0,0,0,0,0,0,0,0,0,0,0,0,0,0,0,0,0,0,0,0,0,0,0,0,0,0,0,0,0,0,0,0,0,0,0,0,0,0,0],"id":7,"left_children":[1,3,5,-1,7,9,11,13,-1,15,17,19,-1,21,23,25,-1,27,29,-1,-1,31,33,-1,-1,35,-1,-1,37,39,41,43,45,47,49,51,53,-1,-1,-1,-1,-1,-1,-1,-1,-1,-1,-1,-1,-1,-1,-1,-1,-1,-1],"loss_changes":[7.864532E1,9.239761E0,1.60346E1,0E0,4.3579845E0,7.267926E0,5.457001E-1,1.5595784E1,0E0,2.5049458E0,5.516721E0,3.1074715E0,0E0,1.868082E0,7.508378E-1,1.1511637E1,0E0,4.0562754E0,1.2369387E0,0E0,0E0,2.2386875E0,4.89194E0,0E0,0E0,1.8729668E0,0E0,0E0,1.0726223E0,6.201011E-1,6.4547157E0,8.190185E-3,2.5211372E0,6.4964855E-1,1.8758502E0,6.8507767E-1,7.1548457E0,0E0,0E0,0E0,0E0,0E0,0E0,0E0,0E0,0E0,0E0,0E0,0E0,0E0,0E0,0E0,0E0,0E0,0E0],"parents":[2147483647,0,0,1,1,2,2,4,4,5,5,6,6,7,7,9,9,10,10,11,11,13,13,14,14,15,15,17,17,18,18,21,21,22,22,25,25,28,28,29,29,30,30,31,31,32,32,33,33,34,34,35,35,36,36],"right_children":[2,4,6,-1,8,10,12,14,-1,16,18,20,-1,22,24,26,-1,28,30,-1,-1,32,34,-1,-1,36,-1,-1,38,40,42,44,46,48,50,52,54,-1,-1,-1,-1,-1,-1,-1,-1,-1,-1,-1,-1,-1,-1,-1,-1,-1,-1],"split_conditions":[3.589E-1,2E-4,8.939129E-1,3.5686813E-2,3.577618E-1,5.6288713E-1,9.9990773E-1,7.1290797E-1,4.0252913E-2,7.203E-1,2.2792616E-1,4.381E-1,-5.2400995E-2,3.562E-1,8.949322E-1,6.579E-1,-3.349223E-2,8.6E-3,5.88241E-1,-1.1474977E-2,-4.1410916E-2,5.52E-2,1.9927286E-1,-1.0024894E-2,-3.175712E-2,4.4927284E-1,1.412064E-2,-1.0389045E-2,7.952618E-1,6.299707E-1,5.985E-1,2.85E-2,3.1173685E-1,1.4633453E-1,3.0460772E-1,3.673E-1,5.458823E-1,4.9124504E-3,2.5441902E-2,3.1392598E-3,-7.992935E-3,9.2203375E-3,-3.0639868E-2,1.4546618E-3,4.7466457E-3,2.4801776E-2,9.0261264E-4,-1.2820373E-2,1.9037816E-3,2.3841236E-2,-7.5409136E-4,-1.1154522E-2,-3.687284E-2,2.646308E-3,-4.0317096E-2],"split_indices":[0,0,0,0,0,0,0,1,0,1,1,1,0,1,1,1,0,1,1,0,0,0,0,0,0,0,0,0,0,0,0,0,0,0,0,0,0,0,0,0,0,0,0,0,0,0,0,0,0,0,0,0,0,0,0],"split_type":[0,0,0,0,0,0,0,0,0,0,0,0,0,0,0,0,0,0,0,0,0,0,0,0,0,0,0,0,0,0,0,0,0,0,0,0,0,0,0,0,0,0,0,0,0,0,0,0,0,0,0,0,0,0,0],"sum_hessian":[1.86E2,9.1E1,9.5E1,1.8E1,7.3E1,7.6E1,1.9E1,7E1,3E0,3.7E1,3.9E1,1.3E1,6E0,6.2E1,8E0,2.9E1,8E0,1.4E1,2.5E1,7E0,6E0,4.2E1,2E1,5E0,3E0,2.2E1,7E0,4E0,1E1,1.4E1,1.1E1,7E0,3.5E1,8E0,1.2E1,1.1E1,1.1E1,4E0,6E0,5E0,9E0,4E0,7E0,3E0,4E0,3.1E1,4E0,5E0,3E0,9E0,3E0,3E0,8E0,8E0,3E0],"tree_param":{"num_deleted":"0","num_feature":"3","num_nodes":"55","size_leaf_vector":"1"}},{"base_weights":[-1.9907237E-3,6.5619653E-1,-6.329151E-1,3.5686813E-2,4.7767E-1,-4.0939817E-1,-1.420369E0,4.0338475E-1,4.0252913E-2,-7.168394E-1,-1.0003961E-1,-1.018719E0,-5.2400995E-2,5.7546073E-1,-7.978206E-1,-5.2523226E-1,-3.349223E-2,3.751735E-1,-3.7307376E-1,-1.1474977E-2,-4.1410916E-2,6.959546E-1,2.8786626E-1,-1.0024894E-2,-3.175712E-2,-8.657881E-1,1.412064E-2,-1.0389045E-2,6.845016E-1,-1.4696942E-1,-6.028723E-1,1.393249E-1,7.9571897E-1,-2.8376964E-1,6.569273E-1,-1.1550903E0,-4.6103656E-1,4.9124504E-3,2.5441902E-2,3.1392598E-3,-7.992935E-3,9.2203375E-3,-3.0639868E-2,1.4546618E-3,4.7466457E-3,2.4801776E-2,9.0261264E-4,-1.2820373E-2,1.9037816E-3,2.3841236E-2,-7.5409136E-4,-1.1154522E-2,-3.687284E-2,2.646308E-3,-4.0317096E-2],"categories":[],"categories_nodes":[],"categories_segments":[],"categories_sizes":[],"default_left":[0,0,0,0,0,0,0,0,0,0,0,0,0,0,0,0,0,0,0,0,0,0,0,0,0,0,0,0,0,0,0,0,0,0,0,0,0,0,0,0,0,0,0,0,0,0,0,0,0,0,0,0,0,0,0],"id":8,"left_children":[1,3,5,-1,7,9,11,13,-1,15,17,19,-1,21,23,25,-1,27,29,-1,-1,31,33,-1,-1,35,-1,-1,37,39,41,43,45,47,49,51,53,-1,-1,-1,-1,-1,-1,-1,-1,-1,-1,-1,-1,-1,-1,-1,-1,-1,-1],"loss_changes":[7.864532E1,9.239761E0,1.60346E1,0E0,4.3579845E0,7.267926E0,5.457001E-1,1.5595784E1,0E0,2.5049458E0,5.516721E0,3.1074715E0,0E0,1.868082E0,7.508378E-1,1.1511637E1,0E0,4.0562754E0,1.2369387E0,0E0,0E0,2.2386875E0,4.89194E0,0E0,0E0,1.8729668E0,0E0,0E0,1.0726223E0,6.201011E-1,6.4547157E0,8.190185E-3,2.5211372E0,6.4964855E-1,1.8758502E0,6.8507767E-1,7.1548457E0,0E0,0E0,0E0,0E0,0E0,0E0,0E0,0E0,0E0,0E0,0E0,0E0,0E0,0E0,0E0,0E0,0E0,0E0],"parents":[2147483647,0,0,1,1,2,2,4,4,5,5,6,6,7,7,9,9,10,10,11,11,13,13,14,14,15,15,17,17,18,18,21,21,22,22,25,25,28,28,29,29,30,30,31,31,32,32,33,33,34,34,35,35,36,36],"right_children":[2,4,6,-1,8,10,12,14,-1,16,18,20,-1,22,24,26,-1,28,30,-1,-1,32,34,-1,-1,36,-1,-1,38,40,42,44,46,48,50,52,54,-1,-1,-1,-1,-1,-1,-1,-1,-1,-1,-1,-1,-1,-1,-1,-1,-1,-1],"split_conditions":[3.589E-1,2E-4,8.939129E-1,3.5686813E-2,3.577618E-1,5.6288713E-1,9.9990773E-1,7.1290797E-1,4.0252913E-2,7.203E-1,2.2792616E-1,4.381E-1,-5.2400995E-2,3.562E-1,8.949322E-1,6.579E-1,-3.349223E-2,8.6E-3,5.88241E-1,-1.1474977E-2,-4.1410916E-2,5.52E-2,1.9927286E-1,-1.0024894E-2,-3.175712E-2,4.4927284E-1,1.412064E-2,-1.0389045E-2,7.952618E-1,6.299707E-1,5.985E-1,2.85E-2,3.1173685E-1,1.4633453E-1,3.0460772E-1,3.673E-1,5.458823E-1,4.9124504E-3,2.5441902E-2,3.1392598E-3,-7.992935E-3,9.2203375E-3,-3.0639868E-2,1.4546618E-3,4.7466457E-3,2.4801776E-2,9.0261264E-4,-1.2820373E-2,1.9037816E-3,2.3841236E-2,-7.5409136E-4,-1.1154522E-2,-3.687284E-2,2.646308E-3,-4.0317096E-2],"split_indices":[0,0,0,0,0,0,0,1,0,1,1,1,0,1,1,1,0,1,1,0,0,0,0,0,0,0,0,0,0,0,0,0,0,0,0,0,0,0,0,0,0,0,0,0,0,0,0,0,0,0,0,0,0,0,0],"split_type":[0,0,0,0,0,0,0,0,0,0,0,0,0,0,0,0,0,0,0,0,0,0,0,0,0,0,0,0,0,0,0,0,0,0,0,0,0,0,0,0,0,0,0,0,0,0,0,0,0,0,0,0,0,0,0],"sum_hessian":[1.86E2,9.1E1,9.5E1,1.8E1,7.3E1,7.6E1,1.9E1,7E1,3E0,3.7E1,3.9E1,1.3E1,6E0,6.2E1,8E0,2.9E1,8E0,1.4E1,2.5E1,7E0,6E0,4.2E1,2E1,5E0,3E0,2.2E1,7E0,4E0,1E1,1.4E1,1.1E1,7E0,3.5E1,8E0,1.2E1,1.1E1,1.1E1,4E0,6E0,5E0,9E0,4E0,7E0,3E0,4E0,3.1E1,4E0,5E0,3E0,9E0,3E0,3E0,8E0,8E0,3E0],"tree_param":{"num_deleted":"0","num_feature":"3","num_nodes":"55","size_leaf_vector":"1"}},{"base_weights":[-1.9907237E-3,6.5619653E-1,-6.329151E-1,3.5686813E-2,4.7767E-1,-4.0939817E-1,-1.420369E0,4.0338475E-1,4.0252913E-2,-7.168394E-1,-1.0003961E-1,-1.018719E0,-5.2400995E-2,5.7546073E-1,-7.978206E-1,-5.2523226E-1,-3.349223E-2,3.751735E-1,-3.7307376E-1,-1.1474977E-2,-4.1410916E-2,6.959546E-1,2.8786626E-1,-1.0024894E-2,-3.175712E-2,-8.657881E-1,1.412064E-2,-1.0389045E-2,6.845016E-1,-1.4696942E-1,-6.028723E-1,1.393249E-1,7.9571897E-1,-2.8376964E-1,6.569273E-1,-1.1550903E0,-4.6103656E-1,4.9124504E-3,2.5441902E-2,3.1392598E-3,-7.992935E-3,9.2203375E-3,-3.0639868E-2,1.4546618E-3,4.7466457E-3,2.4801776E-2,9.0261264E-4,-1.2820373E-2,1.9037816E-3,2.3841236E-2,-7.5409136E-4,-1.1154522E-2,-3.687284E-2,2.646308E-3,-4.0317096E-2],"categories":[],"categories_nodes":[],"categories_segments":[],"categories_sizes":[],"default_left":[0,0,0,0,0,0,0,0,0,0,0,0,0,0,0,0,0,0,0,0,0,0,0,0,0,0,0,0,0,0,0,0,0,0,0,0,0,0,0,0,0,0,0,0,0,0,0,0,0,0,0,0,0,0,0],"id":9,"left_children":[1,3,5,-1,7,9,11,13,-1,15,17,19,-1,21,23,25,-1,27,29,-1,-1,31,33,-1,-1,35,-1,-1,37,39,41,43,45,47,49,51,53,-1,-1,-1,-1,-1,-1,-1,-1,-1,-1,-1,-1,-1,-1,-1,-1,-1,-1],"loss_changes":[7.864532E1,9.239761E0,1.60346E1,0E0,4.3579845E0,7.267926E0,5.457001E-1,1.5595784E1,0E0,2.5049458E0,5.516721E0,3.1074715E0,0E0,1.868082E0,7.508378E-1,1.1511637E1,0E0,4.0562754E0,1.2369387E0,0E0,0E0,2.2386875E0,4.89194E0,0E0,0E0,1.8729668E0,0E0,0E0,1.0726223E0,6.201011E-1,6.4547157E0,8.190185E-3,2.5211372E0,6.4964855E-1,1.8758502E0,6.8507767E-1,7.1548457E0,0E0,0E0,0E0,0E0,0E0,0E0,0E0,0E0,0E0,0E0,0E0,0E0,0E0,0E0,0E0,0E0,0E0,0E0],"parents":[2147483647,0,0,1,1,2,2,4,4,5,5,6,6,7,7,9,9,10,10,11,11,13,13,14,14,15,15,17,17,18,18,21,21,22,22,25,25,28,28,29,29,30,30,31,31,32,32,33,33,34,34,35,35,36,36],"right_children":[2,4,6,-1,8,10,12,14,-1,16,18,20,-1,22,24,26,-1,28,30,-1,-1,32,34,-1,-1,36,-1,-1,38,40,42,44,46,48,50,52,54,-1,-1,-1,-1,-1,-1,-1,-1,-1,-1,-1,-1,-1,-1,-1,-1,-1,-1],"split_conditions":[3.589E-1,2E-4,8.939129E-1,3.5686813E-2,3.577618E-1,5.6288713E-1,9.9990773E-1,7.1290797E-1,4.0252913E-2,7.203E-1,2.2792616E-1,4.381E-1,-5.2400995E-2,3.562E-1,8.949322E-1,6.579E-1,-3.349223E-2,8.6E-3,5.88241E-1,-1.1474977E-2,-4.1410916E-2,5.52E-2,1.9927286E-1,-1.0024894E-2,-3.175712E-2,4.4927284E-1,1.412064E-2,-1.0389045E-2,7.952618E-1,6.299707E-1,5.985E-1,2.85E-2,3.1173685E-1,1.4633453E-1,3.0460772E-1,3.673E-1,5.458823E-1,4.9124504E-3,2.5441902E-2,3.1392598E-3,-7.992935E-3,9.2203375E-3,-3.0639868E-2,1.4546618E-3,4.7466457E-3,2.4801776E-2,9.0261264E-4,-1.2820373E-2,1.9037816E-3,2.3841236E-2,-7.5409136E-4,-1.1154522E-2,-3.687284E-2,2.646308E-3,-4.0317096E-2],"split_indices":[0,0,0,0,0,0,0,1,0,1,1,1,0,1,1,1,0,1,1,0,0,0,0,0,0,0,0,0,0,0,0,0,0,0,0,0,0,0,0,0,0,0,0,0,0,0,0,0,0,0,0,0,0,0,0],"split_type":[0,0,0,0,0,0,0,0,0,0,0,0,0,0,0,0,0,0,0,0,0,0,0,0,0,0,0,0,0,0,0,0,0,0,0,0,0,0,0,0,0,0,0,0,0,0,0,0,0,0,0,0,0,0,0],"sum_hessian":[1.86E2,9.1E1,9.5E1,1.8E1,7.3E1,7.6E1,1.9E1,7E1,3E0,3.7E1,3.9E1,1.3E1,6E0,6.2E1,8E0,2.9E1,8E0,1.4E1,2.5E1,7E0,6E0,4.2E1,2E1,5E0,3E0,2.2E1,7E0,4E0,1E1,1.4E1,1.1E1,7E0,3.5E1,8E0,1.2E1,1.1E1,1.1E1,4E0,6E0,5E0,9E0,4E0,7E0,3E0,4E0,3.1E1,4E0,5E0,3E0,9E0,3E0,3E0,8E0,8E0,3E0],"tree_param":{"num_deleted":"0","num_feature":"3","num_nodes":"55","size_leaf_vector":"1"}},{"base_weights":[-2.7045203E-2,1.9805285E-1,-1.119309E0,3.830304E-1,-8.070566E-2,-4.470118E-2,-8.0237556E-1,6.393573E-2,4.6788776E-1,-4.300646E-1,3.2808024E-1,2.3860213E-1,-4.101298E-2,1.7055836E-1,-8.529226E-3,7.432454E-1,2.874188E-1,-2.6599616E-1,-3.4779023E-2,3.2544572E-2,1.3609268E-1,8.130851E-3,1.8654598E-3,1.7491363E-2,-1.9262253E-1,2.82785E-2,1.8326505E-1,2.6175981E-2,1.6198613E-1,2.1347612E-1,-4.1069263E-1,-2.5651969E-2,3.7960297E-1,-1.4928551E-2,2.8647522E-3,2.591423E-3,6.3567865E-3,2.4701697E-1,-1.3388826E-2,7.6810475E-3,1.733728E-3,-2.0361207E-1,-1.7583428E-2,1.3527895E0,-2.6242876E-1,1.5010148E-1,1.9197937E-2,-1.4026813E-2,-6.6180415E-2,1.0950446E-2,6.2473048E-2,3.058447E-3,-2.4757782E-2,3.754429E-1,3.310851E-2,2.9347623E-3,-1.6540365E-1,-6.8202405E-3,1.6428195E-1,5.2216803E-3,1.647199E-2,-1.4519416E-2,1.8243141E-1,-1.1705635E-3,-6.0937614E-3,1.6422716E-3,6.5126237E-3,3.6285925E-1,-8.569803E-2,1.46325305E-2,5.2249026E-3,-8.764657E-3,2.6767948E-3],"categories":[],"categories_nodes":[],"categories_segments":[],"categories_sizes":[],"default_left":[0,0,0,0,0,0,0,0,0,0,0,0,0,0,0,0,0,0,0,0,0,0,0,0,0,0,0,0,0,0,0,0,0,0,0,0,0,0,0,0,0,0,0,0,0,0,0,0,0,0,0,0,0,0,0,0,0,0,0,0,0,0,0,0,0,0,0,0,0,0,0,0,0],"id":10,"left_children":[1,3,5,7,9,-1,11,13,15,17,19,21,-1,23,-1,25,27,29,-1,-1,31,-1,-1,-1,33,-1,35,-1,37,39,41,-1,43,-1,-1,-1,-1,45,-1,-1,-1,47,-1,49,51,53,-1,-1,55,-1,-1,57,-1,59,61,-1,63,-1,65,-1,-1,-1,67,-1,-1,-1,-1,69,71,-1,-1,-1,-1],"loss_changes":[4.848941E1,8.492971E0,2.955387E0,2.6217184E0,9.763359E0,0E0,1.699733E1,9.8121476E-1,3.499258E0,4.3424606E0,4.821052E0,6.32987E-2,0E0,3.2950642E0,0E0,4.1524086E0,3.7897577E0,2.4165242E0,0E0,0E0,7.6970425E0,0E0,0E0,0E0,1.271286E0,0E0,1.1086702E-2,0E0,2.581973E0,5.1924467E-2,9.45559E-1,0E0,1.5404317E1,0E0,0E0,0E0,0E0,1.5177805E0,0E0,0E0,0E0,5.870943E-1,0E0,6.73831E0,2.6019769E0,8.935726E-1,0E0,0E0,2.4499431E-1,0E0,0E0,5.7350063E-1,0E0,2.8543484E-1,2.1980817E0,0E0,4.1064084E-2,0E0,3.9883554E-2,0E0,0E0,0E0,1.0536919E0,0E0,0E0,0E0,0E0,1.931572E-1,4.5174217E-1,0E0,0E0,0E0,0E0],"parents":[2147483647,0,0,1,1,2,2,3,3,4,4,6,6,7,7,8,8,9,9,10,10,11,11,13,13,15,15,16,16,17,17,20,20,24,24,26,26,28,28,29,29,30,30,32,32,37,37,41,41,43,43,44,44,45,45,48,48,51,51,53,53,54,54,56,56,58,58,62,62,67,67,68,68],"right_children":[2,4,6,8,10,-1,12,14,16,18,20,22,-1,24,-1,26,28,30,-1,-1,32,-1,-1,-1,34,-1,36,-1,38,40,42,-1,44,-1,-1,-1,-1,46,-1,-1,-1,48,-1,50,52,54,-1,-1,56,-1,-1,58,-1,60,62,-1,64,-1,66,-1,-1,-1,68,-1,-1,-1,-1,70,72,-1,-1,-1,-1],"split_conditions":[7.461717E-1,3.99E-1,8.38241E-1,2.9971164E-2,5.568838E-1,-4.470118E-2,9.336717E-1,2.43E-2,1.8367173E-1,5.488E-1,5.603876E-1,8.949322E-1,-4.101298E-2,2.4927516E-1,-8.529226E-3,4.55E-1,7.2844155E-2,9.1338664E-2,-3.4779023E-2,3.2544572E-2,2.4504325E-1,8.130851E-3,1.8654598E-3,1.7491363E-2,3.516993E-1,2.82785E-2,6.3534415E-1,2.6175981E-2,8.829E-1,1.6E-3,7.081E-1,-2.5651969E-2,7.823E-1,-1.4928551E-2,2.8647522E-3,2.591423E-3,6.3567865E-3,7.756E-1,-1.3388826E-2,7.6810475E-3,1.733728E-3,3.0370775E-1,-1.7583428E-2,6.2662745E-1,9.767128E-1,2.276E-1,1.9197937E-2,-1.4026813E-2,5.032E-1,1.0950446E-2,6.2473048E-2,8.4657186E-1,-2.4757782E-2,2.032E-1,3.549095E-1,2.9347623E-3,6.208E-1,-6.8202405E-3,8.645611E-1,5.2216803E-3,1.647199E-2,-1.4519416E-2,5.643E-1,-1.1705635E-3,-6.0937614E-3,1.6422716E-3,6.5126237E-3,4.0876666E-1,6.573E-1,1.46325305E-2,5.2249026E-3,-8.764657E-3,2.6767948E-3],"split_indices":[1,1,1,1,1,0,1,1,1,1,1,1,0,2,0,2,2,2,0,0,2,0,0,0,2,0,2,0,2,2,2,0,2,0,0,0,0,2,0,0,0,2,0,2,2,2,0,0,2,0,0,2,0,2,2,0,2,0,2,0,0,0,2,0,0,0,0,2,2,0,0,0,0],"split_type":[0,0,0,0,0,0,0,0,0,0,0,0,0,0,0,0,0,0,0,0,0,0,0,0,0,0,0,0,0,0,0,0,0,0,0,0,0,0,0,0,0,0,0,0,0,0,0,0,0,0,0,0,0,0,0,0,0,0,0,0,0,0,0,0,0,0,0,0,0,0,0,0,0],"sum_hessian":[1.94E2,1.62E2,3.2E1,9.7E1,6.5E1,1E1,2.2E1,2.1E1,7.6E1,3.5E1,3E1,9E0,1.3E1,1.7E1,4E0,2.8E1,4.8E1,3.1E1,4E0,4E0,2.6E1,6E0,3E0,7E0,1E1,1.8E1,1E1,6E0,4.2E1,7E0,2.4E1,4E0,2.2E1,4E0,6E0,5E0,5E0,3.8E1,4E0,4E0,3E0,1.4E1,1E1,8E0,1.4E1,3.3E1,5E0,3E0,1.1E1,5E0,3E0,1.1E1,3E0,1E1,2.3E1,4E0,7E0,4E0,7E0,7E0,3E0,4E0,1.9E1,3E0,4E0,4E0,3E0,1.1E1,8E0,4E0,7E0,3E0,5E0],"tree_param":{"num_deleted":"0","num_feature":"3","num_nodes":"73","size_leaf_vector":"1"}},{"base_weights":[-2.7045203E-2,1.9805285E-1,-1.119309E0,3.830304E-1,-8.070566E-2,-4.470118E-2,-8.0237556E-1,6.393573E-2,4.6788776E-1,-4.300646E-1,3.2808024E-1,2.3860213E-1,-4.101298E-2,1.7055836E-1,-8.529226E-3,7.432454E-1,2.874188E-1,-2.6599616E-1,-3.4779023E-2,3.2544572E-2,1.3609268E-1,8.130851E-3,1.8654598E-3,1.7491363E-2,-1.9262253E-1,2.82785E-2,1.8326505E-1,2.6175981E-2,1.6198613E-1,2.1347612E-1,-4.1069263E-1,-2.5651969E-2,3.7960297E-1,-1.4928551E-2,2.8647522E-3,2.591423E-3,6.3567865E-3,2.4701697E-1,-1.3388826E-2,7.6810475E-3,1.733728E-3,-2.0361207E-1,-1.7583428E-2,1.3527895E0,-2.6242876E-1,1.5010148E-1,1.9197937E-2,-1.4026813E-2,-6.6180415E-2,1.0950446E-2,6.2473048E-2,3.058447E-3,-2.4757782E-2,3.754429E-1,3.310851E-2,2.9347623E-3,-1.6540365E-1,-6.8202405E-3,1.6428195E-1,5.2216803E-3,1.647199E-2,-1.4519416E-2,1.8243141E-1,-1.1705635E-3,-6.0937614E-3,1.6422716E-3,6.5126237E-3,3.6285925E-1,-8.569803E-2,1.46325305E-2,5.2249026E-3,-8.764657E-3,2.6767948E-3],"categories":[],"categories_nodes":[],"categories_segments":[],"categories_sizes":[],"default_left":[0,0,0,0,0,0,0,0,0,0,0,0,0,0,0,0,0,0,0,0,0,0,0,0,0,0,0,0,0,0,0,0,0,0,0,0,0,0,0,0,0,0,0,0,0,0,0,0,0,0,0,0,0,0,0,0,0,0,0,0,0,0,0,0,0,0,0,0,0,0,0,0,0],"id":11,"left_children":[1,3,5,7,9,-1,11,13,15,17,19,21,-1,23,-1,25,27,29,-1,-1,31,-1,-1,-1,33,-1,35,-1,37,39,41,-1,43,-1,-1,-1,-1,45,-1,-1,-1,47,-1,49,51,53,-1,-1,55,-1,-1,57,-1,59,61,-1,63,-1,65,-1,-1,-1,67,-1,-1,-1,-1,69,71,-1,-1,-1,-1],"loss_changes":[4.848941E1,8.492971E0,2.955387E0,2.6217184E0,9.763359E0,0E0,1.699733E1,9.8121476E-1,3.499258E0,4.3424606E0,4.821052E0,6.32987E-2,0E0,3.2950642E0,0E0,4.1524086E0,3.7897577E0,2.4165242E0,0E0,0E0,7.6970425E0,0E0,0E0,0E0,1.271286E0,0E0,1.1086702E-2,0E0,2.581973E0,5.1924467E-2,9.45559E-1,0E0,1.5404317E1,0E0,0E0,0E0,0E0,1.5177805E0,0E0,0E0,0E0,5.870943E-1,0E0,6.73831E0,2.6019769E0,8.935726E-1,0E0,0E0,2.4499431E-1,0E0,0E0,5.7350063E-1,0E0,2.8543484E-1,2.1980817E0,0E0,4.1064084E-2,0E0,3.9883554E-2,0E0,0E0,0E0,1.0536919E0,0E0,0E0,0E0,0E0,1.931572E-1,4.5174217E-1,0E0,0E0,0E0,0E0],"parents":[2147483647,0,0,1,1,2,2,3,3,4,4,6,6,7,7,8,8,9,9,10,10,11,11,13,13,15,15,16,16,17,17,20,20,24,24,26,26,28,28,29,29,30,30,32,32,37,37,41,41,43,43,44,44,45,45,48,48,51,51,53,53,54,54,56,56,58,58,62,62,67,67,68,68],"right_children":[2,4,6,8,10,-1,12,14,16,18,20,22,-1,24,-1,26,28,30,-1,-1,32,-1,-1,-1,34,-1,36,-1,38,40,42,-1,44,-1,-1,-1,-1,46,-1,-1,-1,48,-1,50,52,54,-1,-1,56,-1,-1,58,-1,60,62,-1,64,-1,66,-1,-1,-1,68,-1,-1,-1,-1,70,72,-1,-1,-1,-1],"split_conditions":[7.461717E-1,3.99E-1,8.38241E-1,2.9971164E-2,5.568838E-1,-4.470118E-2,9.336717E-1,2.43E-2,1.8367173E-1,5.488E-1,5.603876E-1,8.949322E-1,-4.101298E-2,2.4927516E-1,-8.529226E-3,4.55E-1,7.2844155E-2,9.1338664E-2,-3.4779023E-2,3.2544572E-2,2.4504325E-1,8.130851E-3,1.8654598E-3,1.7491363E-2,3.516993E-1,2.82785E-2,6.3534415E-1,2.6175981E-2,8.829E-1,1.6E-3,7.081E-1,-2.5651969E-2,7.823E-1,-1.4928551E-2,2.8647522E-3,2.591423E-3,6.3567865E-3,7.756E-1,-1.3388826E-2,7.6810475E-3,1.733728E-3,3.0370775E-1,-1.7583428E-2,6.2662745E-1,9.767128E-1,2.276E-1,1.9197937E-2,-1.4026813E-2,5.032E-1,1.0950446E-2,6.2473048E-2,8.4657186E-1,-2.4757782E-2,2.032E-1,3.549095E-1,2.9347623E-3,6.208E-1,-6.8202405E-3,8.645611E-1,5.2216803E-3,1.647199E-2,-1.4519416E-2,5.643E-1,-1.1705635E-3,-6.0937614E-3,1.6422716E-3,6.5126237E-3,4.0876666E-1,6.573E-1,1.46325305E-2,5.2249026E-3,-8.764657E-3,2.6767948E-3],"split_indices":[1,1,1,1,1,0,1,1,1,1,1,1,0,2,0,2,2,2,0,0,2,0,0,0,2,0,2,0,2,2,2,0,2,0,0,0,0,2,0,0,0,2,0,2,2,2,0,0,2,0,0,2,0,2,2,0,2,0,2,0,0,0,2,0,0,0,0,2,2,0,0,0,0],"split_type":[0,0,0,0,0,0,0,0,0,0,0,0,0,0,0,0,0,0,0,0,0,0,0,0,0,0,0,0,0,0,0,0,0,0,0,0,0,0,0,0,0,0,0,0,0,0,0,0,0,0,0,0,0,0,0,0,0,0,0,0,0,0,0,0,0,0,0,0,0,0,0,0,0],"sum_hessian":[1.94E2,1.62E2,3.2E1,9.7E1,6.5E1,1E1,2.2E1,2.1E1,7.6E1,3.5E1,3E1,9E0,1.3E1,1.7E1,4E0,2.8E1,4.8E1,3.1E1,4E0,4E0,2.6E1,6E0,3E0,7E0,1E1,1.8E1,1E1,6E0,4.2E1,7E0,2.4E1,4E0,2.2E1,4E0,6E0,5E0,5E0,3.8E1,4E0,4E0,3E0,1.4E1,1E1,8E0,1.4E1,3.3E1,5E0,3E0,1.1E1,5E0,3E0,1.1E1,3E0,1E1,2.3E1,4E0,7E0,4E0,7E0,7E0,3E0,4E0,1.9E1,3E0,4E0,4E0,3E0,1.1E1,8E0,4E0,7E0,3E0,5E0],"tree_param":{"num_deleted":"0","num_feature":"3","num_nodes":"73","size_leaf_vector":"1"}},{"base_weights":[-2.7045203E-2,1.9805285E-1,-1.119309E0,3.830304E-1,-8.070566E-2,-4.470118E-2,-8.0237556E-1,6.393573E-2,4.6788776E-1,-4.300646E-1,3.2808024E-1,2.3860213E-1,-4.101298E-2,1.7055836E-1,-8.529226E-3,7.432454E-1,2.874188E-1,-2.6599616E-1,-3.4779023E-2,3.2544572E-2,1.3609268E-1,8.130851E-3,1.8654598E-3,1.7491363E-2,-1.9262253E-1,2.82785E-2,1.8326505E-1,2.6175981E-2,1.6198613E-1,2.1347612E-1,-4.1069263E-1,-2.5651969E-2,3.7960297E-1,-1.4928551E-2,2.8647522E-3,2.591423E-3,6.3567865E-3,2.4701697E-1,-1.3388826E-2,7.6810475E-3,1.733728E-3,-2.0361207E-1,-1.7583428E-2,1.3527895E0,-2.6242876E-1,1.5010148E-1,1.9197937E-2,-1.4026813E-2,-6.6180415E-2,1.0950446E-2,6.2473048E-2,3.058447E-3,-2.4757782E-2,3.754429E-1,3.310851E-2,2.9347623E-3,-1.6540365E-1,-6.8202405E-3,1.6428195E-1,5.2216803E-3,1.647199E-2,-1.4519416E-2,1.8243141E-1,-1.1705635E-3,-6.0937614E-3,1.6422716E-3,6.5126237E-3,3.6285925E-1,-8.569803E-2,1.46325305E-2,5.2249026E-3,-8.764657E-3,2.6767948E-3],"categories":[],"categories_nodes":[],"categories_segments":[],"categories_sizes":[],"default_left":[0,0,0,0,0,0,0,0,0,0,0,0,0,0,0,0,0,0,0,0,0,0,0,0,0,0,0,0,0,0,0,0,0,0,0,0,0,0,0,0,0,0,0,0,0,0,0,0,0,0,0,0,0,0,0,0,0,0,0,0,0,0,0,0,0,0,0,0,0,0,0,0,0],"id":12,"left_children":[1,3,5,7,9,-1,11,13,15,17,19,21,-1,23,-1,25,27,29,-1,-1,31,-1,-1,-1,33,-1,35,-1,37,39,41,-1,43,-1,-1,-1,-1,45,-1,-1,-1,47,-1,49,51,53,-1,-1,55,-1,-1,57,-1,59,61,-1,63,-1,65,-1,-1,-1,67,-1,-1,-1,-1,69,71,-1,-1,-1,-1],"loss_changes":[4.848941E1,8.492971E0,2.955387E0,2.6217184E0,9.763359E0,0E0,1.699733E1,9.8121476E-1,3.499258E0,4.3424606E0,4.821052E0,6.32987E-2,0E0,3.2950642E0,0E0,4.1524086E0,3.7897577E0,2.4165242E0,0E0,0E0,7.6970425E0,0E0,0E0,0E0,1.271286E0,0E0,1.1086702E-2,0E0,2.581973E0,5.1924467E-2,9.45559E-1,0E0,1.5404317E1,0E0,0E0,0E0,0E0,1.5177805E0,0E0,0E0,0E0,5.870943E-1,0E0,6.73831E0,2.6019769E0,8.935726E-1,0E0,0E0,2.4499431E-1,0E0,0E0,5.7350063E-1,0E0,2.8543484E-1,2.1980817E0,0E0,4.1064084E-2,0E0,3.9883554E-2,0E0,0E0,0E0,1.0536919E0,0E0,0E0,0E0,0E0,1.931572E-1,4.5174217E-1,0E0,0E0,0E0,0E0],"parents":[2147483647,0,0,1,1,2,2,3,3,4,4,6,6,7,7,8,8,9,9,10,10,11,11,13,13,15,15,16,16,17,17,20,20,24,24,26,26,28,28,29,29,30,30,32,32,37,37,41,41,43,43,44,44,45,45,48,48,51,51,53,53,54,54,56,56,58,58,62,62,67,67,68,68],"right_children":[2,4,6,8,10,-1,12,14,16,18,20,22,-1,24,-1,26,28,30,-1,-1,32,-1,-1,-1,34,-1,36,-1,38,40,42,-1,44,-1,-1,-1,-1,46,-1,-1,-1,48,-1,50,52,54,-1,-1,56,-1,-1,58,-1,60,62,-1,64,-1,66,-1,-1,-1,68,-1,-1,-1,-1,70,72,-1,-1,-1,-1],"split_conditions":[7.461717E-1,3.99E-1,8.38241E-1,2.9971164E-2,5.568838E-1,-4.470118E-2,9.336717E-1,2.43E-2,1.8367173E-1,5.488E-1,5.603876E-1,8.949322E-1,-4.101298E-2,2.4927516E-1,-8.529226E-3,4.55E-1,7.2844155E-2,9.1338664E-2,-3.4779023E-2,3.2544572E-2,2.4504325E-1,8.130851E-3,1.8654598E-3,1.7491363E-2,3.516993E-1,2.82785E-2,6.3534415E-1,2.6175981E-2,8.829E-1,1.6E-3,7.081E-1,-2.5651969E-2,7.823E-1,-1.4928551E-2,2.8647522E-3,2.591423E-3,6.3567865E-3,7.756E-1,-1.3388826E-2,7.6810475E-3,1.733728E-3,3.0370775E-1,-1.7583428E-2,6.2662745E-1,9.767128E-1,2.276E-1,1.9197937E-2,-1.4026813E-2,5.032E-1,1.0950446E-2,6.2473048E-2,8.4657186E-1,-2.4757782E-2,2.032E-1,3.549095E-1,2.9347623E-3,6.208E-1,-6.8202405E-3,8.645611E-1,5.2216803E-3,1.647199E-2,-1.4519416E-2,5.643E-1,-1.1705635E-3,-6.0937614E-3,1.6422716E-3,6.5126237E-3,4.0876666E-1,6.573E-1,1.46325305E-2,5.2249026E-3,-8.764657E-3,2.6767948E-3],"split_indices":[1,1,1,1,1,0,1,1,1,1,1,1,0,2,0,2,2,2,0,0,2,0,0,0,2,0,2,0,2,2,2,0,2,0,0,0,0,2,0,0,0,2,0,2,2,2,0,0,2,0,0,2,0,2,2,0,2,0,2,0,0,0,2,0,0,0,0,2,2,0,0,0,0],"split_type":[0,0,0,0,0,0,0,0,0,0,0,0,0,0,0,0,0,0,0,0,0,0,0,0,0,0,0,0,0,0,0,0,0,0,0,0,0,0,0,0,0,0,0,0,0,0,0,0,0,0,0,0,0,0,0,0,0,0,0,0,0,0,0,0,0,0,0,0,0,0,0,0,0],"sum_hessian":[1.94E2,1.62E2,3.2E1,9.7E1,6.5E1,1E1,2.2E1,2.1E1,7.6E1,3.5E1,3E1,9E0,1.3E1,1.7E1,4E0,2.8E1,4.8E1,3.1E1,4E0,4E0,2.6E1,6E0,3E0,7E0,1E1,1.8E1,1E1,6E0,4.2E1,7E0,2.4E1,4E0,2.2E1,4E0,6E0,5E0,5E0,3.8E1,4E0,4E0,3E0,1.4E1,1E1,8E0,1.4E1,3.3E1,5E0,3E0,1.1E1,5E0,3E0,1.1E1,3E0,1E1,2.3E1,4E0,7E0,4E0,7E0,7E0,3E0,4E0,1.9E1,3E0,4E0,4E0,3E0,1.1E1,8E0,4E0,7E0,3E0,5E0],"tree_param":{"num_deleted":"0","num_feature":"3","num_nodes":"73","size_leaf_vector":"1"}},{"base_weights":[-2.7045203E-2,1.9805285E-1,-1.119309E0,3.830304E-1,-8.070566E-2,-4.470118E-2,-8.0237556E-1,6.393573E-2,4.6788776E-1,-4.300646E-1,3.2808024E-1,2.3860213E-1,-4.101298E-2,1.7055836E-1,-8.529226E-3,7.432454E-1,2.874188E-1,-2.6599616E-1,-3.4779023E-2,3.2544572E-2,1.3609268E-1,8.130851E-3,1.8654598E-3,1.7491363E-2,-1.9262253E-1,2.82785E-2,1.8326505E-1,2.6175981E-2,1.6198613E-1,2.1347612E-1,-4.1069263E-1,-2.5651969E-2,3.7960297E-1,-1.4928551E-2,2.8647522E-3,2.591423E-3,6.3567865E-3,2.4701697E-1,-1.3388826E-2,7.6810475E-3,1.733728E-3,-2.0361207E-1,-1.7583428E-2,1.3527895E0,-2.6242876E-1,1.5010148E-1,1.9197937E-2,-1.4026813E-2,-6.6180415E-2,1.0950446E-2,6.2473048E-2,3.058447E-3,-2.4757782E-2,3.754429E-1,3.310851E-2,2.9347623E-3,-1.6540365E-1,-6.8202405E-3,1.6428195E-1,5.2216803E-3,1.647199E-2,-1.4519416E-2,1.8243141E-1,-1.1705635E-3,-6.0937614E-3,1.6422716E-3,6.5126237E-3,3.6285925E-1,-8.569803E-2,1.46325305E-2,5.2249026E-3,-8.764657E-3,2.6767948E-3],"categories":[],"categories_nodes":[],"categories_segments":[],"categories_sizes":[],"default_left":[0,0,0,0,0,0,0,0,0,0,0,0,0,0,0,0,0,0,0,0,0,0,0,0,0,0,0,0,0,0,0,0,0,0,0,0,0,0,0,0,0,0,0,0,0,0,0,0,0,0,0,0,0,0,0,0,0,0,0,0,0,0,0,0,0,0,0,0,0,0,0,0,0],"id":13,"left_children":[1,3,5,7,9,-1,11,13,15,17,19,21,-1,23,-1,25,27,29,-1,-1,31,-1,-1,-1,33,-1,35,-1,37,39,41,-1,43,-1,-1,-1,-1,45,-1,-1,-1,47,-1,49,51,53,-1,-1,55,-1,-1,57,-1,59,61,-1,63,-1,65,-1,-1,-1,67,-1,-1,-1,-1,69,71,-1,-1,-1,-1],"loss_changes":[4.848941E1,8.492971E0,2.955387E0,2.6217184E0,9.763359E0,0E0,1.699733E1,9.8121476E-1,3.499258E0,4.3424606E0,4.821052E0,6.32987E-2,0E0,3.2950642E0,0E0,4.1524086E0,3.7897577E0,2.4165242E0,0E0,0E0,7.6970425E0,0E0,0E0,0E0,1.271286E0,0E0,1.1086702E-2,0E0,2.581973E0,5.1924467E-2,9.45559E-1,0E0,1.5404317E1,0E0,0E0,0E0,0E0,1.5177805E0,0E0,0E0,0E0,5.870943E-1,0E0,6.73831E0,2.6019769E0,8.935726E-1,0E0,0E0,2.4499431E-1,0E0,0E0,5.7350063E-1,0E0,2.8543484E-1,2.1980817E0,0E0,4.1064084E-2,0E0,3.9883554E-2,0E0,0E0,0E0,1.0536919E0,0E0,0E0,0E0,0E0,1.931572E-1,4.5174217E-1,0E0,0E0,0E0,0E0],"parents":[2147483647,0,0,1,1,2,2,3,3,4,4,6,6,7,7,8,8,9,9,10,10,11,11,13,13,15,15,16,16,17,17,20,20,24,24,26,26,28,28,29,29,30,30,32,32,37,37,41,41,43,43,44,44,45,45,48,48,51,51,53,53,54,54,56,56,58,58,62,62,67,67,68,68],"right_children":[2,4,6,8,10,-1,12,14,16,18,20,22,-1,24,-1,26,28,30,-1,-1,32,-1,-1,-1,34,-1,36,-1,38,40,42,-1,44,-1,-1,-1,-1,46,-1,-1,-1,48,-1,50,52,54,-1,-1,56,-1,-1,58,-1,60,62,-1,64,-1,66,-1,-1,-1,68,-1,-1,-1,-1,70,72,-1,-1,-1,-1],"split_conditions":[7.461717E-1,3.99E-1,8.38241E-1,2.9971164E-2,5.568838E-1,-4.470118E-2,9.336717E-1,2.43E-2,1.8367173E-1,5.488E-1,5.603876E-1,8.949322E-1,-4.101298E-2,2.4927516E-1,-8.529226E-3,4.55E-1,7.2844155E-2,9.1338664E-2,-3.4779023E-2,3.2544572E-2,2.4504325E-1,8.130851E-3,1.8654598E-3,1.7491363E-2,3.516993E-1,2.82785E-2,6.3534415E-1,2.6175981E-2,8.829E-1,1.6E-3,7.081E-1,-2.5651969E-2,7.823E-1,-1.4928551E-2,2.8647522E-3,2.591423E-3,6.3567865E-3,7.756E-1,-1.3388826E-2,7.6810475E-3,1.733728E-3,3.0370775E-1,-1.7583428E-2,6.2662745E-1,9.767128E-1,2.276E-1,1.9197937E-2,-1.4026813E-2,5.032E-1,1.0950446E-2,6.2473048E-2,8.4657186E-1,-2.4757782E-2,2.032E-1,3.549095E-1,2.9347623E-3,6.208E-1,-6.8202405E-3,8.645611E-1,5.2216803E-3,1.647199E-2,-1.4519416E-2,5.643E-1,-1.1705635E-3,-6.0937614E-3,1.6422716E-3,6.5126237E-3,4.0876666E-1,6.573E-1,1.46325305E-2,5.2249026E-3,-8.764657E-3,2.6767948E-3],"split_indices":[1,1,1,1,1,0,1,1,1,1,1,1,0,2,0,2,2,2,0,0,2,0,0,0,2,0,2,0,2,2,2,0,2,0,0,0,0,2,0,0,0,2,0,2,2,2,0,0,2,0,0,2,0,2,2,0,2,0,2,0,0,0,2,0,0,0,0,2,2,0,0,0,0],"split_type":[0,0,0,0,0,0,0,0,0,0,0,0,0,0,0,0,0,0,0,0,0,0,0,0,0,0,0,0,0,0,0,0,0,0,0,0,0,0,0,0,0,0,0,0,0,0,0,0,0,0,0,0,0,0,0,0,0,0,0,0,0,0,0,0,0,0,0,0,0,0,0,0,0],"sum_hessian":[1.94E2,1.62E2,3.2E1,9.7E1,6.5E1,1E1,2.2E1,2.1E1,7.6E1,3.5E1,3E1,9E0,1.3E1,1.7E1,4E0,2.8E1,4.8E1,3.1E1,4E0,4E0,2.6E1,6E0,3E0,7E0,1E1,1.8E1,1E1,6E0,4.2E1,7E0,2.4E1,4E0,2.2E1,4E0,6E0,5E0,5E0,3.8E1,4E0,4E0,3E0,1.4E1,1E1,8E0,1.4E1,3.3E1,5E0,3E0,1.1E1,5E0,3E0,1.1E1,3E0,1E1,2.3E1,4E0,7E0,4E0,7E0,7E0,3E0,4E0,1.9E1,3E0,4E0,4E0,3E0,1.1E1,8E0,4E0,7E0,3E0,5E0],"tree_param":{"num_deleted":"0","num_feature":"3","num_nodes":"73","size_leaf_vector":"1"}},{"base_weights":[-2.7045203E-2,1.9805285E-1,-1.119309E0,3.830304E-1,-8.070566E-2,-4.470118E-2,-8.0237556E-1,6.393573E-2,4.6788776E-1,-4.300646E-1,3.2808024E-1,2.3860213E-1,-4.101298E-2,1.7055836E-1,-8.529226E-3,7.432454E-1,2.874188E-1,-2.6599616E-1,-3.4779023E-2,3.2544572E-2,1.3609268E-1,8.130851E-3,1.8654598E-3,1.7491363E-2,-1.9262253E-1,2.82785E-2,1.8326505E-1,2.6175981E-2,1.6198613E-1,2.1347612E-1,-4.1069263E-1,-2.5651969E-2,3.7960297E-1,-1.4928551E-2,2.8647522E-3,2.591423E-3,6.3567865E-3,2.4701697E-1,-1.3388826E-2,7.6810475E-3,1.733728E-3,-2.0361207E-1,-1.7583428E-2,1.3527895E0,-2.6242876E-1,1.5010148E-1,1.9197937E-2,-1.4026813E-2,-6.6180415E-2,1.0950446E-2,6.2473048E-2,3.058447E-3,-2.4757782E-2,3.754429E-1,3.310851E-2,2.9347623E-3,-1.6540365E-1,-6.8202405E-3,1.6428195E-1,5.2216803E-3,1.647199E-2,-1.4519416E-2,1.8243141E-1,-1.1705635E-3,-6.0937614E-3,1.6422716E-3,6.5126237E-3,3.6285925E-1,-8.569803E-2,1.46325305E-2,5.2249026E-3,-8.764657E-3,2.6767948E-3],"categories":[],"categories_nodes":[],"categories_segments":[],"categories_sizes":[],"default_left":[0,0,0,0,0,0,0,0,0,0,0,0,0,0,0,0,0,0,0,0,0,0,0,0,0,0,0,0,0,0,0,0,0,0,0,0,0,0,0,0,0,0,0,0,0,0,0,0,0,0,0,0,0,0,0,0,0,0,0,0,0,0,0,0,0,0,0,0,0,0,0,0,0],"id":14,"left_children":[1,3,5,7,9,-1,11,13,15,17,19,21,-1,23,-1,25,27,29,-1,-1,31,-1,-1,-1,33,-1,35,-1,37,39,41,-1,43,-1,-1,-1,-1,45,-1,-1,-1,47,-1,49,51,53,-1,-1,55,-1,-1,57,-1,59,61,-1,63,-1,65,-1,-1,-1,67,-1,-1,-1,-1,69,71,-1,-1,-1,-1],"loss_changes":[4.848941E1,8.492971E0,2.955387E0,2.6217184E0,9.763359E0,0E0,1.699733E1,9.8121476E-1,3.499258E0,4.3424606E0,4.821052E0,6.32987E-2,0E0,3.2950642E0,0E0,4.1524086E0,3.7897577E0,2.4165242E0,0E0,0E0,7.6970425E0,0E0,0E0,0E0,1.271286E0,0E0,1.1086702E-2,0E0,2.581973E0,5.1924467E-2,9.45559E-1,0E0,1.5404317E1,0E0,0E0,0E0,0E0,1.5177805E0,0E0,0E0,0E0,5.870943E-1,0E0,6.73831E0,2.6019769E0,8.935726E-1,0E0,0E0,2.4499431E-1,0E0,0E0,5.7350063E-1,0E0,2.8543484E-1,2.1980817E0,0E0,4.1064084E-2,0E0,3.9883554E-2,0E0,0E0,0E0,1.0536919E0,0E0,0E0,0E0,0E0,1.931572E-1,4.5174217E-1,0E0,0E0,0E0,0E0],"parents":[2147483647,0,0,1,1,2,2,3,3,4,4,6,6,7,7,8,8,9,9,10,10,11,11,13,13,15,15,16,16,17,17,20,20,24,24,26,26,28,28,29,29,30,30,32,32,37,37,41,41,43,43,44,44,45,45,48,48,51,51,53,53,54,54,56,56,58,58,62,62,67,67,68,68],"right_children":[2,4,6,8,10,-1,12,14,16,18,20,22,-1,24,-1,26,28,30,-1,-1,32,-1,-1,-1,34,-1,36,-1,38,40,42,-1,44,-1,-1,-1,-1,46,-1,-1,-1,48,-1,50,52,54,-1,-1,56,-1,-1,58,-1,60,62,-1,64,-1,66,-1,-1,-1,68,-1,-1,-1,-1,70,72,-1,-1,-1,-1],"split_conditions":[7.461717E-1,3.99E-1,8.38241E-1,2.9971164E-2,5.568838E-1,-4.470118E-2,9.336717E-1,2.43E-2,1.8367173E-1,5.488E-1,5.603876E-1,8.949322E-1,-4.101298E-2,2.4927516E-1,-8.529226E-3,4.55E-1,7.2844155E-2,9.1338664E-2,-3.4779023E-2,3.2544572E-2,2.4504325E-1,8.130851E-3,1.8654598E-3,1.7491363E-2,3.516993E-1,2.82785E-2,6.3534415E-1,2.6175981E-2,8.829E-1,1.6E-3,7.081E-1,-2.5651969E-2,7.823E-1,-1.4928551E-2,2.8647522E-3,2.591423E-3,6.3567865E-3,7.756E-1,-1.3388826E-2,7.6810475E-3,1.733728E-3,3.0370775E-1,-1.7583428E-2,6.2662745E-1,9.767128E-1,2.276E-1,1.9197937E-2,-1.4026813E-2,5.032E-1,1.0950446E-2,6.2473048E-2,8.4657186E-1,-2.4757782E-2,2.032E-1,3.549095E-1,2.9347623E-3,6.208E-1,-6.8202405E-3,8.645611E-1,5.2216803E-3,1.647199E-2,-1.4519416E-2,5.643E-1,-1.1705635E-3,-6.0937614E-3,1.6422716E-3,6.5126237E-3,4.0876666E-1,6.573E-1,1.46325305E-2,5.2249026E-3,-8.764657E-3,2.6767948E-3],"split_indices":[1,1,1,1,1,0,1,1,1,1,1,1,0,2,0,2,2,2,0,0,2,0,0,0,2,0,2,0,2,2,2,0,2,0,0,0,0,2,0,0,0,2,0,2,2,2,0,0,2,0,0,2,0,2,2,0,2,0,2,0,0,0,2,0,0,0,0,2,2,0,0,0,0],"split_type":[0,0,0,0,0,0,0,0,0,0,0,0,0,0,0,0,0,0,0,0,0,0,0,0,0,0,0,0,0,0,0,0,0,0,0,0,0,0,0,0,0,0,0,0,0,0,0,0,0,0,0,0,0,0,0,0,0,0,0,0,0,0,0,0,0,0,0,0,0,0,0,0,0],"sum_hessian":[1.94E2,1.62E2,3.2E1,9.7E1,6.5E1,1E1,2.2E1,2.1E1,7.6E1,3.5E1,3E1,9E0,1.3E1,1.7E1,4E0,2.8E1,4.8E1,3.1E1,4E0,4E0,2.6E1,6E0,3E0,7E0,1E1,1.8E1,1E1,6E0,4.2E1,7E0,2.4E1,4E0,2.2E1,4E0,6E0,5E0,5E0,3.8E1,4E0,4E0,3E0,1.4E1,1E1,8E0,1.4E1,3.3E1,5E0,3E0,1.1E1,5E0,3E0,1.1E1,3E0,1E1,2.3E1,4E0,7E0,4E0,7E0,7E0,3E0,4E0,1.9E1,3E0,4E0,4E0,3E0,1.1E1,8E0,4E0,7E0,3E0,5E0],"tree_param":{"num_deleted":"0","num_feature":"3","num_nodes":"73","size_leaf_vector":"1"}},{"base_weights":[-1.5574603E-2,4.9710846E-1,-5.2290434E-1,1.039542E0,3.3889925E-1,-3.3936957E-1,-1.0951445E0,4.16424E-2,-9.6975025E-3,4.5994046E-1,-4.3161628E-1,2.9532632E-1,-4.8444948E-1,-1.5973318E-2,-4.3311674E-2,3.409254E-1,8.661898E-1,-2.5913944E-3,-2.5256151E-2,-7.242607E-3,5.2252656E-1,-3.974832E-1,-2.7033905E-2,4.1249856E-1,-1.6796095E-2,3.4569465E-2,2.5664347E-1,2.1939524E-2,3.4734167E-4,-4.808215E-1,6.9865733E-3,-1.5013993E-1,4.8860994E-1,-1.3166084E-3,1.3074542E-2,-2.1417643E-1,-7.169791E-1,-1.1867844E-2,4.989293E-3,5.583186E-1,1.8764915E-3,-4.698757E-1,1.13689415E-2,-3.7385845E-1,-3.7860096E-2,4.48276E-1,2.4485597E-2,6.3874E-2,-1.0317129E0,-8.1000507E-1,3.3578154E-1,6.4631146E-1,1.5141329E-1,-5.5719293E-3,6.8365852E-3,-1.2767524E-2,-3.632656E-2,-3.149134E-2,-5.15182E-1,2.6319327E-3,1.4190591E-2,7.656389E-3,2.0721901E-2,-3.519E-3,2.3375341E-1,-7.903818E-3,-1.8466715E-2,1.153391E-2,1.985625E-3],"categories":[],"categories_nodes":[],"categories_segments":[],"categories_sizes":[],"default_left":[0,0,0,0,0,0,0,0,0,0,0,0,0,0,0,0,0,0,0,0,0,0,0,0,0,0,0,0,0,0,0,0,0,0,0,0,0,0,0,0,0,0,0,0,0,0,0,0,0,0,0,0,0,0,0,0,0,0,0,0,0,0,0,0,0,0,0,0,0],"id":15,"left_children":[1,3,5,7,9,11,13,-1,-1,15,17,19,21,-1,-1,23,25,-1,-1,-1,27,29,-1,31,-1,-1,33,-1,-1,35,-1,37,39,-1,-1,41,43,-1,-1,45,-1,47,-1,49,-1,51,-1,53,55,57,59,61,63,-1,-1,-1,-1,-1,65,-1,-1,-1,-1,-1,67,-1,-1,-1,-1],"loss_changes":[5.211974E1,7.9591427E0,9.946299E0,1.4424963E1,7.7684402E0,7.4882793E0,4.140543E0,0E0,0E0,2.869814E0,1.7288458E0,2.2060971E0,2.0659227E0,0E0,0E0,4.24158E0,2.783226E0,0E0,0E0,0E0,1.5491796E0,3.3164997E0,0E0,2.4234438E0,0E0,0E0,5.307691E-1,0E0,0E0,2.9951916E0,0E0,8.223523E-1,1.3377485E0,0E0,0E0,4.561845E0,4.98357E0,0E0,0E0,7.5844383E-1,0E0,6.0169287E0,0E0,6.555298E0,0E0,1.8151336E0,0E0,6.3890404E-1,4.888878E-1,2.030077E-1,2.8026038E-1,3.539362E-1,4.081593E-1,0E0,0E0,0E0,0E0,0E0,1.1620045E-2,0E0,0E0,0E0,0E0,0E0,3.1992775E-1,0E0,0E0,0E0,0E0],"parents":[2147483647,0,0,1,1,2,2,3,3,4,4,5,5,6,6,9,9,10,10,11,11,12,12,15,15,16,16,20,20,21,21,23,23,26,26,29,29,31,31,32,32,35,35,36,36,39,39,41,41,43,43,45,45,47,47,48,48,49,49,50,50,51,51,52,52,58,58,64,64],"right_children":[2,4,6,8,10,12,14,-1,-1,16,18,20,22,-1,-1,24,26,-1,-1,-1,28,30,-1,32,-1,-1,34,-1,-1,36,-1,38,40,-1,-1,42,44,-1,-1,46,-1,48,-1,50,-1,52,-1,54,56,58,60,62,64,-1,-1,-1,-1,-1,66,-1,-1,-1,-1,-1,68,-1,-1,-1,-1],"split_conditions":[3.61E-1,1.24E-2,8.933E-1,4.4660217E-1,7.1290797E-1,2.0263822E-1,4.381E-1,4.16424E-2,-9.6975025E-3,5.572E-1,9.336717E-1,2.9971164E-2,9.071359E-1,-1.5973318E-2,-4.3311674E-2,5.302E-1,6.295105E-1,-2.5913944E-3,-2.5256151E-2,-7.242607E-3,1.275115E-1,8.217609E-1,-2.7033905E-2,5.52E-2,-1.6796095E-2,3.4569465E-2,1.9927286E-1,2.1939524E-2,3.4734167E-4,5.458823E-1,6.9865733E-3,2.1242958E-1,3.9461562E-1,-1.3166084E-3,1.3074542E-2,6.579E-1,5.88241E-1,-1.1867844E-2,4.989293E-3,3.3824095E-1,1.8764915E-3,5.488E-1,1.13689415E-2,4.4660217E-1,-3.7860096E-2,1.608E-1,2.4485597E-2,4.4927284E-1,3.673E-1,5.698E-1,6.992729E-1,8.350101E-2,2.2759727E-1,-5.5719293E-3,6.8365852E-3,-1.2767524E-2,-3.632656E-2,-3.149134E-2,7.932E-1,2.6319327E-3,1.4190591E-2,7.656389E-3,2.0721901E-2,-3.519E-3,3.1173685E-1,-7.903818E-3,-1.8466715E-2,1.153391E-2,1.985625E-3],"split_indices":[0,0,0,1,1,1,1,0,0,1,1,1,1,0,0,1,1,0,0,0,1,1,0,0,0,0,0,0,0,0,0,1,1,0,0,1,1,0,0,1,0,1,0,1,0,0,0,0,0,0,0,0,0,0,0,0,0,0,0,0,0,0,0,0,0,0,0,0,0],"split_type":[0,0,0,0,0,0,0,0,0,0,0,0,0,0,0,0,0,0,0,0,0,0,0,0,0,0,0,0,0,0,0,0,0,0,0,0,0,0,0,0,0,0,0,0,0,0,0,0,0,0,0,0,0,0,0,0,0,0,0,0,0,0,0,0,0,0,0,0,0],"sum_hessian":[1.97E2,9.8E1,9.9E1,2E1,7.8E1,7.7E1,2.2E1,1.5E1,5E0,6.8E1,1E1,1.4E1,6.3E1,1.2E1,1E1,5.5E1,1.3E1,7E0,3E0,4E0,1E1,5.6E1,7E0,5.2E1,3E0,7E0,6E0,6E0,4E0,5E1,6E0,6E0,4.6E1,3E0,3E0,2.5E1,2.5E1,3E0,3E0,3.9E1,7E0,1.8E1,7E0,1.8E1,7E0,3.2E1,7E0,1E1,8E0,1.1E1,7E0,1.8E1,1.4E1,4E0,6E0,4E0,4E0,3E0,8E0,4E0,3E0,5E0,1.3E1,3E0,1.1E1,5E0,3E0,4E0,7E0],"tree_param":{"num_deleted":"0","num_feature":"3","num_nodes":"69","size_leaf_vector":"1"}},{"base_weights":[-1.5574603E-2,4.9710846E-1,-5.2290434E-1,1.039542E0,3.3889925E-1,-3.3936957E-1,-1.0951445E0,4.16424E-2,-9.6975025E-3,4.5994046E-1,-4.3161628E-1,2.9532632E-1,-4.8444948E-1,-1.5973318E-2,-4.3311674E-2,3.409254E-1,8.661898E-1,-2.5913944E-3,-2.5256151E-2,-7.242607E-3,5.2252656E-1,-3.974832E-1,-2.7033905E-2,4.1249856E-1,-1.6796095E-2,3.4569465E-2,2.5664347E-1,2.1939524E-2,3.4734167E-4,-4.808215E-1,6.9865733E-3,-1.5013993E-1,4.8860994E-1,-1.3166084E-3,1.3074542E-2,-2.1417643E-1,-7.169791E-1,-1.1867844E-2,4.989293E-3,5.583186E-1,1.8764915E-3,-4.698757E-1,1.13689415E-2,-3.7385845E-1,-3.7860096E-2,4.48276E-1,2.4485597E-2,6.3874E-2,-1.0317129E0,-8.1000507E-1,3.3578154E-1,6.4631146E-1,1.5141329E-1,-5.5719293E-3,6.8365852E-3,-1.2767524E-2,-3.632656E-2,-3.149134E-2,-5.15182E-1,2.6319327E-3,1.4190591E-2,7.656389E-3,2.0721901E-2,-3.519E-3,2.3375341E-1,-7.903818E-3,-1.8466715E-2,1.153391E-2,1.985625E-3],"categories":[],"categories_nodes":[],"categories_segments":[],"categories_sizes":[],"default_left":[0,0,0,0,0,0,0,0,0,0,0,0,0,0,0,0,0,0,0,0,0,0,0,0,0,0,0,0,0,0,0,0,0,0,0,0,0,0,0,0,0,0,0,0,0,0,0,0,0,0,0,0,0,0,0,0,0,0,0,0,0,0,0,0,0,0,0,0,0],"id":16,"left_children":[1,3,5,7,9,11,13,-1,-1,15,17,19,21,-1,-1,23,25,-1,-1,-1,27,29,-1,31,-1,-1,33,-1,-1,35,-1,37,39,-1,-1,41,43,-1,-1,45,-1,47,-1,49,-1,51,-1,53,55,57,59,61,63,-1,-1,-1,-1,-1,65,-1,-1,-1,-1,-1,67,-1,-1,-1,-1],"loss_changes":[5.211974E1,7.9591427E0,9.946299E0,1.4424963E1,7.7684402E0,7.4882793E0,4.140543E0,0E0,0E0,2.869814E0,1.7288458E0,2.2060971E0,2.0659227E0,0E0,0E0,4.24158E0,2.783226E0,0E0,0E0,0E0,1.5491796E0,3.3164997E0,0E0,2.4234438E0,0E0,0E0,5.307691E-1,0E0,0E0,2.9951916E0,0E0,8.223523E-1,1.3377485E0,0E0,0E0,4.561845E0,4.98357E0,0E0,0E0,7.5844383E-1,0E0,6.0169287E0,0E0,6.555298E0,0E0,1.8151336E0,0E0,6.3890404E-1,4.888878E-1,2.030077E-1,2.8026038E-1,3.539362E-1,4.081593E-1,0E0,0E0,0E0,0E0,0E0,1.1620045E-2,0E0,0E0,0E0,0E0,0E0,3.1992775E-1,0E0,0E0,0E0,0E0],"parents":[2147483647,0,0,1,1,2,2,3,3,4,4,5,5,6,6,9,9,10,10,11,11,12,12,15,15,16,16,20,20,21,21,23,23,26,26,29,29,31,31,32,32,35,35,36,36,39,39,41,41,43,43,45,45,47,47,48,48,49,49,50,50,51,51,52,52,58,58,64,64],"right_children":[2,4,6,8,10,12,14,-1,-1,16,18,20,22,-1,-1,24,26,-1,-1,-1,28,30,-1,32,-1,-1,34,-1,-1,36,-1,38,40,-1,-1,42,44,-1,-1,46,-1,48,-1,50,-1,52,-1,54,56,58,60,62,64,-1,-1,-1,-1,-1,66,-1,-1,-1,-1,-1,68,-1,-1,-1,-1],"split_conditions":[3.61E-1,1.24E-2,8.933E-1,4.4660217E-1,7.1290797E-1,2.0263822E-1,4.381E-1,4.16424E-2,-9.6975025E-3,5.572E-1,9.336717E-1,2.9971164E-2,9.071359E-1,-1.5973318E-2,-4.3311674E-2,5.302E-1,6.295105E-1,-2.5913944E-3,-2.5256151E-2,-7.242607E-3,1.275115E-1,8.217609E-1,-2.7033905E-2,5.52E-2,-1.6796095E-2,3.4569465E-2,1.9927286E-1,2.1939524E-2,3.4734167E-4,5.458823E-1,6.9865733E-3,2.1242958E-1,3.9461562E-1,-1.3166084E-3,1.3074542E-2,6.579E-1,5.88241E-1,-1.1867844E-2,4.989293E-3,3.3824095E-1,1.8764915E-3,5.488E-1,1.13689415E-2,4.4660217E-1,-3.7860096E-2,1.608E-1,2.4485597E-2,4.4927284E-1,3.673E-1,5.698E-1,6.992729E-1,8.350101E-2,2.2759727E-1,-5.5719293E-3,6.8365852E-3,-1.2767524E-2,-3.632656E-2,-3.149134E-2,7.932E-1,2.6319327E-3,1.4190591E-2,7.656389E-3,2.0721901E-2,-3.519E-3,3.1173685E-1,-7.903818E-3,-1.8466715E-2,1.153391E-2,1.985625E-3],"split_indices":[0,0,0,1,1,1,1,0,0,1,1,1,1,0,0,1,1,0,0,0,1,1,0,0,0,0,0,0,0,0,0,1,1,0,0,1,1,0,0,1,0,1,0,1,0,0,0,0,0,0,0,0,0,0,0,0,0,0,0,0,0,0,0,0,0,0,0,0,0],"split_type":[0,0,0,0,0,0,0,0,0,0,0,0,0,0,0,0,0,0,0,0,0,0,0,0,0,0,0,0,0,0,0,0,0,0,0,0,0,0,0,0,0,0,0,0,0,0,0,0,0,0,0,0,0,0,0,0,0,0,0,0,0,0,0,0,0,0,0,0,0],"sum_hessian":[1.97E2,9.8E1,9.9E1,2E1,7.8E1,7.7E1,2.2E1,1.5E1,5E0,6.8E1,1E1,1.4E1,6.3E1,1.2E1,1E1,5.5E1,1.3E1,7E0,3E0,4E0,1E1,5.6E1,7E0,5.2E1,3E0,7E0,6E0,6E0,4E0,5E1,6E0,6E0,4.6E1,3E0,3E0,2.5E1,2.5E1,3E0,3E0,3.9E1,7E0,1.8E1,7E0,1.8E1,7E0,3.2E1,7E0,1E1,8E0,1.1E1,7E0,1.8E1,1.4E1,4E0,6E0,4E0,4E0,3E0,8E0,4E0,3E0,5E0,1.3E1,3E0,1.1E1,5E0,3E0,4E0,7E0],"tree_param":{"num_deleted":"0","num_feature":"3","num_nodes":"69","size_leaf_vector":"1"}},{"base_weights":[-1.5574603E-2,4.9710846E-1,-5.2290434E-1,1.039542E0,3.3889925E-1,-3.3936957E-1,-1.0951445E0,4.16424E-2,-9.6975025E-3,4.5994046E-1,-4.3161628E-1,2.9532632E-1,-4.8444948E-1,-1.5973318E-2,-4.3311674E-2,3.409254E-1,8.661898E-1,-2.5913944E-3,-2.5256151E-2,-7.242607E-3,5.2252656E-1,-3.974832E-1,-2.7033905E-2,4.1249856E-1,-1.6796095E-2,3.4569465E-2,2.5664347E-1,2.1939524E-2,3.4734167E-4,-4.808215E-1,6.9865733E-3,-1.5013993E-1,4.8860994E-1,-1.3166084E-3,1.3074542E-2,-2.1417643E-1,-7.169791E-1,-1.1867844E-2,4.989293E-3,5.583186E-1,1.8764915E-3,-4.698757E-1,1.13689415E-2,-3.7385845E-1,-3.7860096E-2,4.48276E-1,2.4485597E-2,6.3874E-2,-1.0317129E0,-8.1000507E-1,3.3578154E-1,6.4631146E-1,1.5141329E-1,-5.5719293E-3,6.8365852E-3,-1.2767524E-2,-3.632656E-2,-3.149134E-2,-5.15182E-1,2.6319327E-3,1.4190591E-2,7.656389E-3,2.0721901E-2,-3.519E-3,2.3375341E-1,-7.903818E-3,-1.8466715E-2,1.153391E-2,1.985625E-3],"categories":[],"categories_nodes":[],"categories_segments":[],"categories_sizes":[],"default_left":[0,0,0,0,0,0,0,0,0,0,0,0,0,0,0,0,0,0,0,0,0,0,0,0,0,0,0,0,0,0,0,0,0,0,0,0,0,0,0,0,0,0,0,0,0,0,0,0,0,0,0,0,0,0,0,0,0,0,0,0,0,0,0,0,0,0,0,0,0],"id":17,"left_children":[1,3,5,7,9,11,13,-1,-1,15,17,19,21,-1,-1,23,25,-1,-1,-1,27,29,-1,31,-1,-1,33,-1,-1,35,-1,37,39,-1,-1,41,43,-1,-1,45,-1,47,-1,49,-1,51,-1,53,55,57,59,61,63,-1,-1,-1,-1,-1,65,-1,-1,-1,-1,-1,67,-1,-1,-1,-1],"loss_changes":[5.211974E1,7.9591427E0,9.946299E0,1.4424963E1,7.7684402E0,7.4882793E0,4.140543E0,0E0,0E0,2.869814E0,1.7288458E0,2.2060971E0,2.0659227E0,0E0,0E0,4.24158E0,2.783226E0,0E0,0E0,0E0,1.5491796E0,3.3164997E0,0E0,2.4234438E0,0E0,0E0,5.307691E-1,0E0,0E0,2.9951916E0,0E0,8.223523E-1,1.3377485E0,0E0,0E0,4.561845E0,4.98357E0,0E0,0E0,7.5844383E-1,0E0,6.0169287E0,0E0,6.555298E0,0E0,1.8151336E0,0E0,6.3890404E-1,4.888878E-1,2.030077E-1,2.8026038E-1,3.539362E-1,4.081593E-1,0E0,0E0,0E0,0E0,0E0,1.1620045E-2,0E0,0E0,0E0,0E0,0E0,3.1992775E-1,0E0,0E0,0E0,0E0],"parents":[2147483647,0,0,1,1,2,2,3,3,4,4,5,5,6,6,9,9,10,10,11,11,12,12,15,15,16,16,20,20,21,21,23,23,26,26,29,29,31,31,32,32,35,35,36,36,39,39,41,41,43,43,45,45,47,47,48,48,49,49,50,50,51,51,52,52,58,58,64,64],"right_children":[2,4,6,8,10,12,14,-1,-1,16,18,20,22,-1,-1,24,26,-1,-1,-1,28,30,-1,32,-1,-1,34,-1,-1,36,-1,38,40,-1,-1,42,44,-1,-1,46,-1,48,-1,50,-1,52,-1,54,56,58,60,62,64,-1,-1,-1,-1,-1,66,-1,-1,-1,-1,-1,68,-1,-1,-1,-1],"split_conditions":[3.61E-1,1.24E-2,8.933E-1,4.4660217E-1,7.1290797E-1,2.0263822E-1,4.381E-1,4.16424E-2,-9.6975025E-3,5.572E-1,9.336717E-1,2.9971164E-2,9.071359E-1,-1.5973318E-2,-4.3311674E-2,5.302E-1,6.295105E-1,-2.5913944E-3,-2.5256151E-2,-7.242607E-3,1.275115E-1,8.217609E-1,-2.7033905E-2,5.52E-2,-1.6796095E-2,3.4569465E-2,1.9927286E-1,2.1939524E-2,3.4734167E-4,5.458823E-1,6.9865733E-3,2.1242958E-1,3.9461562E-1,-1.3166084E-3,1.3074542E-2,6.579E-1,5.88241E-1,-1.1867844E-2,4.989293E-3,3.3824095E-1,1.8764915E-3,5.488E-1,1.13689415E-2,4.4660217E-1,-3.7860096E-2,1.608E-1,2.4485597E-2,4.4927284E-1,3.673E-1,5.698E-1,6.992729E-1,8.350101E-2,2.2759727E-1,-5.5719293E-3,6.8365852E-3,-1.2767524E-2,-3.632656E-2,-3.149134E-2,7.932E-1,2.6319327E-3,1.4190591E-2,7.656389E-3,2.0721901E-2,-3.519E-3,3.1173685E-1,-7.903818E-3,-1.8466715E-2,1.153391E-2,1.985625E-3],"split_indices":[0,0,0,1,1,1,1,0,0,1,1,1,1,0,0,1,1,0,0,0,1,1,0,0,0,0,0,0,0,0,0,1,1,0,0,1,1,0,0,1,0,1,0,1,0,0,0,0,0,0,0,0,0,0,0,0,0,0,0,0,0,0,0,0,0,0,0,0,0],"split_type":[0,0,0,0,0,0,0,0,0,0,0,0,0,0,0,0,0,0,0,0,0,0,0,0,0,0,0,0,0,0,0,0,0,0,0,0,0,0,0,0,0,0,0,0,0,0,0,0,0,0,0,0,0,0,0,0,0,0,0,0,0,0,0,0,0,0,0,0,0],"sum_hessian":[1.97E2,9.8E1,9.9E1,2E1,7.8E1,7.7E1,2.2E1,1.5E1,5E0,6.8E1,1E1,1.4E1,6.3E1,1.2E1,1E1,5.5E1,1.3E1,7E0,3E0,4E0,1E1,5.6E1,7E0,5.2E1,3E0,7E0,6E0,6E0,4E0,5E1,6E0,6E0,4.6E1,3E0,3E0,2.5E1,2.5E1,3E0,3E0,3.9E1,7E0,1.8E1,7E0,1.8E1,7E0,3.2E1,7E0,1E1,8E0,1.1E1,7E0,1.8E1,1.4E1,4E0,6E0,4E0,4E0,3E0,8E0,4E0,3E0,5E0,1.3E1,3E0,1.1E1,5E0,3E0,4E0,7E0],"tree_param":{"num_deleted":"0","num_feature":"3","num_nodes":"69","size_leaf_vector":"1"}},{"base_weights":[-1.5574603E-2,4.9710846E-1,-5.2290434E-1,1.039542E0,3.3889925E-1,-3.3936957E-1,-1.0951445E0,4.16424E-2,-9.6975025E-3,4.5994046E-1,-4.3161628E-1,2.9532632E-1,-4.8444948E-1,-1.5973318E-2,-4.3311674E-2,3.409254E-1,8.661898E-1,-2.5913944E-3,-2.5256151E-2,-7.242607E-3,5.2252656E-1,-3.974832E-1,-2.7033905E-2,4.1249856E-1,-1.6796095E-2,3.4569465E-2,2.5664347E-1,2.1939524E-2,3.4734167E-4,-4.808215E-1,6.9865733E-3,-1.5013993E-1,4.8860994E-1,-1.3166084E-3,1.3074542E-2,-2.1417643E-1,-7.169791E-1,-1.1867844E-2,4.989293E-3,5.583186E-1,1.8764915E-3,-4.698757E-1,1.13689415E-2,-3.7385845E-1,-3.7860096E-2,4.48276E-1,2.4485597E-2,6.3874E-2,-1.0317129E0,-8.1000507E-1,3.3578154E-1,6.4631146E-1,1.5141329E-1,-5.5719293E-3,6.8365852E-3,-1.2767524E-2,-3.632656E-2,-3.149134E-2,-5.15182E-1,2.6319327E-3,1.4190591E-2,7.656389E-3,2.0721901E-2,-3.519E-3,2.3375341E-1,-7.903818E-3,-1.8466715E-2,1.153391E-2,1.985625E-3],"categories":[],"categories_nodes":[],"categories_segments":[],"categories_sizes":[],"default_left":[0,0,0,0,0,0,0,0,0,0,0,0,0,0,0,0,0,0,0,0,0,0,0,0,0,0,0,0,0,0,0,0,0,0,0,0,0,0,0,0,0,0,0,0,0,0,0,0,0,0,0,0,0,0,0,0,0,0,0,0,0,0,0,0,0,0,0,0,0],"id":18,"left_children":[1,3,5,7,9,11,13,-1,-1,15,17,19,21,-1,-1,23,25,-1,-1,-1,27,29,-1,31,-1,-1,33,-1,-1,35,-1,37,39,-1,-1,41,43,-1,-1,45,-1,47,-1,49,-1,51,-1,53,55,57,59,61,63,-1,-1,-1,-1,-1,65,-1,-1,-1,-1,-1,67,-1,-1,-1,-1],"loss_changes":[5.211974E1,7.9591427E0,9.946299E0,1.4424963E1,7.7684402E0,7.4882793E0,4.140543E0,0E0,0E0,2.869814E0,1.7288458E0,2.2060971E0,2.0659227E0,0E0,0E0,4.24158E0,2.783226E0,0E0,0E0,0E0,1.5491796E0,3.3164997E0,0E0,2.4234438E0,0E0,0E0,5.307691E-1,0E0,0E0,2.9951916E0,0E0,8.223523E-1,1.3377485E0,0E0,0E0,4.561845E0,4.98357E0,0E0,0E0,7.5844383E-1,0E0,6.0169287E0,0E0,6.555298E0,0E0,1.8151336E0,0E0,6.3890404E-1,4.888878E-1,2.030077E-1,2.8026038E-1,3.539362E-1,4.081593E-1,0E0,0E0,0E0,0E0,0E0,1.1620045E-2,0E0,0E0,0E0,0E0,0E0,3.1992775E-1,0E0,0E0,0E0,0E0],"parents":[2147483647,0,0,1,1,2,2,3,3,4,4,5,5,6,6,9,9,10,10,11,11,12,12,15,15,16,16,20,20,21,21,23,23,26,26,29,29,31,31,32,32,35,35,36,36,39,39,41,41,43,43,45,45,47,47,48,48,49,49,50,50,51,51,52,52,58,58,64,64],"right_children":[2,4,6,8,10,12,14,-1,-1,16,18,20,22,-1,-1,24,26,-1,-1,-1,28,30,-1,32,-1,-1,34,-1,-1,36,-1,38,40,-1,-1,42,44,-1,-1,46,-1,48,-1,50,-1,52,-1,54,56,58,60,62,64,-1,-1,-1,-1,-1,66,-1,-1,-1,-1,-1,68,-1,-1,-1,-1],"split_conditions":[3.61E-1,1.24E-2,8.933E-1,4.4660217E-1,7.1290797E-1,2.0263822E-1,4.381E-1,4.16424E-2,-9.6975025E-3,5.572E-1,9.336717E-1,2.9971164E-2,9.071359E-1,-1.5973318E-2,-4.3311674E-2,5.302E-1,6.295105E-1,-2.5913944E-3,-2.5256151E-2,-7.242607E-3,1.275115E-1,8.217609E-1,-2.7033905E-2,5.52E-2,-1.6796095E-2,3.4569465E-2,1.9927286E-1,2.1939524E-2,3.4734167E-4,5.458823E-1,6.9865733E-3,2.1242958E-1,3.9461562E-1,-1.3166084E-3,1.3074542E-2,6.579E-1,5.88241E-1,-1.1867844E-2,4.989293E-3,3.3824095E-1,1.8764915E-3,5.488E-1,1.13689415E-2,4.4660217E-1,-3.7860096E-2,1.608E-1,2.4485597E-2,4.4927284E-1,3.673E-1,5.698E-1,6.992729E-1,8.350101E-2,2.2759727E-1,-5.5719293E-3,6.8365852E-3,-1.2767524E-2,-3.632656E-2,-3.149134E-2,7.932E-1,2.6319327E-3,1.4190591E-2,7.656389E-3,2.0721901E-2,-3.519E-3,3.1173685E-1,-7.903818E-3,-1.8466715E-2,1.153391E-2,1.985625E-3],"split_indices":[0,0,0,1,1,1,1,0,0,1,1,1,1,0,0,1,1,0,0,0,1,1,0,0,0,0,0,0,0,0,0,1,1,0,0,1,1,0,0,1,0,1,0,1,0,0,0,0,0,0,0,0,0,0,0,0,0,0,0,0,0,0,0,0,0,0,0,0,0],"split_type":[0,0,0,0,0,0,0,0,0,0,0,0,0,0,0,0,0,0,0,0,0,0,0,0,0,0,0,0,0,0,0,0,0,0,0,0,0,0,0,0,0,0,0,0,0,0,0,0,0,0,0,0,0,0,0,0,0,0,0,0,0,0,0,0,0,0,0,0,0],"sum_hessian":[1.97E2,9.8E1,9.9E1,2E1,7.8E1,7.7E1,2.2E1,1.5E1,5E0,6.8E1,1E1,1.4E1,6.3E1,1.2E1,1E1,5.5E1,1.3E1,7E0,3E0,4E0,1E1,5.6E1,7E0,5.2E1,3E0,7E0,6E0,6E0,4E0,5E1,6E0,6E0,4.6E1,3E0,3E0,2.5E1,2.5E1,3E0,3E0,3.9E1,7E0,1.8E1,7E0,1.8E1,7E0,3.2E1,7E0,1E1,8E0,1.1E1,7E0,1.8E1,1.4E1,4E0,6E0,4E0,4E0,3E0,8E0,4E0,3E0,5E0,1.3E1,3E0,1.1E1,5E0,3E0,4E0,7E0],"tree_param":{"num_deleted":"0","num_feature":"3","num_nodes":"69","size_leaf_vector":"1"}},{"base_weights":[-1.5574603E-2,4.9710846E-1,-5.2290434E-1,1.039542E0,3.3889925E-1,-3.3936957E-1,-1.0951445E0,4.16424E-2,-9.6975025E-3,4.5994046E-1,-4.3161628E-1,2.9532632E-1,-4.8444948E-1,-1.5973318E-2,-4.3311674E-2,3.409254E-1,8.661898E-1,-2.5913944E-3,-2.5256151E-2,-7.242607E-3,5.2252656E-1,-3.974832E-1,-2.7033905E-2,4.1249856E-1,-1.6796095E-2,3.4569465E-2,2.5664347E-1,2.1939524E-2,3.4734167E-4,-4.808215E-1,6.9865733E-3,-1.5013993E-1,4.8860994E-1,-1.3166084E-3,1.3074542E-2,-2.1417643E-1,-7.169791E-1,-1.1867844E-2,4.989293E-3,5.583186E-1,1.8764915E-3,-4.698757E-1,1.13689415E-2,-3.7385845E-1,-3.7860096E-2,4.48276E-1,2.4485597E-2,6.3874E-2,-1.0317129E0,-8.1000507E-1,3.3578154E-1,6.4631146E-1,1.5141329E-1,-5.5719293E-3,6.8365852E-3,-1.2767524E-2,-3.632656E-2,-3.149134E-2,-5.15182E-1,2.6319327E-3,1.4190591E-2,7.656389E-3,2.0721901E-2,-3.519E-3,2.3375341E-1,-7.903818E-3,-1.8466715E-2,1.153391E-2,1.985625E-3],"categories":[],"categories_nodes":[],"categories_segments":[],"categories_sizes":[],"default_left":[0,0,0,0,0,0,0,0,0,0,0,0,0,0,0,0,0,0,0,0,0,0,0,0,0,0,0,0,0,0,0,0,0,0,0,0,0,0,0,0,0,0,0,0,0,0,0,0,0,0,0,0,0,0,0,0,0,0,0,0,0,0,0,0,0,0,0,0,0],"id":19,"left_children":[1,3,5,7,9,11,13,-1,-1,15,17,19,21,-1,-1,23,25,-1,-1,-1,27,29,-1,31,-1,-1,33,-1,-1,35,-1,37,39,-1,-1,41,43,-1,-1,45,-1,47,-1,49,-1,51,-1,53,55,57,59,61,63,-1,-1,-1,-1,-1,65,-1,-1,-1,-1,-1,67,-1,-1,-1,-1],"loss_changes":[5.211974E1,7.9591427E0,9.946299E0,1.4424963E1,7.7684402E0,7.4882793E0,4.140543E0,0E0,0E0,2.869814E0,1.7288458E0,2.2060971E0,2.0659227E0,0E0,0E0,4.24158E0,2.783226E0,0E0,0E0,0E0,1.5491796E0,3.3164997E0,0E0,2.4234438E0,0E0,0E0,5.307691E-1,0E0,0E0,2.9951916E0,0E0,8.223523E-1,1.3377485E0,0E0,0E0,4.561845E0,4.98357E0,0E0,0E0,7.5844383E-1,0E0,6.0169287E0,0E0,6.555298E0,0E0,1.8151336E0,0E0,6.3890404E-1,4.888878E-1,2.030077E-1,2.8026038E-1,3.539362E-1,4.081593E-1,0E0,0E0,0E0,0E0,0E0,1.1620045E-2,0E0,0E0,0E0,0E0,0E0,3.1992775E-1,0E0,0E0,0E0,0E0],"parents":[2147483647,0,0,1,1,2,2,3,3,4,4,5,5,6,6,9,9,10,10,11,11,12,12,15,15,16,16,20,20,21,21,23,23,26,26,29,29,31,31,32,32,35,35,36,36,39,39,41,41,43,43,45,45,47,47,48,48,49,49,50,50,51,51,52,52,58,58,64,64],"right_children":[2,4,6,8,10,12,14,-1,-1,16,18,20,22,-1,-1,24,26,-1,-1,-1,28,30,-1,32,-1,-1,34,-1,-1,36,-1,38,40,-1,-1,42,44,-1,-1,46,-1,48,-1,50,-1,52,-1,54,56,58,60,62,64,-1,-1,-1,-1,-1,66,-1,-1,-1,-1,-1,68,-1,-1,-1,-1],"split_conditions":[3.61E-1,1.24E-2,8.933E-1,4.4660217E-1,7.1290797E-1,2.0263822E-1,4.381E-1,4.16424E-2,-9.6975025E-3,5.572E-1,9.336717E-1,2.9971164E-2,9.071359E-1,-1.5973318E-2,-4.3311674E-2,5.302E-1,6.295105E-1,-2.5913944E-3,-2.5256151E-2,-7.242607E-3,1.275115E-1,8.217609E-1,-2.7033905E-2,5.52E-2,-1.6796095E-2,3.4569465E-2,1.9927286E-1,2.1939524E-2,3.4734167E-4,5.458823E-1,6.9865733E-3,2.1242958E-1,3.9461562E-1,-1.3166084E-3,1.3074542E-2,6.579E-1,5.88241E-1,-1.1867844E-2,4.989293E-3,3.3824095E-1,1.8764915E-3,5.488E-1,1.13689415E-2,4.4660217E-1,-3.7860096E-2,1.608E-1,2.4485597E-2,4.4927284E-1,3.673E-1,5.698E-1,6.992729E-1,8.350101E-2,2.2759727E-1,-5.5719293E-3,6.8365852E-3,-1.2767524E-2,-3.632656E-2,-3.149134E-2,7.932E-1,2.6319327E-3,1.4190591E-2,7.656389E-3,2.0721901E-2,-3.519E-3,3.1173685E-1,-7.903818E-3,-1.8466715E-2,1.153391E-2,1.985625E-3],"split_indices":[0,0,0,1,1,1,1,0,0,1,1,1,1,0,0,1,1,0,0,0,1,1,0,0,0,0,0,0,0,0,0,1,1,0,0,1,1,0,0,1,0,1,0,1,0,0,0,0,0,0,0,0,0,0,0,0,0,0,0,0,0,0,0,0,0,0,0,0,0],"split_type":[0,0,0,0,0,0,0,0,0,0,0,0,0,0,0,0,0,0,0,0,0,0,0,0,0,0,0,0,0,0,0,0,0,0,0,0,0,0,0,0,0,0,0,0,0,0,0,0,0,0,0,0,0,0,0,0,0,0,0,0,0,0,0,0,0,0,0,0,0],"sum_hessian":[1.97E2,9.8E1,9.9E1,2E1,7.8E1,7.7E1,2.2E1,1.5E1,5E0,6.8E1,1E1,1.4E1,6.3E1,1.2E1,1E1,5.5E1,1.3E1,7E0,3E0,4E0,1E1,5.6E1,7E0,5.2E1,3E0,7E0,6E0,6E0,4E0,5E1,6E0,6E0,4.6E1,3E0,3E0,2.5E1,2.5E1,3E0,3E0,3.9E1,7E0,1.8E1,7E0,1.8E1,7E0,3.2E1,7E0,1E1,8E0,1.1E1,7E0,1.8E1,1.4E1,4E0,6E0,4E0,4E0,3E0,8E0,4E0,3E0,5E0,1.3E1,3E0,1.1E1,5E0,3E0,4E0,7E0],"tree_param":{"num_deleted":"0","num_feature":"3","num_nodes":"69","size_leaf_vector":"1"}},{"base_weights":[-6.055057E-2,4.341878E-1,-5.028292E-1,5.558967E-1,-5.102377E-1,-2.4256347E-1,-7.2912085E-1,4.9838588E-1,3.3699982E-2,3.115414E-3,-2.3979962E-2,-6.356552E-1,-1.0986455E-1,-3.8491166E-1,-3.844404E-2,6.7674947E-1,2.1557862E-1,-2.5020365E-2,-1.4035158E-3,-5.395898E-1,2.3225756E-2,-2.1953006E-1,-2.351473E-2,2.81681E-1,2.5529558E-2,-1.1293138E-2,2.984302E-1,-1.811868E-2,-5.3071068E-3,1.9548336E-2,-1.731349E-1,-6.5011746E-1,7.686616E-2,1.5960159E-2,9.771135E-2,1.935892E-2,1.3245952E-1,-3.0947897E-1,8.735838E-3,-2.6087428E-3,-2.4821263E-2,1.9241175E-2,-1.02861986E-1,7.493601E-4,3.1306574E-3,-2.1401428E-1,4.612704E-1,-1.0213755E-1,-5.483474E-1,-3.2083163E-1,6.2250933E-3,2.9917322E-3,-1.7904371E-2,1.9911528E-2,2.0695262E-1,-1.7289799E-2,-5.2124597E-3,-2.2103902E-2,-6.695939E-3,4.0485457E-4,-2.1094695E-2,-9.830594E-4,1.190649E-2,3.1325643E-4,-1.275106E-3],"categories":[],"categories_nodes":[],"categories_segments":[],"categories_sizes":[],"default_left":[0,0,0,0,0,0,0,0,0,0,0,0,0,0,0,0,0,0,0,0,0,0,0,0,0,0,0,0,0,0,0,0,0,0,0,0,0,0,0,0,0,0,0,0,0,0,0,0,0,0,0,0,0,0,0,0,0,0,0,0,0,0,0,0,0],"id":20,"left_children":[1,3,5,7,9,11,13,15,-1,-1,-1,17,19,21,-1,23,25,-1,-1,27,29,31,-1,33,-1,-1,35,-1,-1,-1,37,39,41,-1,43,-1,45,47,-1,-1,-1,-1,49,-1,-1,51,53,55,57,59,-1,-1,-1,-1,61,63,-1,-1,-1,-1,-1,-1,-1,-1,-1],"loss_changes":[4.384585E1,1.1364481E1,5.9255276E0,2.1485863E0,2.6902466E0,2.5782309E0,1.1496748E1,3.82341E0,0E0,0E0,0E0,1.8530407E0,2.348507E0,2.60846E0,0E0,4.1187344E0,1.9338906E0,0E0,0E0,1.6015697E-1,4.546165E0,4.001691E0,0E0,1.0072532E0,0E0,0E0,1.8531272E0,0E0,0E0,0E0,1.9314376E0,1.5418215E0,2.2845588E0,0E0,9.821877E-3,0E0,2.866232E0,9.795799E-1,0E0,0E0,0E0,0E0,1.3056598E0,0E0,0E0,1.8546634E0,5.613034E-1,9.256576E-2,4.0519285E-1,1.574476E0,0E0,0E0,0E0,0E0,4.8646864E-1,7.88505E-3,0E0,0E0,0E0,0E0,0E0,0E0,0E0,0E0,0E0],"parents":[2147483647,0,0,1,1,2,2,3,3,4,4,5,5,6,6,7,7,11,11,12,12,13,13,15,15,16,16,19,19,20,20,21,21,23,23,26,26,30,30,31,31,32,32,34,34,36,36,37,37,42,42,45,45,46,46,47,47,48,48,49,49,54,54,55,55],"right_children":[2,4,6,8,10,12,14,16,-1,-1,-1,18,20,22,-1,24,26,-1,-1,28,30,32,-1,34,-1,-1,36,-1,-1,-1,38,40,42,-1,44,-1,46,48,-1,-1,-1,-1,50,-1,-1,52,54,56,58,60,-1,-1,-1,-1,62,64,-1,-1,-1,-1,-1,-1,-1,-1,-1],"split_conditions":[3.589E-1,7.1290797E-1,4.787E-1,3.534E-1,7.11E-2,5.6288713E-1,7.327618E-1,3.429E-1,3.3699982E-2,3.115414E-3,-2.3979962E-2,3.086717E-1,8.6E-3,9.071359E-1,-3.844404E-2,9.0238795E-2,3.539E-1,-2.5020365E-2,-1.4035158E-3,5E-4,1.275115E-1,5.7312405E-1,-2.351473E-2,5E-4,2.5529558E-2,-1.1293138E-2,4.4660217E-1,-1.811868E-2,-5.3071068E-3,1.9548336E-2,4.381E-1,5.488E-1,6.836717E-1,1.5960159E-2,2.43E-2,1.935892E-2,6.211717E-1,3.2598293E-1,8.735838E-3,-2.6087428E-3,-2.4821263E-2,1.9241175E-2,8.295E-1,7.493601E-4,3.1306574E-3,5.441E-1,6.295105E-1,2.139E-1,3.711717E-1,7.203E-1,6.2250933E-3,2.9917322E-3,-1.7904371E-2,1.9911528E-2,6.579E-1,2.0263822E-1,-5.2124597E-3,-2.2103902E-2,-6.695939E-3,4.0485457E-4,-2.1094695E-2,-9.830594E-4,1.190649E-2,3.1325643E-4,-1.275106E-3],"split_indices":[0,1,1,0,0,0,0,1,0,0,0,1,1,1,0,1,1,0,0,1,1,1,0,1,0,0,1,0,0,0,1,1,1,0,1,0,1,1,0,0,0,0,1,0,0,1,1,1,1,1,0,0,0,0,1,1,0,0,0,0,0,0,0,0,0],"split_type":[0,0,0,0,0,0,0,0,0,0,0,0,0,0,0,0,0,0,0,0,0,0,0,0,0,0,0,0,0,0,0,0,0,0,0,0,0,0,0,0,0,0,0,0,0,0,0,0,0,0,0,0,0,0,0,0,0,0,0,0,0,0,0,0,0],"sum_hessian":[1.97E2,9.3E1,1.04E2,8.3E1,1E1,5E1,5.4E1,7.9E1,4E0,4E0,6E0,1.1E1,3.9E1,3.7E1,1.7E1,4.7E1,3.2E1,7E0,4E0,8E0,3.1E1,2.9E1,8E0,1.9E1,2.8E1,3E0,2.9E1,5E0,3E0,6E0,2.5E1,1.1E1,1.8E1,6E0,1.3E1,7E0,2.2E1,2E1,5E0,4E0,7E0,3E0,1.5E1,3E0,1E1,1.1E1,1.1E1,1.2E1,8E0,9E0,6E0,7E0,4E0,4E0,7E0,7E0,5E0,3E0,5E0,6E0,3E0,4E0,3E0,4E0,3E0],"tree_param":{"num_deleted":"0","num_feature":"3","num_nodes":"65","size_leaf_vector":"1"}},{"base_weights":[-6.055057E-2,4.341878E-1,-5.028292E-1,5.558967E-1,-5.102377E-1,-2.4256347E-1,-7.2912085E-1,4.9838588E-1,3.3699982E-2,3.115414E-3,-2.3979962E-2,-6.356552E-1,-1.0986455E-1,-3.8491166E-1,-3.844404E-2,6.7674947E-1,2.1557862E-1,-2.5020365E-2,-1.4035158E-3,-5.395898E-1,2.3225756E-2,-2.1953006E-1,-2.351473E-2,2.81681E-1,2.5529558E-2,-1.1293138E-2,2.984302E-1,-1.811868E-2,-5.3071068E-3,1.9548336E-2,-1.731349E-1,-6.5011746E-1,7.686616E-2,1.5960159E-2,9.771135E-2,1.935892E-2,1.3245952E-1,-3.0947897E-1,8.735838E-3,-2.6087428E-3,-2.4821263E-2,1.9241175E-2,-1.02861986E-1,7.493601E-4,3.1306574E-3,-2.1401428E-1,4.612704E-1,-1.0213755E-1,-5.483474E-1,-3.2083163E-1,6.2250933E-3,2.9917322E-3,-1.7904371E-2,1.9911528E-2,2.0695262E-1,-1.7289799E-2,-5.2124597E-3,-2.2103902E-2,-6.695939E-3,4.0485457E-4,-2.1094695E-2,-9.830594E-4,1.190649E-2,3.1325643E-4,-1.275106E-3],"categories":[],"categories_nodes":[],"categories_segments":[],"categories_sizes":[],"default_left":[0,0,0,0,0,0,0,0,0,0,0,0,0,0,0,0,0,0,0,0,0,0,0,0,0,0,0,0,0,0,0,0,0,0,0,0,0,0,0,0,0,0,0,0,0,0,0,0,0,0,0,0,0,0,0,0,0,0,0,0,0,0,0,0,0],"id":21,"left_children":[1,3,5,7,9,11,13,15,-1,-1,-1,17,19,21,-1,23,25,-1,-1,27,29,31,-1,33,-1,-1,35,-1,-1,-1,37,39,41,-1,43,-1,45,47,-1,-1,-1,-1,49,-1,-1,51,53,55,57,59,-1,-1,-1,-1,61,63,-1,-1,-1,-1,-1,-1,-1,-1,-1],"loss_changes":[4.384585E1,1.1364481E1,5.9255276E0,2.1485863E0,2.6902466E0,2.5782309E0,1.1496748E1,3.82341E0,0E0,0E0,0E0,1.8530407E0,2.348507E0,2.60846E0,0E0,4.1187344E0,1.9338906E0,0E0,0E0,1.6015697E-1,4.546165E0,4.001691E0,0E0,1.0072532E0,0E0,0E0,1.8531272E0,0E0,0E0,0E0,1.9314376E0,1.5418215E0,2.2845588E0,0E0,9.821877E-3,0E0,2.866232E0,9.795799E-1,0E0,0E0,0E0,0E0,1.3056598E0,0E0,0E0,1.8546634E0,5.613034E-1,9.256576E-2,4.0519285E-1,1.574476E0,0E0,0E0,0E0,0E0,4.8646864E-1,7.88505E-3,0E0,0E0,0E0,0E0,0E0,0E0,0E0,0E0,0E0],"parents":[2147483647,0,0,1,1,2,2,3,3,4,4,5,5,6,6,7,7,11,11,12,12,13,13,15,15,16,16,19,19,20,20,21,21,23,23,26,26,30,30,31,31,32,32,34,34,36,36,37,37,42,42,45,45,46,46,47,47,48,48,49,49,54,54,55,55],"right_children":[2,4,6,8,10,12,14,16,-1,-1,-1,18,20,22,-1,24,26,-1,-1,28,30,32,-1,34,-1,-1,36,-1,-1,-1,38,40,42,-1,44,-1,46,48,-1,-1,-1,-1,50,-1,-1,52,54,56,58,60,-1,-1,-1,-1,62,64,-1,-1,-1,-1,-1,-1,-1,-1,-1],"split_conditions":[3.589E-1,7.1290797E-1,4.787E-1,3.534E-1,7.11E-2,5.6288713E-1,7.327618E-1,3.429E-1,3.3699982E-2,3.115414E-3,-2.3979962E-2,3.086717E-1,8.6E-3,9.071359E-1,-3.844404E-2,9.0238795E-2,3.539E-1,-2.5020365E-2,-1.4035158E-3,5E-4,1.275115E-1,5.7312405E-1,-2.351473E-2,5E-4,2.5529558E-2,-1.1293138E-2,4.4660217E-1,-1.811868E-2,-5.3071068E-3,1.9548336E-2,4.381E-1,5.488E-1,6.836717E-1,1.5960159E-2,2.43E-2,1.935892E-2,6.211717E-1,3.2598293E-1,8.735838E-3,-2.6087428E-3,-2.4821263E-2,1.9241175E-2,8.295E-1,7.493601E-4,3.1306574E-3,5.441E-1,6.295105E-1,2.139E-1,3.711717E-1,7.203E-1,6.2250933E-3,2.9917322E-3,-1.7904371E-2,1.9911528E-2,6.579E-1,2.0263822E-1,-5.2124597E-3,-2.2103902E-2,-6.695939E-3,4.0485457E-4,-2.1094695E-2,-9.830594E-4,1.190649E-2,3.1325643E-4,-1.275106E-3],"split_indices":[0,1,1,0,0,0,0,1,0,0,0,1,1,1,0,1,1,0,0,1,1,1,0,1,0,0,1,0,0,0,1,1,1,0,1,0,1,1,0,0,0,0,1,0,0,1,1,1,1,1,0,0,0,0,1,1,0,0,0,0,0,0,0,0,0],"split_type":[0,0,0,0,0,0,0,0,0,0,0,0,0,0,0,0,0,0,0,0,0,0,0,0,0,0,0,0,0,0,0,0,0,0,0,0,0,0,0,0,0,0,0,0,0,0,0,0,0,0,0,0,0,0,0,0,0,0,0,0,0,0,0,0,0],"sum_hessian":[1.97E2,9.3E1,1.04E2,8.3E1,1E1,5E1,5.4E1,7.9E1,4E0,4E0,6E0,1.1E1,3.9E1,3.7E1,1.7E1,4.7E1,3.2E1,7E0,4E0,8E0,3.1E1,2.9E1,8E0,1.9E1,2.8E1,3E0,2.9E1,5E0,3E0,6E0,2.5E1,1.1E1,1.8E1,6E0,1.3E1,7E0,2.2E1,2E1,5E0,4E0,7E0,3E0,1.5E1,3E0,1E1,1.1E1,1.1E1,1.2E1,8E0,9E0,6E0,7E0,4E0,4E0,7E0,7E0,5E0,3E0,5E0,6E0,3E0,4E0,3E0,4E0,3E0],"tree_param":{"num_deleted":"0","num_feature":"3","num_nodes":"65","size_leaf_vector":"1"}},{"base_weights":[-6.055057E-2,4.341878E-1,-5.028292E-1,5.558967E-1,-5.102377E-1,-2.4256347E-1,-7.2912085E-1,4.9838588E-1,3.3699982E-2,3.115414E-3,-2.3979962E-2,-6.356552E-1,-1.0986455E-1,-3.8491166E-1,-3.844404E-2,6.7674947E-1,2.1557862E-1,-2.5020365E-2,-1.4035158E-3,-5.395898E-1,2.3225756E-2,-2.1953006E-1,-2.351473E-2,2.81681E-1,2.5529558E-2,-1.1293138E-2,2.984302E-1,-1.811868E-2,-5.3071068E-3,1.9548336E-2,-1.731349E-1,-6.5011746E-1,7.686616E-2,1.5960159E-2,9.771135E-2,1.935892E-2,1.3245952E-1,-3.0947897E-1,8.735838E-3,-2.6087428E-3,-2.4821263E-2,1.9241175E-2,-1.02861986E-1,7.493601E-4,3.1306574E-3,-2.1401428E-1,4.612704E-1,-1.0213755E-1,-5.483474E-1,-3.2083163E-1,6.2250933E-3,2.9917322E-3,-1.7904371E-2,1.9911528E-2,2.0695262E-1,-1.7289799E-2,-5.2124597E-3,-2.2103902E-2,-6.695939E-3,4.0485457E-4,-2.1094695E-2,-9.830594E-4,1.190649E-2,3.1325643E-4,-1.275106E-3],"categories":[],"categories_nodes":[],"categories_segments":[],"categories_sizes":[],"default_left":[0,0,0,0,0,0,0,0,0,0,0,0,0,0,0,0,0,0,0,0,0,0,0,0,0,0,0,0,0,0,0,0,0,0,0,0,0,0,0,0,0,0,0,0,0,0,0,0,0,0,0,0,0,0,0,0,0,0,0,0,0,0,0,0,0],"id":22,"left_children":[1,3,5,7,9,11,13,15,-1,-1,-1,17,19,21,-1,23,25,-1,-1,27,29,31,-1,33,-1,-1,35,-1,-1,-1,37,39,41,-1,43,-1,45,47,-1,-1,-1,-1,49,-1,-1,51,53,55,57,59,-1,-1,-1,-1,61,63,-1,-1,-1,-1,-1,-1,-1,-1,-1],"loss_changes":[4.384585E1,1.1364481E1,5.9255276E0,2.1485863E0,2.6902466E0,2.5782309E0,1.1496748E1,3.82341E0,0E0,0E0,0E0,1.8530407E0,2.348507E0,2.60846E0,0E0,4.1187344E0,1.9338906E0,0E0,0E0,1.6015697E-1,4.546165E0,4.001691E0,0E0,1.0072532E0,0E0,0E0,1.8531272E0,0E0,0E0,0E0,1.9314376E0,1.5418215E0,2.2845588E0,0E0,9.821877E-3,0E0,2.866232E0,9.795799E-1,0E0,0E0,0E0,0E0,1.3056598E0,0E0,0E0,1.8546634E0,5.613034E-1,9.256576E-2,4.0519285E-1,1.574476E0,0E0,0E0,0E0,0E0,4.8646864E-1,7.88505E-3,0E0,0E0,0E0,0E0,0E0,0E0,0E0,0E0,0E0],"parents":[2147483647,0,0,1,1,2,2,3,3,4,4,5,5,6,6,7,7,11,11,12,12,13,13,15,15,16,16,19,19,20,20,21,21,23,23,26,26,30,30,31,31,32,32,34,34,36,36,37,37,42,42,45,45,46,46,47,47,48,48,49,49,54,54,55,55],"right_children":[2,4,6,8,10,12,14,16,-1,-1,-1,18,20,22,-1,24,26,-1,-1,28,30,32,-1,34,-1,-1,36,-1,-1,-1,38,40,42,-1,44,-1,46,48,-1,-1,-1,-1,50,-1,-1,52,54,56,58,60,-1,-1,-1,-1,62,64,-1,-1,-1,-1,-1,-1,-1,-1,-1],"split_conditions":[3.589E-1,7.1290797E-1,4.787E-1,3.534E-1,7.11E-2,5.6288713E-1,7.327618E-1,3.429E-1,3.3699982E-2,3.115414E-3,-2.3979962E-2,3.086717E-1,8.6E-3,9.071359E-1,-3.844404E-2,9.0238795E-2,3.539E-1,-2.5020365E-2,-1.4035158E-3,5E-4,1.275115E-1,5.7312405E-1,-2.351473E-2,5E-4,2.5529558E-2,-1.1293138E-2,4.4660217E-1,-1.811868E-2,-5.3071068E-3,1.9548336E-2,4.381E-1,5.488E-1,6.836717E-1,1.5960159E-2,2.43E-2,1.935892E-2,6.211717E-1,3.2598293E-1,8.735838E-3,-2.6087428E-3,-2.4821263E-2,1.9241175E-2,8.295E-1,7.493601E-4,3.1306574E-3,5.441E-1,6.295105E-1,2.139E-1,3.711717E-1,7.203E-1,6.2250933E-3,2.9917322E-3,-1.7904371E-2,1.9911528E-2,6.579E-1,2.0263822E-1,-5.2124597E-3,-2.2103902E-2,-6.695939E-3,4.0485457E-4,-2.1094695E-2,-9.830594E-4,1.190649E-2,3.1325643E-4,-1.275106E-3],"split_indices":[0,1,1,0,0,0,0,1,0,0,0,1,1,1,0,1,1,0,0,1,1,1,0,1,0,0,1,0,0,0,1,1,1,0,1,0,1,1,0,0,0,0,1,0,0,1,1,1,1,1,0,0,0,0,1,1,0,0,0,0,0,0,0,0,0],"split_type":[0,0,0,0,0,0,0,0,0,0,0,0,0,0,0,0,0,0,0,0,0,0,0,0,0,0,0,0,0,0,0,0,0,0,0,0,0,0,0,0,0,0,0,0,0,0,0,0,0,0,0,0,0,0,0,0,0,0,0,0,0,0,0,0,0],"sum_hessian":[1.97E2,9.3E1,1.04E2,8.3E1,1E1,5E1,5.4E1,7.9E1,4E0,4E0,6E0,1.1E1,3.9E1,3.7E1,1.7E1,4.7E1,3.2E1,7E0,4E0,8E0,3.1E1,2.9E1,8E0,1.9E1,2.8E1,3E0,2.9E1,5E0,3E0,6E0,2.5E1,1.1E1,1.8E1,6E0,1.3E1,7E0,2.2E1,2E1,5E0,4E0,7E0,3E0,1.5E1,3E0,1E1,1.1E1,1.1E1,1.2E1,8E0,9E0,6E0,7E0,4E0,4E0,7E0,7E0,5E0,3E0,5E0,6E0,3E0,4E0,3E0,4E0,3E0],"tree_param":{"num_deleted":"0","num_feature":"3","num_nodes":"65","size_leaf_vector":"1"}},{"base_weights":[-6.055057E-2,4.341878E-1,-5.028292E-1,5.558967E-1,-5.102377E-1,-2.4256347E-1,-7.2912085E-1,4.9838588E-1,3.3699982E-2,3.115414E-3,-2.3979962E-2,-6.356552E-1,-1.0986455E-1,-3.8491166E-1,-3.844404E-2,6.7674947E-1,2.1557862E-1,-2.5020365E-2,-1.4035158E-3,-5.395898E-1,2.3225756E-2,-2.1953006E-1,-2.351473E-2,2.81681E-1,2.5529558E-2,-1.1293138E-2,2.984302E-1,-1.811868E-2,-5.3071068E-3,1.9548336E-2,-1.731349E-1,-6.5011746E-1,7.686616E-2,1.5960159E-2,9.771135E-2,1.935892E-2,1.3245952E-1,-3.0947897E-1,8.735838E-3,-2.6087428E-3,-2.4821263E-2,1.9241175E-2,-1.02861986E-1,7.493601E-4,3.1306574E-3,-2.1401428E-1,4.612704E-1,-1.0213755E-1,-5.483474E-1,-3.2083163E-1,6.2250933E-3,2.9917322E-3,-1.7904371E-2,1.9911528E-2,2.0695262E-1,-1.7289799E-2,-5.2124597E-3,-2.2103902E-2,-6.695939E-3,4.0485457E-4,-2.1094695E-2,-9.830594E-4,1.190649E-2,3.1325643E-4,-1.275106E-3],"categories":[],"categories_nodes":[],"categories_segments":[],"categories_sizes":[],"default_left":[0,0,0,0,0,0,0,0,0,0,0,0,0,0,0,0,0,0,0,0,0,0,0,0,0,0,0,0,0,0,0,0,0,0,0,0,0,0,0,0,0,0,0,0,0,0,0,0,0,0,0,0,0,0,0,0,0,0,0,0,0,0,0,0,0],"id":23,"left_children":[1,3,5,7,9,11,13,15,-1,-1,-1,17,19,21,-1,23,25,-1,-1,27,29,31,-1,33,-1,-1,35,-1,-1,-1,37,39,41,-1,43,-1,45,47,-1,-1,-1,-1,49,-1,-1,51,53,55,57,59,-1,-1,-1,-1,61,63,-1,-1,-1,-1,-1,-1,-1,-1,-1],"loss_changes":[4.384585E1,1.1364481E1,5.9255276E0,2.1485863E0,2.6902466E0,2.5782309E0,1.1496748E1,3.82341E0,0E0,0E0,0E0,1.8530407E0,2.348507E0,2.60846E0,0E0,4.1187344E0,1.9338906E0,0E0,0E0,1.6015697E-1,4.546165E0,4.001691E0,0E0,1.0072532E0,0E0,0E0,1.8531272E0,0E0,0E0,0E0,1.9314376E0,1.5418215E0,2.2845588E0,0E0,9.821877E-3,0E0,2.866232E0,9.795799E-1,0E0,0E0,0E0,0E0,1.3056598E0,0E0,0E0,1.8546634E0,5.613034E-1,9.256576E-2,4.0519285E-1,1.574476E0,0E0,0E0,0E0,0E0,4.8646864E-1,7.88505E-3,0E0,0E0,0E0,0E0,0E0,0E0,0E0,0E0,0E0],"parents":[2147483647,0,0,1,1,2,2,3,3,4,4,5,5,6,6,7,7,11,11,12,12,13,13,15,15,16,16,19,19,20,20,21,21,23,23,26,26,30,30,31,31,32,32,34,34,36,36,37,37,42,42,45,45,46,46,47,47,48,48,49,49,54,54,55,55],"right_children":[2,4,6,8,10,12,14,16,-1,-1,-1,18,20,22,-1,24,26,-1,-1,28,30,32,-1,34,-1,-1,36,-1,-1,-1,38,40,42,-1,44,-1,46,48,-1,-1,-1,-1,50,-1,-1,52,54,56,58,60,-1,-1,-1,-1,62,64,-1,-1,-1,-1,-1,-1,-1,-1,-1],"split_conditions":[3.589E-1,7.1290797E-1,4.787E-1,3.534E-1,7.11E-2,5.6288713E-1,7.327618E-1,3.429E-1,3.3699982E-2,3.115414E-3,-2.3979962E-2,3.086717E-1,8.6E-3,9.071359E-1,-3.844404E-2,9.0238795E-2,3.539E-1,-2.5020365E-2,-1.4035158E-3,5E-4,1.275115E-1,5.7312405E-1,-2.351473E-2,5E-4,2.5529558E-2,-1.1293138E-2,4.4660217E-1,-1.811868E-2,-5.3071068E-3,1.9548336E-2,4.381E-1,5.488E-1,6.836717E-1,1.5960159E-2,2.43E-2,1.935892E-2,6.211717E-1,3.2598293E-1,8.735838E-3,-2.6087428E-3,-2.4821263E-2,1.9241175E-2,8.295E-1,7.493601E-4,3.1306574E-3,5.441E-1,6.295105E-1,2.139E-1,3.711717E-1,7.203E-1,6.2250933E-3,2.9917322E-3,-1.7904371E-2,1.9911528E-2,6.579E-1,2.0263822E-1,-5.2124597E-3,-2.2103902E-2,-6.695939E-3,4.0485457E-4,-2.1094695E-2,-9.830594E-4,1.190649E-2,3.1325643E-4,-1.275106E-3],"split_indices":[0,1,1,0,0,0,0,1,0,0,0,1,1,1,0,1,1,0,0,1,1,1,0,1,0,0,1,0,0,0,1,1,1,0,1,0,1,1,0,0,0,0,1,0,0,1,1,1,1,1,0,0,0,0,1,1,0,0,0,0,0,0,0,0,0],"split_type":[0,0,0,0,0,0,0,0,0,0,0,0,0,0,0,0,0,0,0,0,0,0,0,0,0,0,0,0,0,0,0,0,0,0,0,0,0,0,0,0,0,0,0,0,0,0,0,0,0,0,0,0,0,0,0,0,0,0,0,0,0,0,0,0,0],"sum_hessian":[1.97E2,9.3E1,1.04E2,8.3E1,1E1,5E1,5.4E1,7.9E1,4E0,4E0,6E0,1.1E1,3.9E1,3.7E1,1.7E1,4.7E1,3.2E1,7E0,4E0,8E0,3.1E1,2.9E1,8E0,1.9E1,2.8E1,3E0,2.9E1,5E0,3E0,6E0,2.5E1,1.1E1,1.8E1,6E0,1.3E1,7E0,2.2E1,2E1,5E0,4E0,7E0,3E0,1.5E1,3E0,1E1,1.1E1,1.1E1,1.2E1,8E0,9E0,6E0,7E0,4E0,4E0,7E0,7E0,5E0,3E0,5E0,6E0,3E0,4E0,3E0,4E0,3E0],"tree_param":{"num_deleted":"0","num_feature":"3","num_nodes":"65","size_leaf_vector":"1"}},{"base_weights":[-6.055057E-2,4.341878E-1,-5.028292E-1,5.558967E-1,-5.102377E-1,-2.4256347E-1,-7.2912085E-1,4.9838588E-1,3.3699982E-2,3.115414E-3,-2.3979962E-2,-6.356552E-1,-1.0986455E-1,-3.8491166E-1,-3.844404E-2,6.7674947E-1,2.1557862E-1,-2.5020365E-2,-1.4035158E-3,-5.395898E-1,2.3225756E-2,-2.1953006E-1,-2.351473E-2,2.81681E-1,2.5529558E-2,-1.1293138E-2,2.984302E-1,-1.811868E-2,-5.3071068E-3,1.9548336E-2,-1.731349E-1,-6.5011746E-1,7.686616E-2,1.5960159E-2,9.771135E-2,1.935892E-2,1.3245952E-1,-3.0947897E-1,8.735838E-3,-2.6087428E-3,-2.4821263E-2,1.9241175E-2,-1.02861986E-1,7.493601E-4,3.1306574E-3,-2.1401428E-1,4.612704E-1,-1.0213755E-1,-5.483474E-1,-3.2083163E-1,6.2250933E-3,2.9917322E-3,-1.7904371E-2,1.9911528E-2,2.0695262E-1,-1.7289799E-2,-5.2124597E-3,-2.2103902E-2,-6.695939E-3,4.0485457E-4,-2.1094695E-2,-9.830594E-4,1.190649E-2,3.1325643E-4,-1.275106E-3],"categories":[],"categories_nodes":[],"categories_segments":[],"categories_sizes":[],"default_left":[0,0,0,0,0,0,0,0,0,0,0,0,0,0,0,0,0,0,0,0,0,0,0,0,0,0,0,0,0,0,0,0,0,0,0,0,0,0,0,0,0,0,0,0,0,0,0,0,0,0,0,0,0,0,0,0,0,0,0,0,0,0,0,0,0],"id":24,"left_children":[1,3,5,7,9,11,13,15,-1,-1,-1,17,19,21,-1,23,25,-1,-1,27,29,31,-1,33,-1,-1,35,-1,-1,-1,37,39,41,-1,43,-1,45,47,-1,-1,-1,-1,49,-1,-1,51,53,55,57,59,-1,-1,-1,-1,61,63,-1,-1,-1,-1,-1,-1,-1,-1,-1],"loss_changes":[4.384585E1,1.1364481E1,5.9255276E0,2.1485863E0,2.6902466E0,2.5782309E0,1.1496748E1,3.82341E0,0E0,0E0,0E0,1.8530407E0,2.348507E0,2.60846E0,0E0,4.1187344E0,1.9338906E0,0E0,0E0,1.6015697E-1,4.546165E0,4.001691E0,0E0,1.0072532E0,0E0,0E0,1.8531272E0,0E0,0E0,0E0,1.9314376E0,1.5418215E0,2.2845588E0,0E0,9.821877E-3,0E0,2.866232E0,9.795799E-1,0E0,0E0,0E0,0E0,1.3056598E0,0E0,0E0,1.8546634E0,5.613034E-1,9.256576E-2,4.0519285E-1,1.574476E0,0E0,0E0,0E0,0E0,4.8646864E-1,7.88505E-3,0E0,0E0,0E0,0E0,0E0,0E0,0E0,0E0,0E0],"parents":[2147483647,0,0,1,1,2,2,3,3,4,4,5,5,6,6,7,7,11,11,12,12,13,13,15,15,16,16,19,19,20,20,21,21,23,23,26,26,30,30,31,31,32,32,34,34,36,36,37,37,42,42,45,45,46,46,47,47,48,48,49,49,54,54,55,55],"right_children":[2,4,6,8,10,12,14,16,-1,-1,-1,18,20,22,-1,24,26,-1,-1,28,30,32,-1,34,-1,-1,36,-1,-1,-1,38,40,42,-1,44,-1,46,48,-1,-1,-1,-1,50,-1,-1,52,54,56,58,60,-1,-1,-1,-1,62,64,-1,-1,-1,-1,-1,-1,-1,-1,-1],"split_conditions":[3.589E-1,7.1290797E-1,4.787E-1,3.534E-1,7.11E-2,5.6288713E-1,7.327618E-1,3.429E-1,3.3699982E-2,3.115414E-3,-2.3979962E-2,3.086717E-1,8.6E-3,9.071359E-1,-3.844404E-2,9.0238795E-2,3.539E-1,-2.5020365E-2,-1.4035158E-3,5E-4,1.275115E-1,5.7312405E-1,-2.351473E-2,5E-4,2.5529558E-2,-1.1293138E-2,4.4660217E-1,-1.811868E-2,-5.3071068E-3,1.9548336E-2,4.381E-1,5.488E-1,6.836717E-1,1.5960159E-2,2.43E-2,1.935892E-2,6.211717E-1,3.2598293E-1,8.735838E-3,-2.6087428E-3,-2.4821263E-2,1.9241175E-2,8.295E-1,7.493601E-4,3.1306574E-3,5.441E-1,6.295105E-1,2.139E-1,3.711717E-1,7.203E-1,6.2250933E-3,2.9917322E-3,-1.7904371E-2,1.9911528E-2,6.579E-1,2.0263822E-1,-5.2124597E-3,-2.2103902E-2,-6.695939E-3,4.0485457E-4,-2.1094695E-2,-9.830594E-4,1.190649E-2,3.1325643E-4,-1.275106E-3],"split_indices":[0,1,1,0,0,0,0,1,0,0,0,1,1,1,0,1,1,0,0,1,1,1,0,1,0,0,1,0,0,0,1,1,1,0,1,0,1,1,0,0,0,0,1,0,0,1,1,1,1,1,0,0,0,0,1,1,0,0,0,0,0,0,0,0,0],"split_type":[0,0,0,0,0,0,0,0,0,0,0,0,0,0,0,0,0,0,0,0,0,0,0,0,0,0,0,0,0,0,0,0,0,0,0,0,0,0,0,0,0,0,0,0,0,0,0,0,0,0,0,0,0,0,0,0,0,0,0,0,0,0,0,0,0],"sum_hessian":[1.97E2,9.3E1,1.04E2,8.3E1,1E1,5E1,5.4E1,7.9E1,4E0,4E0,6E0,1.1E1,3.9E1,3.7E1,1.7E1,4.7E1,3.2E1,7E0,4E0,8E0,3.1E1,2.9E1,8E0,1.9E1,2.8E1,3E0,2.9E1,5E0,3E0,6E0,2.5E1,1.1E1,1.8E1,6E0,1.3E1,7E0,2.2E1,2E1,5E0,4E0,7E0,3E0,1.5E1,3E0,1E1,1.1E1,1.1E1,1.2E1,8E0,9E0,6E0,7E0,4E0,4E0,7E0,7E0,5E0,3E0,5E0,6E0,3E0,4E0,3E0,4E0,3E0],"tree_param":{"num_deleted":"0","num_feature":"3","num_nodes":"65","size_leaf_vector":"1"}},{"base_weights":[-6.4221404E-2,1.1229304E-1,-7.250069E-1,3.9396066E-2,1.1014246E0,-5.3276783E-1,-2.9407812E-2,3.8139236E-1,-3.4224585E-1,2.1241613E-1,6.040858E-2,4.9905595E-3,-6.2403876E-1,4.811628E-1,9.929429E-2,-7.62208E-2,-5.467624E-1,-1.1111129E-3,1.0842804E-2,-9.283355E-1,-2.1751817E-2,8.9341056E-1,3.516598E-1,-6.688964E-1,5.946239E-1,-1.8572923E-2,2.1104913E-2,-3.1302443E-1,-3.6873255E-2,-4.527982E-1,-3.2641713E-2,-8.302433E-3,6.0906396E-3,1.0051935E-2,2.7829878E-2,2.6560158E-1,7.2952735E-1,-2.5180236E-3,-2.9311426E-2,-4.198988E-3,2.8089995E-2,-4.2417228E-1,2.4946807E-1,-2.2551563E-2,-2.171258E-1,-1.0606783E-3,-2.2154639E-2,-1.9380035E-2,3.7307203E-1,6.617047E-3,2.6805717E-2,-1.7530676E-3,-1.5408115E-2,1.0041894E-2,5.194391E-1,-6.0689473E-1,-2.6031306E-2,4.7560892E-1,3.886927E-2,-1.1534846E-1,5.548304E-3,2.2194749E-2,-1.6694496E-3,-7.68155E-3,-2.4077898E-2,8.327875E-2,-1.2634278E-2,1.758314E-2,6.474856E-2,-5.150644E-3,8.095881E-3,-4.1813875E-4,-5.464341E-3,-7.726027E-4,9.34339E-3,3.8929417E-4,2.3477294E-3,-1.7358026E-1,9.904673E-3,5.168434E-3,-9.315389E-3],"categories":[],"categories_nodes":[],"categories_segments":[],"categories_sizes":[],"default_left":[0,0,0,0,0,0,0,0,0,0,0,0,0,0,0,0,0,0,0,0,0,0,0,0,0,0,0,0,0,0,0,0,0,0,0,0,0,0,0,0,0,0,0,0,0,0,0,0,0,0,0,0,0,0,0,0,0,0,0,0,0,0,0,0,0,0,0,0,0,0,0,0,0,0,0,0,0,0,0,0,0],"id":25,"left_children":[1,3,5,7,9,11,-1,13,15,17,-1,-1,19,21,23,25,27,-1,-1,29,31,33,35,37,39,-1,41,43,-1,45,-1,-1,-1,-1,-1,47,49,-1,-1,-1,-1,51,53,-1,55,-1,-1,-1,57,-1,-1,-1,-1,59,61,63,65,67,69,71,-1,-1,-1,-1,-1,73,-1,-1,75,-1,-1,-1,-1,77,-1,-1,-1,79,-1,-1,-1],"loss_changes":[2.3079647E1,1.1224827E1,1.6741219E0,1.9497763E1,9.299966E0,2.1163769E0,0E0,2.1339407E0,3.7755985E0,3.6666462E-1,0E0,0E0,4.8578625E0,2.5483065E0,9.307841E0,1.8957708E0,6.4691877E0,0E0,0E0,1.12115E0,8.151907E-1,8.7462425E-2,1.1904321E0,1.9714108E0,4.747979E0,0E0,3.1983733E0,1.25196E0,0E0,1.1748997E0,0E0,0E0,0E0,0E0,0E0,4.6320386E0,4.860568E-1,0E0,0E0,0E0,0E0,4.3290174E-1,1.3286958E0,0E0,2.1848388E0,0E0,0E0,0E0,1.2603626E0,0E0,0E0,0E0,0E0,3.3873752E-1,1.6225305E0,4.1875505E-1,1.0739642E0,1.7411733E0,6.888658E-1,6.501098E-2,0E0,0E0,0E0,0E0,0E0,3.9486128E-1,0E0,0E0,7.505007E-3,0E0,0E0,0E0,0E0,1.0672902E0,0E0,0E0,0E0,7.7395916E-1,0E0,0E0,0E0],"parents":[2147483647,0,0,1,1,2,2,3,3,4,4,5,5,7,7,8,8,9,9,12,12,13,13,14,14,15,15,16,16,19,19,20,20,21,21,22,22,23,23,24,24,26,26,27,27,29,29,35,35,36,36,41,41,42,42,44,44,48,48,53,53,54,54,55,55,56,56,57,57,58,58,59,59,65,65,68,68,73,73,77,77],